34 128
34 -0.053686 0.101724 -0.155148 -0.023689 -0.030918 0.010288 0.107093 0.223219 0.046645 0.020934 -0.182650 0.048146 0.015863 -0.060736 -0.061316 -0.003884 0.039594 0.235173 0.073815 0.063359 -0.092427 -0.066176 -0.232280 0.121449 -0.010293 0.216468 0.237398 0.068006 -0.104581 0.046544 0.056305 0.101482 0.111881 -0.014342 0.086845 0.045887 0.132546 -0.081264 -0.169107 -0.285924 0.150795 -0.041519 0.099874 -0.081001 0.135867 0.024731 -0.020040 0.062242 -0.070069 0.038224 -0.097666 0.041586 -0.035894 -0.126313 -0.027273 0.099860 0.027117 0.004068 0.035213 -0.124246 -0.175445 -0.062748 -0.032851 0.195057 -0.163946 0.019606 -0.047664 -0.056781 -0.122087 -0.031244 0.024356 -0.074774 -0.154529 0.048347 0.057960 0.140850 0.119831 -0.136406 -0.104503 -0.018892 -0.092565 0.015237 0.042385 -0.047236 0.063239 0.079517 0.070813 0.001633 0.157309 0.128148 0.080010 -0.054866 0.139372 -0.094955 -0.068632 0.167794 0.111991 0.072179 0.054167 0.265042 -0.042260 -0.078764 -0.165645 0.158290 0.106323 -0.137377 0.022163 -0.106756 -0.085177 -0.276469 -0.108388 -0.116832 -0.045376 -0.088822 0.055728 0.009826 0.069193 -0.199645 0.011828 -0.166985 0.017625 0.145139 -0.068089 -0.242330 0.080251 -0.117832 -0.178786 -0.043246
1 0.026864 0.052652 -0.041961 -0.032627 0.045364 0.148273 0.059053 0.096498 0.007075 -0.119647 -0.164204 0.136179 0.003082 -0.164788 0.035722 0.084011 0.075423 0.136385 0.033654 -0.031973 -0.051486 -0.065453 -0.200464 0.126128 -0.122247 0.195378 0.241728 -0.101672 -0.117093 -0.018029 -0.010140 -0.047191 0.135470 -0.014252 0.179933 0.031404 0.136294 -0.092260 -0.024091 -0.277702 0.034209 -0.099415 0.016965 -0.075176 0.100014 0.111343 -0.032290 -0.040940 0.026903 0.159228 -0.041539 0.049024 -0.040791 -0.057704 -0.205878 0.203601 -0.025807 -0.031213 0.006942 -0.194976 -0.175790 0.004145 0.138276 0.046896 -0.187409 0.091124 -0.073999 -0.048459 -0.166937 -0.074901 0.085802 -0.167501 -0.034888 -0.079700 0.055746 0.002060 -0.039197 0.025928 -0.192293 -0.052320 -0.047809 0.052473 0.004822 -0.008847 0.085321 0.136444 0.036205 0.079326 0.134982 0.180348 0.068184 -0.109169 0.089067 -0.054895 0.001042 0.137234 0.093212 -0.030368 0.038146 0.294515 -0.053294 -0.084691 -0.145319 0.174602 -0.002657 -0.153981 0.061175 -0.162759 -0.071603 -0.138999 -0.151721 -0.099639 -0.047339 -0.003243 -0.009215 0.098426 0.014886 -0.218989 0.086389 -0.148931 -0.060945 0.153151 -0.061713 -0.116471 0.073578 -0.080451 -0.150243 -0.114347
33 -0.036361 0.094342 -0.134129 -0.020375 -0.027125 0.023568 0.097067 0.195761 0.046520 0.001829 -0.176886 0.050740 0.015344 -0.066817 -0.040406 0.002696 0.045889 0.216452 0.061621 0.045768 -0.085218 -0.054850 -0.218073 0.116081 -0.021829 0.199220 0.227007 0.045106 -0.111398 0.034211 0.049935 0.078955 0.109806 -0.003439 0.093004 0.047211 0.123644 -0.086431 -0.146562 -0.270010 0.136027 -0.043973 0.082555 -0.077475 0.128763 0.029934 -0.025602 0.043620 -0.049356 0.043126 -0.079822 0.034810 -0.030668 -0.105274 -0.048384 0.102470 0.022433 0.002950 0.039109 -0.134144 -0.161703 -0.054236 -0.003965 0.176156 -0.162121 0.035507 -0.048676 -0.049725 -0.122782 -0.039203 0.026574 -0.076190 -0.135704 0.030901 0.059523 0.117680 0.097767 -0.112453 -0.107966 -0.017417 -0.080499 0.025914 0.041930 -0.039542 0.062378 0.087641 0.065111 0.011950 0.159042 0.127458 0.079218 -0.057429 0.135456 -0.087643 -0.063943 0.159414 0.115261 0.057121 0.053147 0.257203 -0.040181 -0.070928 -0.164116 0.151234 0.086544 -0.135739 0.024582 -0.111448 -0.076525 -0.248635 -0.116650 -0.108850 -0.048952 -0.078778 0.042556 0.023141 0.061593 -0.189680 0.021348 -0.161437 0.006798 0.147882 -0.059422 -0.223972 0.086761 -0.102897 -0.173974 -0.055944
3 0.004180 0.061297 -0.074040 -0.033529 0.026767 0.104520 0.068938 0.120430 0.019800 -0.082376 -0.162877 0.103418 0.002096 -0.125265 0.005572 0.057984 0.057905 0.157396 0.042806 -0.005481 -0.055115 -0.065144 -0.201734 0.112989 -0.077758 0.189141 0.220543 -0.056772 -0.102607 -0.002751 0.014335 -0.006580 0.121193 -0.011236 0.145746 0.031492 0.126980 -0.085798 -0.059630 -0.255708 0.058189 -0.074517 0.037228 -0.071574 0.104523 0.076307 -0.033153 -0.015115 0.003989 0.117889 -0.057655 0.039659 -0.041343 -0.075253 -0.144678 0.162656 -0.012081 -0.014215 0.021268 -0.168340 -0.162723 -0.008356 0.089897 0.084392 -0.170002 0.070129 -0.064718 -0.045979 -0.149913 -0.058496 0.067749 -0.134037 -0.058047 -0.037725 0.054004 0.038944 0.005467 -0.017866 -0.159811 -0.037388 -0.053665 0.036671 0.011880 -0.019434 0.069402 0.118732 0.043716 0.055103 0.135256 0.160669 0.068037 -0.084664 0.090866 -0.057907 -0.009504 0.143891 0.097264 -0.004691 0.040359 0.266378 -0.040690 -0.078075 -0.145363 0.168266 0.026483 -0.144423 0.043618 -0.145486 -0.071525 -0.174983 -0.133832 -0.101150 -0.047235 -0.029888 0.009739 0.071363 0.035170 -0.203015 0.058442 -0.145010 -0.036610 0.145588 -0.055031 -0.140371 0.075619 -0.090285 -0.147309 -0.090530
2 -0.002991 0.062957 -0.068645 -0.028763 0.023194 0.106705 0.065877 0.124360 0.016007 -0.080253 -0.160665 0.111971 0.010496 -0.116716 0.015404 0.058700 0.059681 0.153022 0.038467 0.000074 -0.054856 -0.067741 -0.201809 0.116434 -0.087286 0.189677 0.220329 -0.046778 -0.112660 -0.002720 0.012418 0.000925 0.129281 -0.011595 0.134136 0.027634 0.125186 -0.077775 -0.054396 -0.244623 0.051137 -0.081653 0.041714 -0.071709 0.100084 0.073254 -0.026215 -0.014987 0.008465 0.117682 -0.052829 0.040326 -0.049369 -0.074355 -0.143005 0.164632 -0.005490 -0.010492 0.025091 -0.167864 -0.166531 -0.014841 0.079569 0.085890 -0.164899 0.062788 -0.055233 -0.054094 -0.152427 -0.050962 0.067731 -0.129612 -0.080159 -0.038923 0.055963 0.043452 0.007178 -0.025226 -0.156856 -0.037786 -0.045350 0.035041 0.008442 -0.012446 0.073770 0.106575 0.041547 0.045236 0.135766 0.161543 0.065587 -0.084385 0.099701 -0.051819 -0.008669 0.138754 0.088534 0.001930 0.033710 0.253689 -0.048132 -0.068031 -0.137862 0.157121 0.025159 -0.137164 0.049898 -0.143123 -0.069947 -0.168397 -0.131640 -0.087503 -0.042191 -0.022237 0.018664 0.081228 0.032555 -0.203189 0.060807 -0.143274 -0.046245 0.140872 -0.053288 -0.137105 0.066969 -0.088368 -0.144605 -0.091388
32 -0.018388 0.082523 -0.109158 -0.027643 -0.005214 0.061269 0.085508 0.161819 0.033108 -0.031461 -0.170278 0.079241 0.009485 -0.096462 -0.023919 0.029528 0.049899 0.195109 0.057326 0.024382 -0.070932 -0.056311 -0.216002 0.113520 -0.054582 0.194598 0.226189 0.003696 -0.111963 0.020542 0.029495 0.041187 0.120269 -0.004887 0.114784 0.037494 0.129033 -0.090721 -0.109753 -0.266857 0.100160 -0.056937 0.068532 -0.080856 0.118317 0.052589 -0.025675 0.020156 -0.030324 0.075334 -0.072074 0.034252 -0.038483 -0.095947 -0.086464 0.131175 0.004416 -0.003458 0.030576 -0.150692 -0.160935 -0.030540 0.037604 0.139273 -0.165317 0.046750 -0.055996 -0.047348 -0.136144 -0.048677 0.047497 -0.099276 -0.107700 -0.000086 0.056515 0.080354 0.059678 -0.070529 -0.127965 -0.032164 -0.073578 0.032008 0.031296 -0.030980 0.068899 0.095362 0.053019 0.024586 0.147504 0.145069 0.069768 -0.077202 0.119804 -0.071151 -0.037558 0.152565 0.108051 0.029668 0.050689 0.264590 -0.039539 -0.074263 -0.155199 0.158617 0.056173 -0.139043 0.027016 -0.127187 -0.076590 -0.217256 -0.125870 -0.101565 -0.043549 -0.060074 0.027996 0.041711 0.049835 -0.200454 0.039219 -0.151723 -0.014160 0.145977 -0.063861 -0.183674 0.077223 -0.099036 -0.163969 -0.071309
4 0.032150 0.052641 -0.028905 -0.031248 0.050500 0.152655 0.052964 0.081920 0.010257 -0.133229 -0.166851 0.139387 0.004506 -0.169370 0.035233 0.091901 0.079866 0.125463 0.023884 -0.043976 -0.043858 -0.067577 -0.194093 0.123352 -0.120434 0.194746 0.230771 -0.120162 -0.110015 -0.024081 -0.011238 -0.063429 0.137831 -0.013782 0.180772 0.031201 0.139866 -0.094576 -0.009963 -0.270868 0.016026 -0.105150 0.011079 -0.068143 0.096626 0.114600 -0.043460 -0.052128 0.034092 0.166959 -0.039570 0.045727 -0.043782 -0.049570 -0.223065 0.213406 -0.032523 -0.029843 0.009952 -0.200536 -0.173137 0.012664 0.155048 0.038894 -0.181481 0.094067 -0.066973 -0.052067 -0.171454 -0.075473 0.089343 -0.169867 -0.019417 -0.091807 0.058302 -0.009417 -0.046794 0.039791 -0.194835 -0.049612 -0.040177 0.050126 -0.005039 0.001177 0.083599 0.144222 0.039768 0.079337 0.130666 0.182906 0.067925 -0.108423 0.077789 -0.045199 0.016974 0.140152 0.091122 -0.037163 0.032254 0.279054 -0.044152 -0.074548 -0.139340 0.182513 -0.018014 -0.148742 0.062292 -0.169421 -0.062591 -0.134065 -0.149358 -0.090878 -0.048339 -0.003377 -0.018937 0.109052 0.009990 -0.208976 0.089906 -0.141012 -0.061157 0.152745 -0.054113 -0.101046 0.068408 -0.083410 -0.141473 -0.122200
14 -0.008102 0.066368 -0.089965 -0.026167 0.006066 0.078548 0.075993 0.143934 0.025234 -0.052196 -0.162354 0.085465 0.006081 -0.109317 -0.005026 0.040179 0.053392 0.168789 0.046891 0.009412 -0.060469 -0.057827 -0.202619 0.115740 -0.067809 0.193495 0.222230 -0.019574 -0.101270 0.006504 0.019549 0.015316 0.113243 -0.012664 0.126737 0.035889 0.127598 -0.080377 -0.082376 -0.263713 0.076208 -0.070123 0.051220 -0.072939 0.109868 0.066432 -0.024513 0.003918 -0.013907 0.099662 -0.064500 0.036394 -0.039133 -0.078646 -0.115555 0.141665 0.000106 -0.013360 0.021023 -0.158425 -0.166852 -0.023883 0.056888 0.108309 -0.166821 0.058575 -0.058118 -0.051703 -0.142381 -0.051022 0.053307 -0.118520 -0.088058 -0.015117 0.053750 0.061922 0.030115 -0.046579 -0.140033 -0.032444 -0.061656 0.036321 0.017004 -0.028177 0.070545 0.104442 0.045989 0.038662 0.143847 0.148566 0.073688 -0.082749 0.108803 -0.066728 -0.025274 0.149965 0.100871 0.014467 0.042141 0.268388 -0.040238 -0.075100 -0.150300 0.160707 0.043968 -0.140792 0.041140 -0.132736 -0.075208 -0.196880 -0.129707 -0.104142 -0.041860 -0.043189 0.019292 0.057569 0.043700 -0.204023 0.051173 -0.151065 -0.027207 0.142183 -0.061516 -0.170885 0.077666 -0.095639 -0.158080 -0.083608
24 -0.041119 0.102231 -0.153643 -0.021965 -0.036743 0.015625 0.110667 0.219175 0.047795 0.013551 -0.186242 0.046995 0.020465 -0.058242 -0.051753 -0.001109 0.039896 0.238738 0.069370 0.054257 -0.087724 -0.060407 -0.235705 0.120084 -0.013705 0.211305 0.244413 0.062809 -0.116368 0.043660 0.051900 0.096846 0.122319 -0.003925 0.095929 0.049308 0.130716 -0.095443 -0.162092 -0.288998 0.157103 -0.040942 0.098030 -0.083316 0.140397 0.020319 -0.030082 0.061266 -0.060682 0.033987 -0.093095 0.035895 -0.036555 -0.124228 -0.029401 0.100736 0.023845 0.010572 0.041085 -0.133346 -0.176424 -0.064918 -0.023468 0.201108 -0.163413 0.023911 -0.049963 -0.049484 -0.131527 -0.035780 0.032281 -0.069566 -0.155080 0.038474 0.066368 0.137016 0.119577 -0.137891 -0.106318 -0.018851 -0.087585 0.026403 0.046056 -0.049642 0.069660 0.082547 0.063161 0.004081 0.170127 0.132899 0.085873 -0.061143 0.149503 -0.091237 -0.066100 0.171209 0.117786 0.075899 0.053957 0.266034 -0.046112 -0.084641 -0.173791 0.163014 0.100530 -0.144658 0.013251 -0.112601 -0.086895 -0.278479 -0.116656 -0.113561 -0.052401 -0.093290 0.056431 0.018790 0.070322 -0.199991 0.012784 -0.168807 0.007879 0.150559 -0.063225 -0.239130 0.085773 -0.117018 -0.185809 -0.046442
6 0.086418 0.025013 0.026682 -0.042920 0.080009 0.209632 0.033694 -0.007572 -0.002155 -0.193602 -0.162855 0.159890 -0.022606 -0.218745 0.079665 0.119332 0.107771 0.077363 0.003850 -0.109673 -0.031951 -0.046256 -0.176105 0.104331 -0.178348 0.184977 0.252756 -0.213822 -0.118249 -0.043095 -0.042448 -0.145915 0.136660 -0.004982 0.241663 0.046085 0.144191 -0.112599 0.048882 -0.295672 -0.013606 -0.130890 -0.036050 -0.079249 0.078861 0.171440 -0.056703 -0.101082 0.088747 0.232395 -0.009106 0.059754 -0.038570 -0.020388 -0.324043 0.264070 -0.076036 -0.064886 -0.004610 -0.230429 -0.169951 0.052448 0.255089 -0.010698 -0.215099 0.149588 -0.087521 -0.026950 -0.194089 -0.113255 0.104295 -0.229492 0.079466 -0.153346 0.054067 -0.067303 -0.124578 0.119013 -0.252520 -0.071783 -0.047115 0.084491 -0.012366 0.005468 0.106023 0.203488 0.027268 0.141479 0.137693 0.217851 0.060056 -0.143798 0.063823 -0.034786 0.034886 0.136293 0.099404 -0.087247 0.053376 0.334751 -0.053795 -0.104787 -0.165555 0.210618 -0.081534 -0.167084 0.069906 -0.210528 -0.039057 -0.090049 -0.180331 -0.101683 -0.050522 0.023181 -0.071076 0.132295 -0.011773 -0.219385 0.132804 -0.165928 -0.086122 0.184146 -0.077721 -0.075133 0.074130 -0.067389 -0.141769 -0.178701
7 0.047785 0.037518 -0.019810 -0.039059 0.053233 0.161229 0.050433 0.047969 0.010293 -0.138083 -0.160968 0.132029 -0.004156 -0.179202 0.044342 0.094494 0.081568 0.112862 0.019344 -0.064402 -0.038344 -0.055720 -0.181746 0.108386 -0.136058 0.184666 0.232370 -0.137313 -0.110978 -0.025673 -0.019835 -0.083948 0.132161 -0.012580 0.193103 0.042364 0.133433 -0.095290 0.003596 -0.275302 0.016877 -0.104557 -0.007598 -0.077664 0.092321 0.132840 -0.042023 -0.063397 0.046220 0.180439 -0.030530 0.048587 -0.038550 -0.042790 -0.239117 0.218262 -0.046196 -0.042339 0.008639 -0.202390 -0.161250 0.027433 0.176216 0.028036 -0.186997 0.109010 -0.072304 -0.041917 -0.173646 -0.084482 0.085952 -0.185491 0.015883 -0.103861 0.049072 -0.021567 -0.068002 0.060197 -0.207749 -0.056790 -0.047606 0.064913 -0.005465 -0.000787 0.085070 0.160538 0.035412 0.098899 0.134889 0.189741 0.068061 -0.115913 0.077352 -0.044177 0.019592 0.141046 0.094433 -0.047958 0.048038 0.302420 -0.043177 -0.090912 -0.152009 0.184544 -0.036989 -0.150317 0.062743 -0.179355 -0.051999 -0.124212 -0.155319 -0.094844 -0.043160 -0.000292 -0.034355 0.106860 0.009005 -0.207771 0.101121 -0.152693 -0.059974 0.161567 -0.068014 -0.101414 0.073927 -0.074280 -0.140923 -0.137868
28 -0.027680 0.090280 -0.133775 -0.025997 -0.019156 0.040879 0.099999 0.198534 0.039884 -0.008807 -0.188664 0.071504 0.016622 -0.081527 -0.035511 0.012993 0.048807 0.222365 0.063410 0.037850 -0.084298 -0.061659 -0.235594 0.121681 -0.041230 0.218663 0.242716 0.028843 -0.119917 0.033918 0.038420 0.063658 0.125483 -0.010559 0.111398 0.042855 0.132104 -0.095435 -0.141571 -0.289812 0.130200 -0.051034 0.088464 -0.085860 0.131139 0.034996 -0.031119 0.042524 -0.045405 0.056749 -0.083127 0.036905 -0.042250 -0.110869 -0.060512 0.124657 0.013663 0.001736 0.036049 -0.150082 -0.179865 -0.053511 0.015389 0.175027 -0.169460 0.043564 -0.062127 -0.052658 -0.138744 -0.048380 0.044456 -0.089722 -0.133380 0.015093 0.063632 0.111556 0.090326 -0.105323 -0.127168 -0.026543 -0.086583 0.031455 0.035517 -0.042073 0.068933 0.099858 0.058930 0.018785 0.163814 0.151128 0.084820 -0.069417 0.137435 -0.088693 -0.054439 0.172607 0.116623 0.052904 0.055059 0.278108 -0.048007 -0.080935 -0.169442 0.171216 0.083455 -0.152658 0.027507 -0.128582 -0.086356 -0.256150 -0.125942 -0.111282 -0.048590 -0.077358 0.042091 0.029118 0.065032 -0.210837 0.028502 -0.173451 -0.002669 0.158107 -0.066429 -0.219034 0.088908 -0.114965 -0.183849 -0.058071
8 0.004377 0.063477 -0.068157 -0.030536 0.020208 0.105334 0.066280 0.123802 0.019912 -0.080764 -0.164194 0.104286 0.010181 -0.128942 0.013893 0.055953 0.060699 0.153986 0.039596 -0.004510 -0.052192 -0.059306 -0.198839 0.116238 -0.084396 0.190699 0.223045 -0.052294 -0.108661 -0.000857 0.011374 -0.008298 0.126538 -0.011130 0.145337 0.030789 0.125868 -0.084381 -0.056100 -0.261562 0.057762 -0.081258 0.034440 -0.077364 0.100464 0.078980 -0.023083 -0.014785 0.006286 0.116806 -0.052964 0.041877 -0.045179 -0.066053 -0.144482 0.163297 -0.008157 -0.017757 0.018884 -0.170512 -0.165550 -0.015319 0.089957 0.079172 -0.167487 0.065420 -0.064546 -0.049419 -0.146216 -0.057645 0.064075 -0.131664 -0.069153 -0.039494 0.055867 0.040276 0.003278 -0.019552 -0.158851 -0.040019 -0.047442 0.038188 0.017567 -0.019495 0.074210 0.117270 0.043875 0.047463 0.138641 0.159876 0.068809 -0.091312 0.099114 -0.060834 -0.010672 0.135449 0.091433 -0.000427 0.036256 0.265598 -0.047795 -0.076125 -0.143222 0.158867 0.024821 -0.141978 0.047307 -0.143511 -0.071759 -0.165140 -0.129919 -0.097897 -0.041810 -0.021439 0.006434 0.076497 0.030941 -0.204261 0.059952 -0.147450 -0.043916 0.143963 -0.054298 -0.144024 0.076841 -0.083195 -0.150594 -0.095703
30 -0.032537 0.094926 -0.120135 -0.024276 -0.016828 0.045229 0.088532 0.183054 0.042433 -0.013480 -0.178413 0.066186 0.014742 -0.080705 -0.031400 0.013964 0.043605 0.213579 0.062911 0.041787 -0.082245 -0.057928 -0.218532 0.115766 -0.037982 0.211046 0.241901 0.029887 -0.110677 0.025551 0.042962 0.064864 0.126191 -0.005029 0.111910 0.042394 0.131493 -0.086876 -0.132208 -0.285466 0.126818 -0.059067 0.076911 -0.087914 0.128694 0.041399 -0.027008 0.038977 -0.036464 0.066436 -0.076042 0.035405 -0.035391 -0.107706 -0.067007 0.120778 0.016984 -0.005616 0.034091 -0.143867 -0.171355 -0.047915 0.014533 0.166731 -0.172169 0.040465 -0.053544 -0.049967 -0.138143 -0.047254 0.039326 -0.094027 -0.131624 0.012531 0.056923 0.107572 0.084958 -0.100425 -0.122070 -0.023407 -0.083316 0.030385 0.037779 -0.039403 0.070527 0.091628 0.059198 0.014033 0.159479 0.138934 0.081036 -0.066074 0.135970 -0.082716 -0.055358 0.162602 0.110496 0.048834 0.051283 0.273227 -0.046447 -0.078541 -0.160891 0.162405 0.077281 -0.145040 0.026124 -0.119205 -0.083519 -0.241938 -0.123362 -0.106855 -0.043875 -0.066994 0.039167 0.038760 0.061405 -0.199972 0.032085 -0.160732 -0.006725 0.147420 -0.059640 -0.214565 0.084302 -0.101201 -0.175739 -0.063900
9 -0.007301 0.075391 -0.097974 -0.030984 0.006679 0.086559 0.085537 0.151903 0.029574 -0.056853 -0.182211 0.092360 0.007533 -0.115497 -0.011625 0.041830 0.058367 0.186354 0.051175 0.005265 -0.067195 -0.064474 -0.221595 0.127391 -0.072627 0.206727 0.246871 -0.023152 -0.117071 0.007913 0.020538 0.018862 0.126588 -0.011473 0.142626 0.044352 0.133183 -0.096680 -0.093324 -0.286828 0.093473 -0.070765 0.054942 -0.084100 0.120149 0.073466 -0.028696 0.007025 -0.017855 0.103142 -0.068526 0.040330 -0.040682 -0.085014 -0.127083 0.156017 -0.001763 -0.011816 0.025031 -0.170954 -0.178014 -0.028088 0.063823 0.123602 -0.178939 0.064014 -0.066419 -0.053983 -0.150541 -0.059723 0.055902 -0.123078 -0.085500 -0.022487 0.060179 0.071227 0.035435 -0.047517 -0.151005 -0.034406 -0.068011 0.040444 0.026103 -0.024888 0.082117 0.114734 0.054619 0.043702 0.153319 0.162760 0.076501 -0.090053 0.120184 -0.075275 -0.032535 0.156183 0.111773 0.018638 0.050689 0.284646 -0.047998 -0.080856 -0.167139 0.172984 0.038393 -0.149502 0.039994 -0.143487 -0.075672 -0.207447 -0.138823 -0.105578 -0.049144 -0.052162 0.017714 0.054377 0.041849 -0.207815 0.052442 -0.164021 -0.028468 0.155987 -0.069143 -0.179515 0.082056 -0.101916 -0.171249 -0.091827
5 0.072753 0.027448 0.019306 -0.038493 0.075124 0.187657 0.032029 0.008137 -0.001430 -0.173888 -0.150606 0.151578 -0.015659 -0.200022 0.063014 0.109263 0.099461 0.084891 0.005059 -0.093500 -0.033069 -0.045353 -0.166001 0.108287 -0.155474 0.179152 0.234809 -0.182978 -0.109034 -0.038512 -0.029442 -0.125694 0.128888 -0.006770 0.217191 0.041141 0.139901 -0.104094 0.037211 -0.272459 -0.011378 -0.115006 -0.029107 -0.075900 0.083779 0.158902 -0.045717 -0.085377 0.069405 0.211927 -0.019018 0.052028 -0.034810 -0.024102 -0.286639 0.238351 -0.064639 -0.054078 -0.002157 -0.211606 -0.161972 0.044738 0.219133 -0.006796 -0.192396 0.133503 -0.082106 -0.035190 -0.175901 -0.098963 0.096788 -0.208211 0.053125 -0.132721 0.046240 -0.057458 -0.104058 0.100280 -0.228615 -0.062494 -0.043559 0.071685 -0.014696 0.010106 0.096147 0.181308 0.033338 0.121139 0.126269 0.195878 0.059217 -0.131032 0.060088 -0.034937 0.036106 0.131932 0.093181 -0.069202 0.046371 0.308995 -0.043696 -0.090838 -0.153366 0.194278 -0.070873 -0.148434 0.066375 -0.194468 -0.045222 -0.086330 -0.164674 -0.094540 -0.046667 0.019184 -0.055612 0.124128 -0.009377 -0.207195 0.117563 -0.149896 -0.077525 0.168780 -0.066701 -0.076469 0.071011 -0.064598 -0.130295 -0.164141
11 0.069249 0.025048 0.020417 -0.036455 0.078733 0.199609 0.039049 0.007589 0.000651 -0.176499 -0.151313 0.157259 -0.011604 -0.203686 0.067055 0.118692 0.097634 0.079431 0.010300 -0.091662 -0.027477 -0.048460 -0.168407 0.112790 -0.163660 0.174670 0.233120 -0.191672 -0.112183 -0.039589 -0.036525 -0.125094 0.135312 -0.007459 0.224270 0.038151 0.140399 -0.101666 0.043789 -0.277493 -0.015685 -0.121302 -0.032917 -0.071791 0.080181 0.155591 -0.051961 -0.091310 0.071252 0.212933 -0.020441 0.048094 -0.039523 -0.025320 -0.292806 0.246330 -0.060029 -0.049962 -0.003435 -0.220868 -0.159873 0.049691 0.229707 -0.009968 -0.200193 0.130174 -0.081280 -0.032122 -0.185413 -0.096788 0.098159 -0.207426 0.054543 -0.138368 0.052002 -0.061509 -0.109856 0.100693 -0.229799 -0.065413 -0.041902 0.074846 -0.009806 0.011014 0.098821 0.179713 0.031546 0.126875 0.126461 0.201340 0.058654 -0.134183 0.061767 -0.033215 0.035068 0.133020 0.089851 -0.074522 0.038935 0.310552 -0.049189 -0.092678 -0.151103 0.193943 -0.067222 -0.155226 0.068951 -0.193320 -0.048762 -0.089240 -0.166956 -0.096524 -0.042184 0.020505 -0.059381 0.125613 -0.012261 -0.210826 0.116360 -0.150974 -0.082667 0.165421 -0.061790 -0.063104 0.067987 -0.068360 -0.130964 -0.160249
26 -0.024942 0.089984 -0.133209 -0.030138 -0.022528 0.045888 0.095049 0.187789 0.046503 -0.009742 -0.186698 0.070745 0.018684 -0.081846 -0.037070 0.010039 0.046334 0.214374 0.066383 0.035742 -0.079205 -0.056501 -0.231811 0.115694 -0.041888 0.208075 0.247909 0.030093 -0.113100 0.030913 0.037544 0.066009 0.122558 -0.006645 0.112450 0.047728 0.128738 -0.100842 -0.131273 -0.288827 0.132752 -0.056278 0.085606 -0.090190 0.128835 0.035865 -0.028599 0.039607 -0.040040 0.057004 -0.082818 0.041389 -0.040566 -0.109762 -0.062690 0.123102 0.017472 -0.000232 0.032618 -0.147544 -0.176070 -0.053125 0.021307 0.174863 -0.168164 0.041334 -0.056818 -0.047072 -0.134661 -0.047491 0.039372 -0.087460 -0.134781 0.011353 0.060680 0.113592 0.092398 -0.107003 -0.128305 -0.022306 -0.086030 0.031319 0.046130 -0.043100 0.077128 0.095571 0.058014 0.020860 0.164907 0.146690 0.078147 -0.066851 0.135061 -0.083792 -0.062563 0.160883 0.116340 0.052656 0.053747 0.278421 -0.051439 -0.084668 -0.168692 0.160453 0.080954 -0.152950 0.022223 -0.124979 -0.080614 -0.252227 -0.120759 -0.111604 -0.050803 -0.073304 0.036190 0.027574 0.061006 -0.206527 0.033328 -0.169866 -0.009066 0.151931 -0.070209 -0.217033 0.086268 -0.103601 -0.180885 -0.062290
31 -0.023725 0.085859 -0.116346 -0.029822 -0.003987 0.056443 0.084432 0.173205 0.033714 -0.029575 -0.173258 0.076709 0.009242 -0.090108 -0.027719 0.023993 0.051510 0.196582 0.058840 0.033919 -0.077371 -0.058043 -0.212075 0.118534 -0.051876 0.203386 0.229690 0.014589 -0.110056 0.020625 0.031859 0.048296 0.115237 -0.016418 0.106456 0.037950 0.131122 -0.084464 -0.116452 -0.272282 0.106753 -0.061782 0.072661 -0.077628 0.123205 0.051267 -0.023021 0.026021 -0.035061 0.070794 -0.073909 0.036400 -0.036895 -0.095331 -0.080829 0.130220 0.007864 -0.007347 0.033227 -0.143311 -0.164502 -0.035412 0.026041 0.142076 -0.161156 0.040801 -0.057182 -0.051468 -0.134888 -0.041107 0.044427 -0.098388 -0.113956 0.009539 0.055680 0.085706 0.068655 -0.077069 -0.124362 -0.027061 -0.069906 0.031076 0.031050 -0.036002 0.062532 0.095898 0.058043 0.022742 0.147964 0.147383 0.072368 -0.072959 0.119220 -0.080487 -0.040834 0.153876 0.109055 0.037373 0.046406 0.268746 -0.046525 -0.071787 -0.156948 0.155251 0.066545 -0.143615 0.033569 -0.124969 -0.079084 -0.228932 -0.124775 -0.108311 -0.047966 -0.056639 0.031559 0.043799 0.053019 -0.203197 0.033300 -0.159112 -0.012463 0.148727 -0.064407 -0.201295 0.078488 -0.106842 -0.163866 -0.066775
25 -0.013789 0.072593 -0.103886 -0.029588 -0.008927 0.063148 0.085768 0.156874 0.036207 -0.032827 -0.165892 0.078327 0.010082 -0.093409 -0.019492 0.031171 0.054412 0.184914 0.052333 0.018837 -0.066892 -0.053975 -0.202371 0.112365 -0.056304 0.188530 0.229065 -0.002806 -0.107191 0.013609 0.029296 0.030023 0.113468 -0.002260 0.117115 0.039535 0.125351 -0.093607 -0.105179 -0.262912 0.102129 -0.056137 0.062015 -0.076217 0.118034 0.051372 -0.031641 0.020061 -0.024791 0.077157 -0.062856 0.038779 -0.034556 -0.090831 -0.085388 0.132656 0.006370 -0.007988 0.031781 -0.150619 -0.157097 -0.029200 0.038531 0.135284 -0.156674 0.046686 -0.058410 -0.043171 -0.129800 -0.051526 0.042932 -0.095452 -0.100243 -0.004961 0.058189 0.077036 0.060056 -0.072457 -0.124074 -0.032976 -0.067894 0.037264 0.029305 -0.026979 0.070742 0.097173 0.052406 0.029104 0.151537 0.138001 0.070752 -0.075997 0.117027 -0.069437 -0.040790 0.148309 0.109102 0.025989 0.048772 0.254397 -0.042914 -0.078432 -0.152822 0.154185 0.046609 -0.136042 0.022512 -0.120514 -0.068914 -0.208212 -0.120018 -0.097180 -0.049402 -0.060009 0.028108 0.038854 0.051614 -0.191256 0.044948 -0.152933 -0.014667 0.142217 -0.061968 -0.180686 0.078343 -0.097654 -0.165050 -0.072965
29 -0.030405 0.081254 -0.119192 -0.025425 -0.017641 0.044404 0.087534 0.176769 0.033170 -0.017907 -0.164193 0.061703 0.010537 -0.081480 -0.032920 0.012346 0.042505 0.194528 0.061883 0.032792 -0.078065 -0.059136 -0.213084 0.112739 -0.035304 0.195807 0.220940 0.017853 -0.101831 0.028123 0.035105 0.054360 0.108300 -0.012323 0.105447 0.044282 0.122108 -0.086963 -0.120830 -0.266995 0.117000 -0.056116 0.075137 -0.077687 0.115137 0.038171 -0.024143 0.030995 -0.043116 0.063201 -0.079197 0.039891 -0.036218 -0.097543 -0.064406 0.118184 0.010640 -0.007352 0.028903 -0.138662 -0.168304 -0.045569 0.015062 0.146813 -0.157148 0.041723 -0.053317 -0.051689 -0.129903 -0.040184 0.042508 -0.092902 -0.117810 0.012351 0.051513 0.103049 0.074574 -0.086569 -0.121330 -0.021930 -0.075049 0.025307 0.035180 -0.037812 0.070395 0.090113 0.055437 0.020108 0.146586 0.139620 0.077735 -0.066381 0.119648 -0.086571 -0.047369 0.159827 0.108373 0.046005 0.049511 0.265866 -0.045030 -0.076897 -0.161551 0.156676 0.073981 -0.140341 0.027556 -0.117879 -0.074743 -0.232352 -0.113264 -0.109822 -0.042219 -0.066640 0.033078 0.030102 0.057137 -0.196502 0.028767 -0.159033 -0.002653 0.142779 -0.064153 -0.197136 0.081228 -0.099226 -0.160821 -0.060302
20 0.017591 0.061795 -0.058622 -0.033835 0.034793 0.131875 0.064171 0.103754 0.016944 -0.107171 -0.171944 0.126522 0.006962 -0.147608 0.024638 0.072904 0.074190 0.144035 0.033625 -0.023888 -0.049735 -0.068320 -0.202129 0.124164 -0.105046 0.193882 0.233184 -0.081182 -0.108962 -0.013511 0.002330 -0.026625 0.134445 -0.009478 0.164348 0.032030 0.133250 -0.090613 -0.037595 -0.268103 0.040205 -0.092541 0.024487 -0.072625 0.100415 0.099916 -0.031516 -0.027686 0.017608 0.140780 -0.050105 0.042821 -0.045057 -0.061543 -0.185243 0.192044 -0.018421 -0.023794 0.016623 -0.188057 -0.173248 -0.001753 0.122946 0.067594 -0.177778 0.085559 -0.068256 -0.053203 -0.166082 -0.065620 0.076214 -0.157136 -0.049263 -0.064898 0.052717 0.017472 -0.019986 0.006008 -0.180301 -0.042365 -0.049386 0.044683 0.009276 -0.009989 0.082289 0.127803 0.039258 0.067324 0.142786 0.175964 0.064565 -0.100134 0.093635 -0.050452 -0.002087 0.140882 0.095949 -0.019734 0.036534 0.281440 -0.046078 -0.075386 -0.146844 0.175537 0.008980 -0.151623 0.055900 -0.158989 -0.067368 -0.158989 -0.147493 -0.095787 -0.048236 -0.014507 0.000754 0.090768 0.029667 -0.213021 0.078683 -0.149829 -0.054506 0.150172 -0.059413 -0.128752 0.075548 -0.087725 -0.151897 -0.112155
27 -0.026022 0.082523 -0.111224 -0.023465 -0.007981 0.058089 0.084615 0.178150 0.038686 -0.032184 -0.177813 0.075245 0.010357 -0.086313 -0.024885 0.018530 0.047146 0.202776 0.057362 0.031822 -0.082089 -0.063817 -0.219765 0.121922 -0.048912 0.207088 0.238757 0.016222 -0.116253 0.025479 0.036611 0.052789 0.126647 -0.006481 0.119551 0.045591 0.137126 -0.086255 -0.117996 -0.286075 0.112549 -0.066296 0.075930 -0.078702 0.128591 0.055924 -0.025015 0.025355 -0.032971 0.076333 -0.070152 0.037272 -0.040947 -0.095721 -0.081917 0.134759 0.008536 -0.003566 0.032157 -0.154310 -0.172690 -0.041565 0.025857 0.155407 -0.172831 0.044430 -0.052349 -0.051826 -0.144113 -0.048583 0.046343 -0.102541 -0.119949 0.007004 0.062899 0.091083 0.071568 -0.085664 -0.138000 -0.027369 -0.072380 0.036313 0.033438 -0.038632 0.070385 0.104599 0.060060 0.024903 0.161721 0.147480 0.084538 -0.072810 0.132764 -0.077718 -0.045046 0.161420 0.113331 0.043736 0.047795 0.280384 -0.044012 -0.075969 -0.163743 0.161694 0.070405 -0.143126 0.031286 -0.132011 -0.080954 -0.239122 -0.129444 -0.105145 -0.051038 -0.059189 0.035118 0.044100 0.052790 -0.204751 0.038782 -0.162205 -0.007561 0.157559 -0.065687 -0.207806 0.085364 -0.107711 -0.175245 -0.069944
18 0.010807 0.065647 -0.065878 -0.033621 0.029106 0.120075 0.073278 0.116751 0.018782 -0.092563 -0.168778 0.109888 0.005431 -0.136064 0.015208 0.066682 0.067430 0.160417 0.039474 -0.013679 -0.057684 -0.060662 -0.203628 0.119640 -0.096706 0.199166 0.234103 -0.066764 -0.118211 -0.005454 0.004730 -0.015968 0.132104 -0.013584 0.158146 0.037383 0.133936 -0.088529 -0.054383 -0.271045 0.059686 -0.082087 0.035568 -0.077725 0.111052 0.089887 -0.033669 -0.020832 0.006107 0.131025 -0.053641 0.040893 -0.044747 -0.067990 -0.169521 0.178307 -0.016064 -0.022629 0.021288 -0.181908 -0.169254 -0.004906 0.100544 0.086251 -0.179924 0.073660 -0.064520 -0.051304 -0.154894 -0.060210 0.065702 -0.144111 -0.058494 -0.052635 0.057766 0.034001 -0.006581 -0.010849 -0.173654 -0.046630 -0.052693 0.042657 0.012986 -0.014467 0.077939 0.126379 0.044728 0.057692 0.146413 0.172575 0.069607 -0.097905 0.099068 -0.058733 -0.007965 0.143063 0.100212 -0.003442 0.045686 0.284259 -0.048572 -0.078251 -0.149221 0.175934 0.018289 -0.149366 0.052283 -0.157219 -0.071447 -0.170128 -0.145669 -0.099536 -0.049786 -0.023834 0.005622 0.078283 0.032672 -0.213852 0.065023 -0.156732 -0.044274 0.158207 -0.060715 -0.147467 0.073651 -0.088861 -0.156646 -0.102400
13 0.013611 0.057621 -0.045801 -0.031985 0.035823 0.125972 0.055875 0.097202 0.013482 -0.102983 -0.154964 0.118743 0.005589 -0.139412 0.024709 0.066901 0.064308 0.139499 0.036933 -0.019793 -0.046310 -0.062472 -0.189123 0.117132 -0.101022 0.187913 0.220505 -0.079187 -0.108842 -0.012927 0.004739 -0.030117 0.125376 -0.014658 0.151328 0.029719 0.123708 -0.082970 -0.033254 -0.254821 0.039644 -0.088797 0.025584 -0.073005 0.099175 0.095721 -0.026510 -0.031744 0.022199 0.138302 -0.043269 0.038771 -0.045679 -0.058135 -0.173955 0.177284 -0.019382 -0.021606 0.016648 -0.179546 -0.158694 -0.000543 0.116122 0.061353 -0.169627 0.076566 -0.066465 -0.046536 -0.152059 -0.060380 0.068905 -0.150651 -0.041931 -0.057732 0.049073 0.017084 -0.020352 0.010148 -0.173498 -0.041159 -0.047692 0.045893 0.004467 -0.012364 0.072392 0.126645 0.036731 0.062665 0.131083 0.169301 0.068851 -0.093878 0.083279 -0.048105 -0.002905 0.135164 0.094783 -0.019672 0.038856 0.269278 -0.041654 -0.070416 -0.135852 0.162608 0.005959 -0.142377 0.049661 -0.148463 -0.067259 -0.150021 -0.135903 -0.093218 -0.043739 -0.011926 -0.004027 0.088699 0.026988 -0.206129 0.070029 -0.145985 -0.053467 0.144661 -0.056469 -0.126035 0.074772 -0.081782 -0.145176 -0.100909
22 0.013365 0.060901 -0.060139 -0.031576 0.027312 0.118714 0.064215 0.111477 0.013575 -0.089398 -0.161675 0.110845 0.005222 -0.132038 0.014206 0.063973 0.065939 0.146795 0.035983 -0.015805 -0.051675 -0.063714 -0.198020 0.118727 -0.096127 0.186157 0.214362 -0.064923 -0.109044 -0.005261 0.000058 -0.020089 0.124369 -0.012961 0.153505 0.036467 0.121352 -0.088318 -0.041610 -0.249803 0.045300 -0.081155 0.033340 -0.074459 0.099158 0.088057 -0.026656 -0.020235 0.011247 0.127405 -0.045327 0.037288 -0.043299 -0.062586 -0.160990 0.171002 -0.015768 -0.017355 0.017212 -0.174742 -0.161041 -0.003461 0.101270 0.070234 -0.162273 0.072409 -0.057901 -0.052294 -0.149622 -0.057463 0.070963 -0.141034 -0.053800 -0.055045 0.052108 0.022256 -0.006788 -0.005549 -0.161384 -0.042181 -0.049094 0.044622 0.007638 -0.008652 0.075777 0.120970 0.037942 0.056379 0.134933 0.164183 0.066281 -0.093451 0.093176 -0.053011 -0.005323 0.130173 0.094648 -0.006782 0.033186 0.258015 -0.041970 -0.071344 -0.135858 0.161037 0.009179 -0.141718 0.052452 -0.147894 -0.059618 -0.156442 -0.129601 -0.092375 -0.046409 -0.017517 0.005653 0.080188 0.028431 -0.196361 0.066563 -0.144505 -0.043623 0.138490 -0.057498 -0.129066 0.071380 -0.086200 -0.137473 -0.100161
15 -0.013150 0.079137 -0.100945 -0.024270 0.003436 0.072970 0.084419 0.150655 0.034168 -0.044714 -0.174934 0.080355 0.009553 -0.103376 -0.015780 0.033201 0.053407 0.188838 0.055706 0.014005 -0.072054 -0.061435 -0.216342 0.115017 -0.058981 0.205079 0.238087 -0.012045 -0.113942 0.017883 0.030944 0.025995 0.124034 -0.008575 0.131815 0.043473 0.129127 -0.089064 -0.099732 -0.277803 0.097825 -0.068534 0.060635 -0.084904 0.117553 0.065339 -0.028043 0.012665 -0.019129 0.088478 -0.069382 0.042685 -0.041209 -0.090496 -0.105181 0.141626 0.002306 -0.012177 0.026814 -0.160234 -0.169210 -0.030771 0.049925 0.131412 -0.175606 0.052600 -0.057133 -0.049599 -0.144924 -0.050651 0.050217 -0.118270 -0.093657 -0.013262 0.059072 0.076882 0.047631 -0.061741 -0.142136 -0.030666 -0.071162 0.036299 0.023263 -0.031906 0.070939 0.112171 0.051481 0.033335 0.153892 0.154421 0.077665 -0.081309 0.119738 -0.074847 -0.035755 0.156228 0.111432 0.024980 0.051975 0.279237 -0.040740 -0.077495 -0.159203 0.169968 0.046053 -0.144887 0.037016 -0.139170 -0.072255 -0.218378 -0.132743 -0.103372 -0.047742 -0.055432 0.021925 0.055744 0.050915 -0.207442 0.045834 -0.164528 -0.020465 0.152151 -0.067177 -0.188340 0.084418 -0.095471 -0.166599 -0.080480
17 0.075674 0.029577 0.016945 -0.038177 0.077679 0.188269 0.035204 0.004194 0.003781 -0.172028 -0.152802 0.145740 -0.019956 -0.199499 0.063787 0.109896 0.096967 0.084018 0.009248 -0.096617 -0.030303 -0.044012 -0.165784 0.101257 -0.159730 0.171216 0.234881 -0.189680 -0.108288 -0.038318 -0.030492 -0.127778 0.127881 -0.009875 0.213620 0.044092 0.134531 -0.105349 0.038618 -0.276930 -0.006304 -0.117152 -0.029767 -0.069956 0.082709 0.159566 -0.054118 -0.084634 0.074757 0.206559 -0.014952 0.050780 -0.035998 -0.023643 -0.288411 0.246117 -0.062201 -0.053083 -0.000128 -0.214896 -0.160926 0.045483 0.228313 0.000656 -0.196599 0.134333 -0.084868 -0.029446 -0.185428 -0.102937 0.098452 -0.208583 0.061086 -0.136575 0.049326 -0.057440 -0.109084 0.097855 -0.231624 -0.060967 -0.040374 0.078781 -0.009199 0.004493 0.097429 0.185301 0.028667 0.125177 0.132935 0.203783 0.062971 -0.129418 0.065613 -0.034170 0.034187 0.135968 0.090839 -0.077979 0.048908 0.312365 -0.045795 -0.092960 -0.151102 0.199399 -0.066712 -0.153471 0.071389 -0.199645 -0.040579 -0.094348 -0.169999 -0.098013 -0.046818 0.016811 -0.060221 0.120658 -0.005402 -0.210607 0.119873 -0.153804 -0.081806 0.167308 -0.069110 -0.073134 0.070713 -0.070181 -0.134233 -0.165043
23 -0.044440 0.095500 -0.148624 -0.027020 -0.026091 0.020942 0.098104 0.202856 0.048724 0.012912 -0.178177 0.046639 0.014307 -0.063491 -0.052242 -0.000843 0.036735 0.222977 0.071341 0.058921 -0.087271 -0.058204 -0.221698 0.112388 -0.019193 0.208599 0.235087 0.059401 -0.107631 0.042142 0.055094 0.092044 0.109475 -0.008252 0.084627 0.044861 0.131092 -0.084275 -0.157045 -0.277566 0.144173 -0.047275 0.094974 -0.082059 0.133520 0.021942 -0.027315 0.057016 -0.055284 0.033437 -0.091841 0.036937 -0.032631 -0.119998 -0.033628 0.098722 0.026819 0.007075 0.039786 -0.134392 -0.166174 -0.060887 -0.018792 0.189927 -0.163758 0.029538 -0.052308 -0.052304 -0.123421 -0.040106 0.031575 -0.073855 -0.146369 0.034595 0.057371 0.131820 0.113370 -0.121769 -0.108171 -0.018027 -0.089507 0.021964 0.046019 -0.052304 0.063077 0.081347 0.062193 0.000752 0.159445 0.131266 0.083011 -0.058106 0.135914 -0.093233 -0.064184 0.170483 0.112131 0.067446 0.052925 0.263626 -0.039143 -0.077683 -0.170165 0.160809 0.095643 -0.139831 0.017960 -0.113465 -0.082090 -0.271802 -0.114970 -0.112819 -0.047724 -0.086078 0.052017 0.017043 0.069032 -0.198146 0.015945 -0.168783 0.010024 0.148394 -0.062535 -0.237596 0.087267 -0.111939 -0.181671 -0.043811
16 -0.028512 0.080974 -0.112558 -0.023992 -0.014385 0.043242 0.087511 0.170603 0.040043 -0.018458 -0.170273 0.059021 0.004335 -0.083267 -0.032011 0.012626 0.042346 0.197024 0.056178 0.029835 -0.074453 -0.058753 -0.212014 0.111695 -0.038892 0.199863 0.222876 0.017741 -0.103210 0.023961 0.040998 0.049433 0.109266 -0.011715 0.104601 0.038795 0.126100 -0.080576 -0.124462 -0.268404 0.119099 -0.051878 0.073866 -0.075295 0.115915 0.045211 -0.029736 0.030410 -0.038452 0.066237 -0.073861 0.040220 -0.038147 -0.102495 -0.069319 0.120853 0.005207 -0.009705 0.026931 -0.140386 -0.164063 -0.044365 0.019379 0.149766 -0.162079 0.045012 -0.056361 -0.049873 -0.133752 -0.043440 0.036531 -0.099000 -0.112845 0.012471 0.051292 0.092022 0.074129 -0.084577 -0.126384 -0.023411 -0.080783 0.031037 0.028824 -0.040992 0.068367 0.094369 0.053020 0.019307 0.151935 0.141885 0.077894 -0.069229 0.126098 -0.084021 -0.049938 0.161383 0.107597 0.044055 0.053964 0.270961 -0.040294 -0.082038 -0.157052 0.161153 0.069986 -0.139006 0.030470 -0.123768 -0.074376 -0.230012 -0.117448 -0.107089 -0.044214 -0.066493 0.030094 0.030138 0.057082 -0.192363 0.032426 -0.160264 -0.000350 0.146347 -0.065139 -0.201277 0.082890 -0.099360 -0.163297 -0.060195
21 -0.026237 0.086502 -0.115824 -0.026157 -0.012160 0.039485 0.087135 0.174026 0.040320 -0.012591 -0.165330 0.060838 0.013442 -0.077924 -0.029427 0.012982 0.043980 0.197949 0.061318 0.036822 -0.074246 -0.055192 -0.208836 0.107853 -0.033447 0.197868 0.221622 0.026839 -0.107562 0.028079 0.039878 0.060353 0.113780 -0.011134 0.100119 0.044354 0.121529 -0.083364 -0.120923 -0.267184 0.116773 -0.052733 0.077472 -0.078531 0.120219 0.041566 -0.025393 0.034073 -0.038528 0.057145 -0.074415 0.038153 -0.035418 -0.096377 -0.061144 0.116310 0.012178 -0.001482 0.033463 -0.132017 -0.164587 -0.040617 0.015495 0.153893 -0.161276 0.036364 -0.053447 -0.049677 -0.127319 -0.038282 0.040236 -0.087238 -0.120671 0.012336 0.056112 0.102779 0.077075 -0.092117 -0.116083 -0.020673 -0.071873 0.022949 0.030203 -0.037924 0.060838 0.088096 0.059385 0.013809 0.145789 0.137378 0.075661 -0.062706 0.125926 -0.080615 -0.051060 0.153344 0.106615 0.048322 0.045558 0.260601 -0.041265 -0.076669 -0.156947 0.152235 0.069612 -0.133723 0.026380 -0.115112 -0.073486 -0.232212 -0.118365 -0.106614 -0.046076 -0.063410 0.038721 0.031069 0.059150 -0.192668 0.029640 -0.158361 -0.007135 0.141458 -0.058150 -0.202328 0.082080 -0.102967 -0.162141 -0.058105
10 -0.012733 0.076592 -0.104387 -0.027307 -0.000006 0.068850 0.083469 0.157801 0.032196 -0.041874 -0.167639 0.077990 0.010099 -0.096228 -0.015057 0.033447 0.048364 0.188619 0.055518 0.018372 -0.070513 -0.063480 -0.213682 0.117355 -0.053021 0.202091 0.227309 -0.005236 -0.108165 0.017466 0.027887 0.038962 0.119316 -0.011191 0.126606 0.039437 0.128251 -0.088057 -0.100162 -0.269076 0.098940 -0.064299 0.062502 -0.078377 0.114852 0.059613 -0.026422 0.017855 -0.020756 0.087740 -0.068892 0.042635 -0.039737 -0.089638 -0.101235 0.137001 0.003724 -0.010970 0.029240 -0.156588 -0.172209 -0.037974 0.040417 0.132345 -0.166761 0.054751 -0.058143 -0.054721 -0.137465 -0.046834 0.050938 -0.109697 -0.101474 -0.011355 0.053627 0.084643 0.055661 -0.061212 -0.138472 -0.031807 -0.068183 0.035410 0.028427 -0.030829 0.073405 0.108852 0.050472 0.031847 0.147633 0.149660 0.076973 -0.076215 0.115916 -0.077461 -0.036311 0.158870 0.110087 0.030421 0.046157 0.271508 -0.044643 -0.083947 -0.159323 0.163662 0.057936 -0.147369 0.033620 -0.136116 -0.071559 -0.222172 -0.126914 -0.105316 -0.047029 -0.054845 0.021864 0.044570 0.051469 -0.200056 0.040677 -0.158639 -0.017519 0.149724 -0.067139 -0.189644 0.082166 -0.095771 -0.162459 -0.078495
19 -0.022557 0.082116 -0.111254 -0.023966 -0.013627 0.048588 0.081597 0.169144 0.034096 -0.019016 -0.168982 0.068351 0.007583 -0.089778 -0.025337 0.014818 0.045364 0.197820 0.060722 0.028309 -0.079676 -0.055095 -0.216047 0.115373 -0.047499 0.199100 0.234171 0.011878 -0.109945 0.025248 0.036527 0.052641 0.114037 -0.011044 0.109127 0.041142 0.130977 -0.086609 -0.120218 -0.277298 0.115406 -0.060496 0.072011 -0.077684 0.119062 0.052847 -0.026056 0.028253 -0.028805 0.067992 -0.071234 0.038622 -0.035632 -0.094841 -0.080579 0.120086 0.008540 -0.006996 0.030752 -0.142670 -0.166562 -0.042707 0.023398 0.147243 -0.164143 0.045279 -0.054682 -0.046819 -0.130429 -0.046652 0.041736 -0.101765 -0.110014 0.003179 0.051134 0.093476 0.065833 -0.084342 -0.127191 -0.022471 -0.075005 0.034028 0.032060 -0.038210 0.066811 0.098010 0.058497 0.025706 0.150348 0.143532 0.079515 -0.071016 0.123838 -0.083567 -0.045287 0.157733 0.106288 0.043211 0.053569 0.271236 -0.043223 -0.078501 -0.161931 0.160860 0.067794 -0.138316 0.031847 -0.126716 -0.077995 -0.226663 -0.125205 -0.107035 -0.042983 -0.066131 0.031016 0.035671 0.057923 -0.199097 0.033611 -0.160272 -0.011184 0.148471 -0.064551 -0.203560 0.078961 -0.101784 -0.168685 -0.068176
12 0.017229 0.059636 -0.061729 -0.032904 0.030333 0.121179 0.062450 0.103985 0.017477 -0.095417 -0.168710 0.115583 0.002600 -0.142040 0.013122 0.066482 0.065670 0.149653 0.033611 -0.021011 -0.051097 -0.059239 -0.199962 0.115190 -0.098492 0.191529 0.231119 -0.074148 -0.106887 -0.005021 0.006415 -0.024577 0.129384 -0.007817 0.162224 0.035044 0.132364 -0.091489 -0.044176 -0.273270 0.050827 -0.083150 0.027068 -0.079533 0.098656 0.090932 -0.034118 -0.022907 0.016038 0.133175 -0.048819 0.040420 -0.043429 -0.068280 -0.172525 0.182284 -0.018136 -0.022742 0.017504 -0.183345 -0.167644 -0.001655 0.115935 0.073970 -0.180426 0.082596 -0.067767 -0.045697 -0.158903 -0.068934 0.072193 -0.150522 -0.051466 -0.057096 0.055005 0.028319 -0.007988 0.001098 -0.169173 -0.044549 -0.054546 0.047271 0.014989 -0.016977 0.079160 0.130119 0.041707 0.060333 0.138943 0.172026 0.070741 -0.094333 0.096358 -0.059643 -0.009687 0.143556 0.101469 -0.010557 0.043352 0.282166 -0.045880 -0.081778 -0.151606 0.171425 0.011903 -0.150737 0.046105 -0.157379 -0.066156 -0.164332 -0.139213 -0.101521 -0.046591 -0.024306 -0.002330 0.079283 0.031388 -0.206554 0.072439 -0.152169 -0.046278 0.152652 -0.061294 -0.135379 0.079329 -0.082502 -0.148161 -0.107083
