77 128
11 -0.046635 -0.034109 0.136333 -0.078272 0.142175 -0.053754 -0.054035 0.094588 -0.010332 -0.108864 -0.240004 -0.035709 0.147994 -0.021698 0.128632 0.024843 -0.157020 -0.104908 -0.042826 0.092126 -0.051083 0.187130 0.077663 -0.126042 0.063758 0.268348 0.029027 -0.072982 -0.039689 0.005379 -0.208215 0.007511 -0.025285 -0.050952 0.087967 0.115294 0.088828 0.081920 -0.129423 0.254698 0.223226 -0.046431 -0.068189 0.148900 -0.152822 0.128041 0.091888 -0.142804 -0.085296 -0.061854 -0.164972 0.222441 -0.000214 -0.041828 0.065163 0.049306 -0.076896 -0.150528 0.141968 -0.036753 0.110463 -0.075614 -0.060177 -0.041004 0.043287 0.086621 -0.082172 0.098761 -0.028742 -0.075133 -0.163547 -0.089917 -0.158623 0.085159 -0.083513 -0.016884 -0.058433 -0.003416 -0.011219 -0.124854 0.126389 0.214832 0.037038 -0.003186 -0.072163 0.029688 0.083896 -0.111818 0.027362 0.043810 0.047380 -0.079159 0.077034 0.134107 0.163568 -0.014638 -0.283674 -0.076504 -0.017303 0.030900 0.187837 0.108185 0.031828 0.164243 0.027190 0.022829 0.052499 0.172179 0.014619 -0.023898 0.244064 -0.173470 -0.220230 -0.213116 0.004154 -0.139657 -0.004001 0.024743 0.061628 0.007450 0.034295 -0.098933 -0.168591 -0.298259 0.096912 -0.024121 0.067624 0.004759
56 -0.018351 0.065573 0.113419 0.015961 0.081862 0.029137 -0.091683 0.024132 0.003102 -0.185313 -0.219543 0.024542 0.065518 0.007077 0.140444 0.046390 -0.153519 -0.152953 -0.031364 0.041469 -0.011868 0.176121 -0.046783 -0.154970 0.068742 0.261304 0.050333 0.051701 -0.024875 -0.017838 -0.190744 -0.191752 -0.000988 -0.162410 0.160884 -0.012222 -0.006675 0.018958 -0.092866 0.216511 0.175542 -0.050807 -0.023308 0.133565 -0.037525 0.104022 -0.022746 -0.183686 -0.015918 -0.090755 -0.118002 0.187755 0.046149 -0.012555 0.064259 0.036310 -0.024956 -0.005282 0.092417 -0.024815 0.096514 -0.110799 0.045640 -0.023342 0.057863 0.060717 0.000246 0.078506 -0.100375 -0.049432 -0.149102 -0.034466 -0.172033 0.132093 -0.065705 0.032466 -0.116032 0.103261 0.032674 -0.096568 0.097981 0.182749 0.096892 0.102011 -0.153064 -0.035160 -0.052626 -0.051553 0.025328 -0.024241 0.078348 -0.097303 0.114598 0.029577 0.091752 0.078841 -0.218237 0.055474 0.045060 0.060839 0.143136 0.059996 0.076028 0.122729 0.120728 -0.029503 0.157581 0.077942 0.027504 0.002791 0.198012 -0.169110 -0.127286 -0.105113 0.002463 -0.096751 -0.061488 0.023731 0.033199 0.018444 -0.021416 -0.046364 -0.074165 -0.271620 0.190796 0.026269 0.150473 0.089624
59 -0.013256 0.189003 0.057807 -0.010861 0.162457 -0.006955 -0.091431 -0.108164 -0.016913 -0.117580 -0.210956 -0.099144 -0.036999 0.028402 0.186619 0.030729 -0.171442 -0.062111 0.019321 0.166621 0.033618 0.129024 -0.001663 -0.117284 0.055484 0.181410 0.021383 0.084244 0.080455 -0.055966 -0.155709 -0.230818 0.066065 -0.213960 0.163854 -0.080334 0.051815 0.012917 -0.012250 0.262848 0.119376 -0.083198 -0.007816 0.056035 0.086754 0.117434 -0.106630 -0.246486 0.067734 -0.087717 0.017632 0.183507 0.119525 -0.017445 0.162058 0.088457 -0.063533 0.067660 0.110569 -0.053498 -0.015195 -0.090500 0.194309 0.009474 0.090661 -0.085477 0.004509 0.096983 -0.081769 -0.055500 -0.159311 -0.159682 -0.168413 0.101985 0.001704 -0.009452 -0.204647 0.287293 0.082733 -0.133177 0.024662 0.083334 0.064639 0.114602 -0.131137 -0.064432 -0.025130 0.035786 0.047423 0.054816 0.102048 -0.090526 0.131958 0.111525 0.113473 -0.029556 -0.196548 0.054986 0.036938 0.096229 -0.041674 0.080965 0.070180 0.030518 0.175133 -0.042693 0.180818 0.068954 -0.054218 0.072505 0.124328 -0.039566 -0.149041 -0.085229 0.055088 -0.041405 0.024191 0.191584 0.116690 0.025180 -0.141979 0.014194 -0.107497 -0.092862 0.283487 -0.033484 0.047912 0.206220
63 -0.046111 0.186980 0.050796 0.034934 0.109815 0.027328 -0.116324 -0.144891 -0.033286 -0.160838 -0.205425 -0.037596 -0.030501 0.024792 0.231296 0.000580 -0.225841 -0.131824 -0.025449 0.195687 -0.012146 0.154964 -0.067015 -0.150520 0.083844 0.229721 0.071498 0.135014 0.067952 -0.042900 -0.154809 -0.323837 0.053836 -0.243059 0.232788 -0.117050 0.023409 0.008257 -0.014236 0.276568 0.136751 -0.112005 -0.005879 0.133781 0.084213 0.087159 -0.133761 -0.307698 0.104408 -0.078731 -0.007911 0.167535 0.139242 0.019761 0.163955 0.081092 -0.020176 0.103684 0.102111 -0.048445 -0.003446 -0.153287 0.227828 0.017610 0.088124 -0.101703 0.045172 0.128489 -0.107681 -0.058626 -0.175900 -0.150687 -0.178365 0.164068 0.017667 0.013649 -0.268825 0.356327 0.102088 -0.138643 0.010222 0.111664 0.097285 0.150612 -0.177820 -0.110167 -0.142689 0.064741 0.081052 0.006191 0.093004 -0.110725 0.175457 0.077662 0.096828 0.024410 -0.219349 0.124840 0.086556 0.075670 0.004074 0.123502 0.098690 0.028878 0.226165 -0.058610 0.220015 0.042288 -0.013679 0.062468 0.121557 -0.077206 -0.137441 -0.061903 0.053150 -0.082049 -0.014283 0.219088 0.127999 0.031495 -0.094872 0.084981 -0.048205 -0.204085 0.326125 -0.040132 0.087274 0.240588
27 -0.043700 0.025602 0.110352 -0.064326 0.152901 -0.034793 -0.072814 0.008239 -0.000323 -0.115236 -0.234386 -0.061268 0.087624 -0.003634 0.164067 0.037608 -0.161109 -0.083628 -0.035625 0.137672 -0.003874 0.154439 0.023399 -0.118124 0.058017 0.220257 0.027996 -0.007605 -0.015841 0.007749 -0.173032 -0.076893 0.014625 -0.113864 0.124056 0.045920 0.088805 0.059706 -0.090683 0.250948 0.169228 -0.041572 -0.041416 0.123602 -0.059078 0.107012 0.014110 -0.163084 -0.024254 -0.070545 -0.091548 0.191937 0.061469 -0.032290 0.109022 0.060872 -0.067034 -0.080640 0.126608 -0.035879 0.044519 -0.069101 0.061193 -0.029659 0.031912 0.010113 -0.052785 0.077949 -0.037311 -0.068934 -0.145117 -0.108367 -0.158681 0.091536 -0.035845 -0.023640 -0.108979 0.116513 0.020814 -0.114597 0.077779 0.149817 0.031846 0.043519 -0.087781 -0.024082 0.026859 -0.047795 0.035970 0.034378 0.074141 -0.074708 0.104242 0.162131 0.143739 -0.018886 -0.228055 -0.043534 0.007677 0.042196 0.076262 0.066295 0.023853 0.099701 0.088335 -0.014359 0.100083 0.106088 -0.025116 -0.000719 0.164509 -0.106892 -0.177686 -0.148266 0.025094 -0.091072 0.028610 0.092856 0.079807 0.016318 -0.037487 -0.060428 -0.135630 -0.177728 0.157607 -0.018068 0.050037 0.080177
26 0.097821 0.075078 0.074067 -0.076801 0.115384 -0.083731 -0.004495 -0.041912 -0.012308 -0.097476 -0.327131 -0.023439 0.060615 0.014134 0.109448 0.015640 -0.228967 -0.176757 -0.029277 0.041974 0.020920 0.126250 0.188123 -0.153610 0.115068 0.202230 0.104348 -0.021807 0.031218 -0.145335 -0.159966 -0.026468 0.090689 -0.180341 0.102366 0.033501 0.010464 0.015131 -0.061749 0.186920 0.195497 -0.131537 -0.085082 0.090808 0.019064 0.135550 -0.032749 -0.192528 -0.017920 -0.070725 -0.139087 0.175523 0.011682 -0.007634 0.086617 0.089391 -0.029073 0.058991 0.164431 -0.084406 -0.013497 -0.048284 0.007197 -0.000707 0.065090 0.015954 0.098627 0.143310 -0.163748 -0.080826 -0.200751 -0.163036 -0.113836 0.024369 -0.030869 0.031037 -0.174601 0.240572 -0.022202 -0.007567 0.112057 0.147810 0.078452 -0.000448 -0.115359 0.048780 -0.003198 -0.110123 -0.035413 0.041886 0.093329 -0.094157 0.147875 -0.025753 0.118799 -0.050942 -0.250244 -0.010700 0.006303 0.073141 0.202931 0.122301 0.104710 0.085796 0.075973 0.078917 0.099288 0.145255 0.104073 0.043064 0.236827 -0.111884 -0.194165 -0.208219 0.020414 -0.131826 -0.045274 0.020959 0.003775 0.038990 -0.078486 -0.080187 -0.172133 -0.313804 0.210049 0.028551 0.021287 0.199198
60 -0.100376 0.190738 0.053663 0.037520 0.131334 0.030994 -0.137888 -0.160589 -0.041064 -0.148538 -0.166107 -0.069977 -0.048590 0.019837 0.256519 0.000621 -0.213646 -0.077285 -0.026374 0.246720 -0.023857 0.159362 -0.111547 -0.133116 0.058158 0.221281 0.050022 0.133597 0.080451 -0.000228 -0.149089 -0.335966 0.035244 -0.219781 0.238041 -0.117663 0.062223 0.026450 -0.003151 0.313946 0.112596 -0.105573 0.014409 0.136381 0.067847 0.076224 -0.126346 -0.316149 0.113196 -0.069512 0.035178 0.163844 0.162049 0.012341 0.184873 0.082892 -0.042860 0.070199 0.097891 -0.033556 0.004529 -0.166911 0.259938 0.025808 0.084365 -0.133610 -0.005326 0.125715 -0.057414 -0.055262 -0.162916 -0.161826 -0.202574 0.184447 0.004244 -0.009652 -0.257739 0.323243 0.119435 -0.190405 -0.009074 0.111837 0.077299 0.158000 -0.164882 -0.125654 -0.099333 0.082283 0.107649 0.027101 0.081270 -0.108931 0.172496 0.161372 0.118829 0.004583 -0.213598 0.119839 0.084471 0.071041 -0.066817 0.126559 0.075070 0.013029 0.230936 -0.079842 0.226909 0.036065 -0.059826 0.046164 0.080466 -0.055952 -0.150932 -0.043461 0.074205 -0.063292 0.022555 0.289280 0.178786 0.026973 -0.094612 0.118485 -0.043978 -0.139464 0.321350 -0.082929 0.073638 0.231163
65 -0.090089 0.112607 0.079866 -0.061141 0.202767 -0.033983 -0.104648 -0.046553 -0.017984 -0.087121 -0.176513 -0.149100 0.012933 0.008520 0.197493 0.031733 -0.153432 0.003174 0.004473 0.244153 0.000645 0.151072 -0.021350 -0.084711 0.019339 0.187361 -0.027686 0.032480 0.048862 0.038075 -0.163318 -0.153109 0.029723 -0.122018 0.140630 -0.003308 0.138930 0.073107 -0.042736 0.316788 0.129584 -0.037865 -0.005584 0.084284 -0.005679 0.125145 -0.029122 -0.220587 0.034306 -0.076265 0.011393 0.211188 0.114545 -0.039513 0.179847 0.072208 -0.117618 -0.069915 0.121853 -0.039890 0.011174 -0.079033 0.177097 -0.014508 0.066603 -0.078513 -0.111647 0.076907 0.009197 -0.063584 -0.142322 -0.169375 -0.171374 0.120076 0.012646 -0.064403 -0.154001 0.207093 0.081297 -0.198193 0.007331 0.084374 0.018016 0.080564 -0.083633 -0.074176 0.045273 0.053945 0.083578 0.083368 0.077761 -0.062981 0.112818 0.265479 0.181960 -0.066840 -0.218940 -0.040120 0.004637 0.057388 -0.079855 0.089215 0.004924 0.061588 0.144406 -0.064884 0.130244 0.102587 -0.133857 0.038275 0.114230 -0.033150 -0.191861 -0.121802 0.052493 -0.054947 0.101903 0.243076 0.179057 -0.001035 -0.096179 -0.000693 -0.141099 -0.049318 0.225004 -0.077493 0.013124 0.106026
49 -0.071304 0.157378 0.048220 0.062028 0.063980 0.017295 -0.138111 -0.171322 -0.073488 -0.165582 -0.200424 0.008860 -0.039142 0.025045 0.260924 -0.023629 -0.268325 -0.178224 -0.059257 0.199224 -0.080908 0.205256 -0.072958 -0.176867 0.100706 0.258517 0.115837 0.129333 0.077615 -0.052487 -0.158919 -0.357923 0.052721 -0.247602 0.250735 -0.105877 0.008042 0.013511 -0.021895 0.293362 0.123518 -0.176168 -0.018726 0.184734 0.046573 0.098699 -0.124287 -0.356130 0.120042 -0.036588 -0.032410 0.111613 0.128380 0.055547 0.149721 0.045786 -0.003928 0.105843 0.096463 -0.035626 0.022568 -0.209402 0.208837 0.036246 0.047884 -0.119242 0.058639 0.170491 -0.134202 -0.051123 -0.178611 -0.185501 -0.188589 0.202543 -0.013340 0.030305 -0.311554 0.358544 0.079985 -0.163681 0.009499 0.133697 0.094070 0.126518 -0.183613 -0.089005 -0.157281 0.057056 0.066459 -0.010514 0.052834 -0.137387 0.213947 0.083376 0.100598 0.038336 -0.244671 0.180412 0.094013 0.050407 0.036621 0.187066 0.127544 0.023871 0.216793 -0.041479 0.232100 0.046474 0.052823 0.040681 0.103680 -0.129927 -0.144668 -0.072995 0.080837 -0.116136 -0.065439 0.268098 0.134373 0.044797 -0.045637 0.150787 -0.030182 -0.283021 0.335020 -0.075382 0.083225 0.267690
2 -0.239001 -0.153075 0.181291 -0.217105 0.279965 -0.170196 -0.140197 0.128294 -0.044810 -0.030092 -0.237343 -0.211064 0.213991 -0.056034 0.229173 0.023013 -0.172452 0.067512 -0.086784 0.394483 -0.126572 0.291426 0.056687 -0.105304 -0.002494 0.306913 -0.068037 -0.172781 -0.072948 0.217713 -0.269838 0.097918 -0.075265 0.103658 0.084665 0.287677 0.338521 0.256518 -0.184878 0.496906 0.270180 -0.000130 -0.063873 0.211186 -0.323093 0.212786 0.236675 -0.192066 -0.115030 -0.039285 -0.150255 0.275730 0.060459 -0.102749 0.215920 0.022907 -0.251868 -0.442942 0.193729 -0.023477 0.102419 -0.084791 -0.012426 -0.057988 -0.014944 0.022879 -0.389107 0.108364 0.159760 -0.105971 -0.172810 -0.232801 -0.217646 0.152283 -0.049815 -0.174515 -0.008471 -0.062481 0.015965 -0.360730 0.059333 0.226193 -0.073949 -0.096081 0.013375 -0.015983 0.277477 -0.037569 0.130630 0.161777 0.022753 -0.052417 0.072795 0.569431 0.374048 -0.158078 -0.392420 -0.275991 -0.123702 -0.033156 -0.003882 0.154196 -0.115329 0.199796 0.002098 -0.039372 -0.008714 0.281780 -0.216416 -0.099632 0.232388 -0.135023 -0.376956 -0.325201 0.058332 -0.158960 0.223237 0.302288 0.279431 -0.049616 0.074854 -0.093178 -0.282526 -0.150753 0.058824 -0.182795 -0.072514 -0.114274
24 0.180511 0.177501 0.152319 -0.138755 0.316346 -0.097027 -0.017823 0.191973 0.062270 -0.124098 -0.339605 -0.204578 0.029766 0.029775 0.013987 0.183696 -0.026718 -0.046195 0.197074 -0.098958 0.167831 0.128095 0.223556 -0.098616 0.013870 0.218532 -0.139586 -0.050914 0.068633 -0.152910 -0.266051 0.027676 0.111586 -0.229213 -0.035109 0.026987 0.032668 -0.013345 -0.135976 0.229247 0.248982 0.032184 -0.084897 -0.053117 0.088764 0.286367 -0.016681 -0.061663 -0.130281 -0.186064 -0.081965 0.369761 -0.024578 -0.121995 0.078685 0.072875 -0.137803 -0.027401 0.199670 -0.086854 0.073874 0.124038 0.004918 -0.100571 0.111981 0.173130 -0.025157 -0.012859 -0.153708 -0.058422 -0.156547 -0.088367 -0.128841 -0.065573 -0.070382 0.027380 -0.018293 0.060773 -0.016899 -0.035863 0.163230 0.065522 0.047985 0.063058 -0.040068 0.088695 0.229352 -0.087858 -0.150244 0.111340 0.165641 -0.042082 0.019960 0.027662 0.122878 -0.060845 -0.201503 -0.132503 -0.088903 0.189379 0.082533 -0.060879 0.058125 0.201919 0.030360 0.007743 0.095674 0.168101 -0.043112 0.156956 0.312676 -0.094749 -0.164516 -0.213634 -0.023751 -0.015500 -0.025026 -0.123449 -0.059465 0.022471 -0.274965 -0.336299 -0.307306 -0.012726 0.194421 0.128388 0.112913 0.061238
28 0.019750 0.105365 0.098420 0.002077 0.106406 -0.010935 -0.071633 0.015508 -0.000790 -0.146695 -0.235988 -0.010189 0.041717 0.013431 0.112734 0.040865 -0.153281 -0.146330 0.013222 0.027346 -0.005019 0.161587 0.034608 -0.144876 0.066916 0.244241 0.042624 0.030806 0.015709 -0.066479 -0.191903 -0.154250 0.027769 -0.162874 0.116921 -0.017753 -0.004778 0.007620 -0.081554 0.211247 0.183557 -0.075822 -0.045332 0.107072 0.001604 0.126277 -0.026662 -0.187906 -0.023381 -0.080673 -0.101757 0.192358 0.027409 -0.021156 0.080298 0.045858 -0.040327 0.025049 0.111532 -0.039209 0.070616 -0.087840 0.030742 -0.016954 0.081150 0.059913 0.019980 0.092356 -0.125213 -0.056598 -0.155064 -0.075447 -0.147464 0.085166 -0.068225 0.037117 -0.119138 0.122383 0.028866 -0.093782 0.099833 0.157695 0.097364 0.072296 -0.127065 0.004655 -0.012135 -0.055153 0.007857 0.012872 0.075560 -0.093239 0.103222 -0.018020 0.086503 0.048162 -0.221849 0.048713 0.020005 0.087593 0.145150 0.081536 0.088892 0.114775 0.103346 -0.009724 0.143112 0.103390 0.040619 0.041348 0.214423 -0.144348 -0.135529 -0.124221 0.012417 -0.101630 -0.065984 0.030605 0.032975 0.019867 -0.054880 -0.051673 -0.105557 -0.263329 0.198409 0.021706 0.125797 0.125027
66 -0.072752 0.193096 0.052401 0.019453 0.136242 0.020280 -0.127450 -0.125458 -0.031588 -0.130737 -0.159426 -0.087956 -0.048326 0.022204 0.212397 0.021911 -0.184686 -0.057851 -0.004441 0.219586 -0.000579 0.148711 -0.086735 -0.121566 0.048124 0.199736 0.027522 0.122416 0.074394 -0.006969 -0.151345 -0.308481 0.037235 -0.208997 0.206165 -0.100828 0.060577 0.031920 -0.006072 0.297124 0.112837 -0.088098 0.012198 0.099815 0.074571 0.094230 -0.115337 -0.277375 0.086857 -0.075710 0.032541 0.174916 0.144562 -0.000537 0.179873 0.072336 -0.062848 0.062952 0.094621 -0.032134 0.002983 -0.135086 0.233078 0.015225 0.084724 -0.099741 -0.024272 0.106030 -0.060877 -0.044046 -0.149331 -0.147368 -0.179385 0.155363 0.015124 -0.018364 -0.222091 0.292073 0.114428 -0.176947 -0.012329 0.086009 0.072547 0.142326 -0.148676 -0.107595 -0.077765 0.088885 0.094466 0.037373 0.086465 -0.093816 0.150990 0.147974 0.124532 0.003369 -0.198493 0.084842 0.058296 0.082211 -0.070387 0.100008 0.066432 0.027894 0.210786 -0.079333 0.208235 0.043266 -0.079555 0.061647 0.096891 -0.042659 -0.137823 -0.048102 0.056905 -0.047119 0.029880 0.246757 0.162521 0.015903 -0.110204 0.073667 -0.060916 -0.109196 0.301624 -0.058159 0.067891 0.199833
25 0.077413 0.032567 0.075871 -0.095333 0.127323 -0.088412 0.002789 -0.007788 -0.000786 -0.080042 -0.289731 -0.029792 0.080838 0.001513 0.092829 0.016599 -0.190881 -0.135679 -0.022518 0.030202 0.021379 0.110954 0.180633 -0.129369 0.101149 0.173422 0.086148 -0.043863 0.004499 -0.111444 -0.142587 0.034078 0.068806 -0.140329 0.075052 0.055913 0.032604 0.025122 -0.072897 0.163585 0.185764 -0.097665 -0.087753 0.083257 -0.009367 0.113197 0.001337 -0.148788 -0.041678 -0.071083 -0.131477 0.162283 0.003355 -0.018987 0.079592 0.086989 -0.041155 0.018782 0.154496 -0.073587 -0.006409 -0.025607 -0.018427 -0.008256 0.051316 0.036080 0.063403 0.116719 -0.122848 -0.073260 -0.166843 -0.135342 -0.109322 0.006142 -0.040976 0.007629 -0.113617 0.151583 -0.038973 -0.016656 0.121400 0.150251 0.051964 -0.015866 -0.089250 0.064405 0.047361 -0.126991 -0.030116 0.050781 0.077753 -0.078729 0.116792 0.000689 0.119515 -0.060928 -0.219198 -0.049574 -0.002447 0.063161 0.182735 0.092449 0.075412 0.084058 0.042931 0.079809 0.058607 0.147293 0.083892 0.030309 0.219218 -0.096317 -0.179191 -0.202843 0.010762 -0.109240 -0.011424 -0.000150 0.001424 0.027002 -0.068234 -0.107316 -0.177589 -0.259845 0.158616 0.030624 0.006387 0.140194
64 0.007690 0.239584 0.054376 0.005572 0.176500 0.002937 -0.108892 -0.098390 -0.015122 -0.139407 -0.205657 -0.116402 -0.079113 0.035710 0.182182 0.052465 -0.163239 -0.068922 0.056345 0.148766 0.049191 0.138725 -0.016388 -0.124530 0.042237 0.193462 -0.006054 0.111884 0.106851 -0.075471 -0.168831 -0.290058 0.087053 -0.263776 0.165262 -0.119050 0.031166 -0.000204 -0.007251 0.277719 0.121143 -0.082140 -0.001324 0.054480 0.137627 0.143699 -0.138173 -0.262771 0.082812 -0.101204 0.044871 0.199936 0.124143 -0.017054 0.163852 0.073035 -0.064706 0.108559 0.106059 -0.052824 -0.010488 -0.080814 0.239000 -0.005679 0.097215 -0.082971 0.014590 0.085309 -0.113590 -0.048674 -0.158345 -0.158159 -0.170648 0.109101 0.010189 0.001936 -0.219005 0.320288 0.090539 -0.146854 0.009336 0.054811 0.072390 0.145503 -0.141645 -0.079961 -0.036495 0.070960 0.024555 0.041885 0.116390 -0.091807 0.135762 0.093316 0.099904 -0.010495 -0.183334 0.083180 0.045144 0.115005 -0.074143 0.070323 0.089810 0.034348 0.201038 -0.064175 0.219137 0.049974 -0.060021 0.105735 0.119477 -0.036808 -0.123747 -0.065455 0.054238 -0.023521 -0.000146 0.191856 0.112490 0.029916 -0.184956 0.008807 -0.098472 -0.055032 0.326669 -0.012108 0.075537 0.225504
62 -0.124551 0.159204 0.065610 -0.001996 0.169438 0.006966 -0.151466 -0.116175 -0.038994 -0.121060 -0.157978 -0.124702 -0.029633 0.016070 0.247281 0.013940 -0.189447 -0.033018 -0.009781 0.296969 -0.025532 0.173965 -0.103051 -0.104467 0.035237 0.216134 -0.005622 0.107268 0.071217 0.043168 -0.167741 -0.292842 0.029566 -0.172718 0.210566 -0.070474 0.115127 0.059807 -0.022760 0.343345 0.106322 -0.069842 0.010092 0.123346 0.027943 0.112746 -0.082792 -0.295043 0.095180 -0.069020 0.030280 0.182686 0.161701 -0.005876 0.207651 0.059725 -0.085651 -0.014714 0.107049 -0.030134 0.007070 -0.142427 0.254545 0.010156 0.069879 -0.123670 -0.092513 0.106423 -0.014692 -0.057035 -0.153733 -0.181723 -0.193092 0.179293 0.024136 -0.052322 -0.229924 0.297743 0.117175 -0.232502 -0.025245 0.080453 0.043498 0.131882 -0.133160 -0.129690 -0.046719 0.112162 0.114865 0.056710 0.077705 -0.090354 0.154958 0.259994 0.164315 -0.030601 -0.227086 0.050373 0.044307 0.057973 -0.114237 0.119975 0.034388 0.032275 0.211966 -0.096639 0.188401 0.064004 -0.121636 0.046782 0.080893 -0.045780 -0.176777 -0.071027 0.074400 -0.060441 0.072192 0.311811 0.209608 0.011564 -0.090269 0.091833 -0.089988 -0.084193 0.295201 -0.100091 0.045886 0.165450
50 -0.071941 0.052686 0.110480 -0.018046 0.138086 0.018285 -0.086110 -0.022597 0.004975 -0.153567 -0.213368 -0.027827 0.077045 0.003332 0.200301 0.024415 -0.167001 -0.101238 -0.049389 0.147506 -0.006263 0.151995 -0.049674 -0.115430 0.062129 0.233122 0.032637 0.043864 -0.014669 0.014409 -0.178679 -0.160867 0.002177 -0.142686 0.175655 -0.002975 0.062238 0.045063 -0.082870 0.252599 0.154816 -0.030593 -0.011048 0.130838 -0.050573 0.082395 -0.017885 -0.194297 0.004990 -0.084462 -0.082932 0.203505 0.091545 -0.019015 0.099746 0.072487 -0.042960 -0.055598 0.107923 -0.033364 0.062723 -0.114453 0.105086 -0.024122 0.047649 -0.018422 -0.042619 0.073662 -0.026749 -0.062539 -0.159241 -0.081860 -0.175206 0.138021 -0.032335 -0.012436 -0.146485 0.147997 0.054107 -0.113956 0.064948 0.162162 0.047701 0.102517 -0.133976 -0.068103 -0.041910 -0.025213 0.067234 0.007961 0.079892 -0.089967 0.107595 0.161673 0.129887 0.024603 -0.233760 0.006240 0.054715 0.050077 0.068103 0.063141 0.039759 0.090135 0.139206 -0.044049 0.144242 0.081718 -0.033083 -0.001494 0.151792 -0.120949 -0.161818 -0.114583 0.024660 -0.081648 0.021565 0.105123 0.093643 0.017895 -0.028499 -0.028173 -0.094454 -0.194129 0.187343 -0.025390 0.088771 0.085667
70 0.070166 0.119163 0.035405 -0.072573 0.132590 -0.085120 -0.017014 -0.135865 -0.040376 -0.072534 -0.305475 -0.062651 0.004145 0.026919 0.158182 -0.018696 -0.265094 -0.152602 -0.031757 0.131046 0.014477 0.109769 0.169748 -0.138489 0.120929 0.156955 0.111445 0.021237 0.083082 -0.159435 -0.129866 -0.084366 0.126702 -0.217913 0.137056 -0.013146 0.035455 0.009519 -0.024411 0.200920 0.157650 -0.163349 -0.076489 0.094627 0.078529 0.119494 -0.090234 -0.243000 0.056769 -0.056187 -0.072310 0.139922 0.061946 0.013751 0.131077 0.107965 -0.025997 0.102145 0.165525 -0.092049 -0.064271 -0.064675 0.114449 0.023477 0.068810 -0.094770 0.115316 0.163190 -0.154513 -0.086335 -0.199963 -0.229572 -0.119279 0.046660 0.001102 0.015874 -0.249909 0.361266 -0.005062 -0.034211 0.077686 0.107800 0.058301 0.021821 -0.126856 0.017884 -0.027574 -0.062356 -0.014549 0.057356 0.098198 -0.100775 0.179239 0.035578 0.128764 -0.103156 -0.233098 0.025585 0.030900 0.062991 0.105248 0.149821 0.111243 0.021468 0.124623 0.067444 0.118027 0.116574 0.086458 0.067619 0.160179 -0.066289 -0.192621 -0.182265 0.057379 -0.112897 -0.011304 0.143782 0.057989 0.052225 -0.114387 -0.003618 -0.162555 -0.244098 0.275472 -0.014305 -0.033924 0.264966
4 -0.248623 -0.122551 0.156969 -0.188199 0.268101 -0.126516 -0.140770 0.093963 -0.032906 -0.030649 -0.185517 -0.213663 0.180860 -0.053793 0.236354 0.024205 -0.152206 0.090401 -0.085304 0.409675 -0.109344 0.249995 0.005859 -0.082679 -0.008115 0.272561 -0.079137 -0.132155 -0.056632 0.223759 -0.233007 0.061885 -0.071451 0.088746 0.094741 0.233876 0.327480 0.237470 -0.150417 0.464116 0.224205 0.014749 -0.045610 0.197461 -0.282965 0.182442 0.191646 -0.181134 -0.083498 -0.035150 -0.095978 0.259368 0.086407 -0.089144 0.214676 0.027321 -0.227848 -0.412174 0.170243 -0.015498 0.091858 -0.084556 0.040130 -0.058638 -0.009331 -0.012457 -0.373023 0.094835 0.180666 -0.093955 -0.153277 -0.210597 -0.215063 0.162425 -0.025545 -0.171309 -0.028915 -0.026918 0.042963 -0.340963 0.028985 0.183071 -0.071802 -0.053918 0.011981 -0.060642 0.236725 0.002690 0.149991 0.142944 0.029814 -0.039881 0.070649 0.575998 0.355074 -0.147919 -0.359703 -0.251472 -0.092570 -0.031639 -0.049932 0.134510 -0.120067 0.165523 0.031758 -0.060900 0.001450 0.239696 -0.236388 -0.083011 0.173679 -0.098240 -0.341337 -0.272113 0.063764 -0.128987 0.232095 0.318824 0.285597 -0.043368 0.056538 -0.059694 -0.252554 -0.095947 0.078180 -0.182993 -0.068751 -0.099984
21 0.243661 0.249610 0.194988 -0.113347 0.348869 -0.068723 -0.033135 0.262833 0.101913 -0.199450 -0.404384 -0.204665 0.005606 0.046834 -0.014471 0.238680 -0.000388 -0.094576 0.260384 -0.192406 0.214584 0.162288 0.220369 -0.139441 0.009997 0.283032 -0.175906 -0.010096 0.080944 -0.200607 -0.336503 -0.056971 0.132599 -0.320224 -0.027628 -0.016569 -0.033020 -0.055269 -0.176663 0.257744 0.294861 0.063411 -0.081408 -0.080301 0.136951 0.359907 -0.046313 -0.054710 -0.153898 -0.245675 -0.104670 0.448440 -0.039086 -0.142777 0.057469 0.059736 -0.145498 0.010697 0.198190 -0.087393 0.115188 0.146371 0.008293 -0.132907 0.147058 0.250883 -0.001903 -0.048049 -0.220105 -0.051774 -0.179734 -0.034076 -0.146160 -0.057120 -0.095175 0.062838 -0.004975 0.068145 -0.010732 -0.022524 0.189071 0.072944 0.095851 0.125910 -0.077275 0.088188 0.205071 -0.082726 -0.204552 0.089719 0.215384 -0.050334 0.001817 -0.043241 0.098851 0.007344 -0.209869 -0.091089 -0.080619 0.249551 0.113497 -0.115693 0.091217 0.258012 0.065594 -0.021264 0.161776 0.159424 -0.043630 0.198431 0.386681 -0.144487 -0.144937 -0.218533 -0.042504 -0.002572 -0.091863 -0.217465 -0.124190 0.032699 -0.338597 -0.420002 -0.322530 -0.018460 0.241003 0.207590 0.211146 0.065827
69 0.019798 0.029952 0.034133 -0.088598 0.092310 -0.106969 -0.008178 -0.123605 -0.051184 -0.051300 -0.285758 -0.019009 0.061306 -0.003072 0.157977 -0.044023 -0.277192 -0.146799 -0.090605 0.144972 -0.035140 0.124404 0.166338 -0.147642 0.125844 0.168195 0.152427 -0.032734 0.024610 -0.108613 -0.120107 -0.007302 0.080416 -0.128013 0.129767 0.057229 0.068516 0.046388 -0.031627 0.202289 0.161443 -0.167461 -0.085451 0.133226 -0.022343 0.091681 -0.016532 -0.234719 0.029209 -0.024247 -0.117043 0.109584 0.042527 0.020280 0.127208 0.098328 -0.034115 0.030693 0.160554 -0.075964 -0.053270 -0.095348 0.040838 0.029761 0.039869 -0.069218 0.074498 0.189440 -0.108288 -0.095236 -0.199750 -0.220330 -0.124944 0.056018 -0.012348 -0.009973 -0.206869 0.269439 -0.021847 -0.058818 0.080109 0.151956 0.042193 -0.034556 -0.111841 0.033591 -0.009555 -0.099727 0.022651 0.053134 0.060459 -0.101640 0.181947 0.068214 0.153606 -0.105644 -0.256699 -0.014100 0.013920 0.020002 0.159350 0.179726 0.082132 0.033184 0.076513 0.091775 0.078043 0.153274 0.098868 0.008596 0.170673 -0.080752 -0.222527 -0.212935 0.055877 -0.140788 0.015549 0.149167 0.079857 0.036321 -0.030550 0.014529 -0.157890 -0.318085 0.203969 -0.047529 -0.061385 0.213715
18 0.254313 0.278490 0.237925 -0.132397 0.420421 -0.081387 -0.062569 0.324895 0.109513 -0.237853 -0.463032 -0.251238 0.021322 0.045854 -0.005467 0.286933 -0.004785 -0.097429 0.295789 -0.201843 0.239012 0.217073 0.240100 -0.166728 -0.001575 0.357484 -0.225951 -0.022519 0.089005 -0.198469 -0.411249 -0.070261 0.137131 -0.357484 -0.030362 0.005511 -0.013865 -0.045831 -0.212385 0.339811 0.358377 0.075263 -0.099016 -0.072745 0.128251 0.429127 -0.037610 -0.070511 -0.188378 -0.286634 -0.129765 0.539621 -0.043720 -0.172164 0.074756 0.056206 -0.188471 -0.029531 0.239009 -0.101124 0.161333 0.163295 0.005920 -0.167130 0.168805 0.300613 -0.046636 -0.058074 -0.240270 -0.055157 -0.202728 -0.042752 -0.185143 -0.059360 -0.111266 0.064296 0.005499 0.048508 -0.009038 -0.066646 0.223889 0.092532 0.103443 0.147521 -0.083033 0.101081 0.271064 -0.092939 -0.221445 0.110470 0.241380 -0.060089 0.003344 -0.008539 0.139842 0.008346 -0.260494 -0.129143 -0.108623 0.286447 0.119658 -0.125766 0.094555 0.317661 0.071476 -0.038641 0.182510 0.200476 -0.075541 0.224819 0.457754 -0.181760 -0.187499 -0.263098 -0.049974 -0.009148 -0.096116 -0.233877 -0.123330 0.034952 -0.390031 -0.496297 -0.387560 -0.020290 0.275922 0.226518 0.249790 0.048463
3 -0.209255 -0.127042 0.173734 -0.213297 0.285218 -0.152762 -0.128206 0.109267 -0.028830 -0.027538 -0.233457 -0.221107 0.201210 -0.047868 0.222639 0.038391 -0.165896 0.080042 -0.071416 0.381920 -0.101693 0.257990 0.064078 -0.097301 -0.004104 0.279196 -0.074118 -0.164153 -0.058326 0.194481 -0.253514 0.103142 -0.052362 0.088610 0.076260 0.264162 0.324077 0.234122 -0.168763 0.462134 0.225877 0.007542 -0.061610 0.176982 -0.285662 0.204520 0.206653 -0.166337 -0.103551 -0.039622 -0.118678 0.275444 0.062976 -0.098778 0.206820 0.038414 -0.243781 -0.413944 0.191596 -0.030579 0.089385 -0.059439 0.009216 -0.052234 -0.012012 0.014722 -0.359832 0.096300 0.153955 -0.105046 -0.164805 -0.228833 -0.216841 0.128014 -0.040665 -0.161270 -0.020996 -0.042407 0.020905 -0.326245 0.059162 0.193806 -0.081836 -0.076995 0.017501 -0.017660 0.275885 -0.030632 0.127619 0.159026 0.037389 -0.040571 0.068831 0.551815 0.360913 -0.158059 -0.372600 -0.272830 -0.114616 -0.020186 -0.019961 0.135268 -0.111205 0.173657 0.006199 -0.034029 -0.013088 0.265143 -0.215863 -0.075931 0.205401 -0.103613 -0.355351 -0.305909 0.053416 -0.131686 0.225049 0.282920 0.261749 -0.040424 0.041777 -0.099697 -0.286584 -0.104505 0.067101 -0.167806 -0.069631 -0.095437
20 0.179044 0.219356 0.192107 -0.138912 0.368172 -0.081872 -0.051862 0.246658 0.086317 -0.174838 -0.372068 -0.248836 0.016657 0.038474 0.021048 0.233112 -0.006709 -0.036462 0.244777 -0.093718 0.189670 0.176927 0.198627 -0.117967 -0.005555 0.276678 -0.200197 -0.024719 0.084050 -0.135190 -0.336442 -0.047423 0.113239 -0.270532 -0.026029 0.013296 0.039540 -0.011055 -0.172426 0.311226 0.275490 0.069863 -0.076057 -0.062109 0.098038 0.355419 -0.021831 -0.075920 -0.142177 -0.225819 -0.081843 0.447383 -0.005949 -0.151480 0.103973 0.053790 -0.173229 -0.057938 0.209620 -0.081363 0.112019 0.131938 0.043049 -0.137754 0.126485 0.206852 -0.086877 -0.039030 -0.155754 -0.054052 -0.176379 -0.077555 -0.169466 -0.034452 -0.072469 0.019507 -0.013507 0.064258 0.007390 -0.096136 0.165693 0.065722 0.061532 0.113031 -0.056416 0.065086 0.251162 -0.049656 -0.158466 0.111923 0.197535 -0.048915 0.013690 0.085355 0.158582 -0.033423 -0.233841 -0.136389 -0.097572 0.222584 0.041686 -0.083620 0.052161 0.248720 0.070559 -0.042526 0.140709 0.181736 -0.110588 0.173704 0.352518 -0.119196 -0.179980 -0.227982 -0.027144 -0.000275 -0.023261 -0.114074 -0.053472 0.025978 -0.322207 -0.384799 -0.339486 0.027866 0.235052 0.150406 0.166439 0.039566
52 -0.003727 0.072431 0.121839 0.006863 0.107628 0.029302 -0.082042 0.025565 0.024738 -0.189942 -0.243479 0.005655 0.068636 0.015787 0.140426 0.054605 -0.141599 -0.144019 -0.022012 0.045242 0.020133 0.161680 -0.030030 -0.145861 0.066484 0.262887 0.031432 0.054926 -0.022398 -0.028035 -0.198450 -0.181087 0.014338 -0.178023 0.158412 -0.019697 -0.005259 0.009137 -0.103215 0.215740 0.189913 -0.023544 -0.025057 0.120602 -0.026227 0.117731 -0.032469 -0.168792 -0.019053 -0.112742 -0.119839 0.217487 0.053841 -0.027433 0.066338 0.060710 -0.022349 -0.004791 0.092786 -0.038694 0.083531 -0.091088 0.059948 -0.032491 0.057500 0.057963 0.004281 0.056582 -0.099474 -0.052456 -0.153875 -0.030017 -0.165423 0.111757 -0.058029 0.032406 -0.108896 0.127186 0.040310 -0.068742 0.099356 0.166288 0.091265 0.110300 -0.148180 -0.034772 -0.050267 -0.057341 0.016736 -0.020400 0.090332 -0.084934 0.097436 0.041746 0.081172 0.074617 -0.210244 0.036944 0.051023 0.070586 0.128736 0.029443 0.064420 0.113034 0.130550 -0.033341 0.160191 0.071766 0.014652 0.009120 0.201823 -0.156494 -0.121431 -0.109534 0.011222 -0.084850 -0.048258 0.011429 0.017237 0.022378 -0.042337 -0.080326 -0.089198 -0.227410 0.182090 0.042543 0.144232 0.094347
19 0.208044 0.212746 0.218228 -0.123922 0.370283 -0.072754 -0.054536 0.300163 0.099255 -0.205024 -0.410119 -0.214253 0.046915 0.039731 0.002713 0.252255 -0.010579 -0.085270 0.250823 -0.160912 0.190556 0.199415 0.205996 -0.152365 0.004739 0.325954 -0.188175 -0.041565 0.061073 -0.155226 -0.366919 -0.031911 0.097529 -0.285974 -0.028442 0.024224 0.002547 -0.028764 -0.202546 0.302960 0.321224 0.079323 -0.087175 -0.052294 0.080136 0.370628 -0.001721 -0.060155 -0.177872 -0.242865 -0.123194 0.478195 -0.039335 -0.160248 0.062393 0.051766 -0.170496 -0.058255 0.219085 -0.083575 0.147351 0.133898 -0.011457 -0.145248 0.140037 0.281790 -0.065556 -0.042345 -0.196714 -0.053844 -0.185948 -0.040327 -0.180224 -0.037976 -0.116221 0.054644 0.020921 0.005519 -0.009283 -0.067279 0.211471 0.105820 0.087357 0.116510 -0.067211 0.087053 0.252103 -0.093924 -0.175891 0.103125 0.210494 -0.051402 -0.001589 0.010344 0.141053 0.012600 -0.249949 -0.126193 -0.092629 0.243450 0.128814 -0.104852 0.066880 0.289274 0.052337 -0.033263 0.148526 0.195757 -0.068041 0.174386 0.415575 -0.172898 -0.176137 -0.244256 -0.046838 -0.022838 -0.073984 -0.203890 -0.093508 0.024644 -0.308962 -0.433494 -0.340078 -0.046403 0.226487 0.190367 0.219638 0.025201
22 0.187220 0.175693 0.218032 -0.136685 0.354842 -0.089548 -0.055371 0.311782 0.090092 -0.190625 -0.389594 -0.215595 0.053266 0.028816 -0.004893 0.245812 0.001985 -0.064174 0.237618 -0.150369 0.173816 0.205893 0.212393 -0.146785 -0.004808 0.316628 -0.192814 -0.061997 0.046283 -0.133533 -0.361418 -0.008506 0.089265 -0.242165 -0.047612 0.056251 0.018687 -0.004317 -0.208357 0.305774 0.317117 0.073492 -0.091500 -0.039689 0.047492 0.370323 0.017860 -0.048220 -0.190302 -0.226707 -0.131117 0.456710 -0.054387 -0.159309 0.062431 0.030403 -0.181856 -0.085882 0.209103 -0.076786 0.150163 0.132786 -0.038882 -0.148179 0.123820 0.283461 -0.092716 -0.034706 -0.179283 -0.050042 -0.176604 -0.038991 -0.172294 -0.043877 -0.116616 0.045502 0.041489 -0.030454 -0.016869 -0.084212 0.198466 0.105697 0.074330 0.089408 -0.049141 0.103134 0.273535 -0.098005 -0.175629 0.102473 0.188626 -0.041685 -0.008012 0.039443 0.150107 0.004339 -0.252073 -0.146342 -0.108849 0.222480 0.125785 -0.096068 0.052690 0.293330 0.023127 -0.028074 0.119337 0.206328 -0.078181 0.157434 0.404071 -0.162118 -0.176492 -0.253477 -0.040873 -0.024592 -0.060781 -0.192439 -0.086167 0.012795 -0.283625 -0.426141 -0.339116 -0.037936 0.193017 0.171276 0.203168 -0.007462
42 0.062420 0.137933 0.064163 -0.044069 0.131159 -0.044691 -0.041287 -0.080128 -0.017228 -0.110564 -0.281004 -0.048682 0.006732 0.025311 0.138842 0.018617 -0.208688 -0.138488 -0.002923 0.074227 0.036214 0.122197 0.110900 -0.141829 0.100185 0.192931 0.079902 0.036713 0.057732 -0.131840 -0.152271 -0.123386 0.087996 -0.226757 0.139882 -0.034671 0.014155 -0.004089 -0.041641 0.205479 0.169158 -0.121726 -0.056392 0.080979 0.074828 0.125119 -0.087315 -0.228293 0.023322 -0.086398 -0.067465 0.172657 0.060399 -0.000623 0.118473 0.095882 -0.029534 0.097365 0.144445 -0.075144 -0.016526 -0.062741 0.104296 0.004357 0.078182 -0.029748 0.090585 0.125886 -0.147273 -0.068371 -0.180629 -0.161977 -0.132953 0.051218 -0.020851 0.025554 -0.196153 0.274207 0.012342 -0.048184 0.083925 0.113642 0.077138 0.060572 -0.130350 0.009404 -0.026098 -0.055454 -0.005747 0.040940 0.098312 -0.097603 0.151594 -0.003135 0.102445 -0.033604 -0.207907 0.035974 0.035396 0.085680 0.099564 0.098380 0.107340 0.055174 0.127275 0.035239 0.141429 0.102325 0.058467 0.075249 0.185593 -0.079817 -0.162994 -0.141106 0.036944 -0.093042 -0.033525 0.088249 0.038575 0.040604 -0.117192 -0.039890 -0.136856 -0.223602 0.260735 0.016238 0.038623 0.224081
23 0.230503 0.246539 0.221471 -0.141750 0.399423 -0.088122 -0.056733 0.318633 0.104335 -0.204242 -0.411807 -0.254287 0.018681 0.038894 -0.016255 0.271323 0.019625 -0.059687 0.290509 -0.171163 0.219087 0.196441 0.224515 -0.146316 -0.011289 0.316011 -0.228763 -0.031333 0.079436 -0.169024 -0.374187 -0.040606 0.124366 -0.313990 -0.048028 0.023349 0.005606 -0.034037 -0.199642 0.323510 0.322774 0.080528 -0.090860 -0.084737 0.115633 0.408620 -0.017732 -0.053653 -0.181536 -0.262327 -0.101985 0.492327 -0.037631 -0.168250 0.079676 0.038567 -0.192963 -0.046624 0.215486 -0.085818 0.144263 0.162972 0.007110 -0.158739 0.143369 0.281029 -0.077725 -0.060699 -0.201505 -0.050734 -0.180753 -0.047622 -0.169659 -0.054551 -0.107350 0.047069 0.029889 0.014716 -0.013691 -0.086198 0.200424 0.081367 0.076271 0.122749 -0.059478 0.096327 0.285945 -0.075736 -0.209927 0.115729 0.217926 -0.048413 -0.010230 0.020243 0.145775 -0.003325 -0.231540 -0.139483 -0.116620 0.259622 0.077939 -0.125805 0.072104 0.297985 0.050496 -0.042376 0.156716 0.194303 -0.098546 0.204116 0.417027 -0.148913 -0.173814 -0.246557 -0.048313 0.006580 -0.068222 -0.200646 -0.098450 0.019268 -0.356055 -0.459510 -0.367710 0.023708 0.242171 0.196922 0.218229 0.021011
17 0.234990 0.235756 0.219492 -0.118445 0.358446 -0.071117 -0.050525 0.304633 0.100458 -0.207590 -0.409178 -0.216350 0.020174 0.040599 -0.020549 0.258206 0.003889 -0.089712 0.269681 -0.192751 0.205916 0.197428 0.219349 -0.152294 0.001915 0.316570 -0.198980 -0.026122 0.071214 -0.182659 -0.365224 -0.052115 0.121663 -0.307037 -0.038924 0.010546 -0.019612 -0.037925 -0.196546 0.289108 0.313396 0.070668 -0.092927 -0.064178 0.109166 0.386464 -0.022525 -0.061506 -0.178848 -0.243203 -0.122281 0.472256 -0.044276 -0.157055 0.063406 0.034813 -0.164594 -0.024455 0.209439 -0.086534 0.143424 0.146388 -0.008294 -0.153560 0.141564 0.282581 -0.041778 -0.046290 -0.223485 -0.047736 -0.184515 -0.040720 -0.163784 -0.047726 -0.111835 0.059076 0.017037 0.021829 -0.019869 -0.055069 0.205582 0.094298 0.093116 0.117733 -0.071368 0.098423 0.246076 -0.092763 -0.203206 0.095488 0.210872 -0.050896 0.008306 -0.012697 0.128268 0.016842 -0.234923 -0.109658 -0.100635 0.252718 0.123947 -0.106692 0.087103 0.290996 0.054203 -0.029245 0.163868 0.190210 -0.061356 0.194439 0.418720 -0.171812 -0.165905 -0.238482 -0.048747 -0.010116 -0.095789 -0.218024 -0.117461 0.032030 -0.331733 -0.441923 -0.344259 -0.035159 0.241393 0.206834 0.228190 0.036899
71 0.024680 0.073641 0.039745 -0.055072 0.093379 -0.073519 -0.028841 -0.121073 -0.037694 -0.082863 -0.272293 -0.016380 0.039823 0.012047 0.159321 -0.024870 -0.255807 -0.158710 -0.066801 0.128365 -0.017568 0.128100 0.122756 -0.149575 0.114545 0.181670 0.135457 0.010785 0.035173 -0.107379 -0.130184 -0.078884 0.074271 -0.160753 0.148530 0.007359 0.037700 0.029116 -0.033807 0.193045 0.157322 -0.154372 -0.071664 0.121812 0.016959 0.089412 -0.052403 -0.237246 0.041775 -0.036083 -0.095983 0.116796 0.050633 0.016819 0.122329 0.090273 -0.020685 0.070073 0.146692 -0.075006 -0.041606 -0.095055 0.071210 0.027128 0.052209 -0.055634 0.085146 0.161688 -0.124823 -0.079721 -0.182558 -0.188299 -0.124560 0.062254 -0.008072 0.009509 -0.214222 0.282817 -0.001030 -0.059297 0.067349 0.141909 0.065848 0.011188 -0.122597 0.011956 -0.046154 -0.063377 0.019239 0.035619 0.069229 -0.100875 0.175316 0.023183 0.118430 -0.065198 -0.238325 0.025500 0.035344 0.047469 0.136468 0.156744 0.097775 0.035785 0.105167 0.055878 0.107849 0.121685 0.085021 0.032781 0.163894 -0.079657 -0.184234 -0.173398 0.048673 -0.128218 -0.009382 0.134430 0.071937 0.036406 -0.051606 0.014153 -0.131261 -0.296974 0.232874 -0.028688 -0.009588 0.217249
29 -0.039234 0.030102 0.135975 0.012256 0.107906 0.019443 -0.072074 0.098159 -0.012294 -0.139499 -0.210284 0.003395 0.123220 0.004856 0.129854 0.030954 -0.152263 -0.140009 -0.036441 0.047107 -0.054788 0.192900 0.018539 -0.132396 0.064677 0.300751 0.028899 -0.016126 -0.017940 -0.003770 -0.205353 -0.085512 -0.052136 -0.067219 0.123587 0.028620 0.013672 0.053215 -0.120559 0.228665 0.211414 -0.037225 -0.061575 0.164755 -0.120820 0.088998 0.042923 -0.164254 -0.066944 -0.042285 -0.141274 0.231621 0.001898 -0.033665 0.033069 0.052179 -0.039265 -0.088551 0.134651 -0.023287 0.145961 -0.110978 -0.045180 -0.035145 0.081751 0.119069 -0.041521 0.094457 -0.063921 -0.059165 -0.160511 -0.028512 -0.165725 0.100747 -0.092274 0.031596 -0.088178 0.010830 0.033981 -0.099813 0.136213 0.205454 0.087100 0.056320 -0.094357 0.004014 0.008132 -0.088109 0.059826 0.016043 0.034827 -0.078599 0.057734 0.038892 0.095356 0.077241 -0.291099 0.017626 0.021325 0.059119 0.230020 0.111594 0.063312 0.157372 0.055597 -0.013680 0.099275 0.138992 0.038674 -0.000723 0.233776 -0.183758 -0.169289 -0.141265 0.014143 -0.132913 -0.061311 0.006931 0.038443 0.007746 0.037537 -0.054310 -0.096953 -0.347913 0.114715 -0.018857 0.144915 0.032420
35 -0.059808 -0.023922 0.188646 0.071971 -0.006249 0.048223 -0.150616 0.157262 -0.007649 -0.239046 -0.186686 0.124416 0.144721 -0.018472 0.094392 0.063518 -0.131739 -0.209954 -0.070396 -0.043992 -0.112785 0.290701 -0.113320 -0.223241 0.059370 0.404322 0.073427 0.007347 -0.114516 0.056667 -0.264918 -0.208821 -0.112377 -0.075486 0.158578 0.067704 -0.029334 0.062028 -0.161265 0.258282 0.244621 -0.059062 -0.031908 0.225846 -0.192764 0.121428 0.085875 -0.182312 -0.114126 -0.064097 -0.230443 0.192381 -0.038138 -0.005463 0.003734 -0.050111 -0.036619 -0.091483 0.069592 0.019948 0.224810 -0.172874 -0.134080 -0.046110 0.036055 0.232396 -0.078047 0.106105 -0.113384 -0.015455 -0.139435 0.060037 -0.198844 0.196711 -0.166285 0.062750 0.000766 -0.154156 0.014476 -0.164044 0.140023 0.318118 0.144034 0.059544 -0.161222 0.003572 -0.032126 -0.103083 0.055254 -0.065160 0.018738 -0.108275 0.094777 -0.064487 0.097938 0.216237 -0.275688 0.090582 0.030783 0.041986 0.307942 0.108093 0.087241 0.246187 0.060393 -0.035557 0.162552 0.137509 0.066972 -0.077130 0.300337 -0.294626 -0.128126 -0.137960 -0.025814 -0.181222 -0.166762 -0.069009 0.016627 -0.019981 0.135789 -0.048438 -0.026481 -0.494387 0.106828 0.037636 0.284899 -0.028458
61 -0.078033 0.196348 0.045930 0.053312 0.114115 0.034914 -0.134699 -0.171605 -0.050284 -0.158704 -0.186162 -0.038612 -0.053531 0.029474 0.254071 -0.005959 -0.231019 -0.119782 -0.033493 0.224941 -0.025923 0.162294 -0.096142 -0.141083 0.079877 0.229065 0.075102 0.146169 0.084623 -0.036459 -0.142960 -0.356854 0.050833 -0.241410 0.247696 -0.131782 0.034066 0.013790 -0.006231 0.284381 0.112570 -0.122644 0.006805 0.144246 0.086458 0.072041 -0.144973 -0.335838 0.125175 -0.061160 0.021771 0.147883 0.151864 0.025465 0.176548 0.085508 -0.021392 0.109967 0.098938 -0.039997 -0.003295 -0.175570 0.260387 0.033553 0.086580 -0.132129 0.037895 0.137711 -0.097335 -0.058927 -0.167423 -0.162990 -0.192169 0.178654 0.010483 0.009432 -0.286585 0.362554 0.115666 -0.170202 0.003085 0.110684 0.093033 0.159585 -0.181250 -0.115272 -0.140968 0.074073 0.096733 0.009259 0.076724 -0.115509 0.192761 0.109901 0.102657 0.018626 -0.220317 0.148955 0.093258 0.071641 -0.033579 0.136403 0.099172 0.004414 0.236933 -0.071679 0.238048 0.030755 -0.020935 0.059218 0.086484 -0.067224 -0.132545 -0.041935 0.075859 -0.079269 -0.009776 0.276562 0.160354 0.036787 -0.093145 0.126871 -0.034573 -0.186867 0.341490 -0.065885 0.084165 0.255982
36 -0.074285 -0.059051 0.203234 0.061844 -0.009892 0.046214 -0.147004 0.179245 -0.002425 -0.250240 -0.196359 0.140984 0.175715 -0.017961 0.092374 0.062268 -0.132445 -0.219277 -0.085389 -0.050985 -0.115802 0.288111 -0.117404 -0.226386 0.054072 0.403244 0.075195 -0.003673 -0.140948 0.075442 -0.267555 -0.184015 -0.122198 -0.048932 0.158747 0.086965 -0.025174 0.071750 -0.173710 0.244698 0.250034 -0.042231 -0.025887 0.227247 -0.218426 0.110387 0.114156 -0.163576 -0.130857 -0.068523 -0.249660 0.200832 -0.043258 -0.014924 -0.013339 -0.041615 -0.029821 -0.114034 0.069379 0.024883 0.242627 -0.173478 -0.161675 -0.053975 0.030448 0.248435 -0.086287 0.104361 -0.096255 -0.024257 -0.138781 0.077591 -0.202389 0.192352 -0.174105 0.057157 0.023788 -0.187520 0.009188 -0.158759 0.154564 0.332402 0.142271 0.054540 -0.156867 0.003730 -0.031720 -0.126737 0.061813 -0.071283 0.013038 -0.110772 0.084268 -0.061864 0.098864 0.226986 -0.285456 0.071362 0.028796 0.032954 0.329558 0.101283 0.080352 0.258558 0.047742 -0.030532 0.148653 0.142509 0.072456 -0.097921 0.311675 -0.306961 -0.136541 -0.143468 -0.036080 -0.188545 -0.160608 -0.097139 0.007342 -0.016159 0.156499 -0.071497 -0.026302 -0.510017 0.082387 0.040781 0.288154 -0.054631
58 -0.075727 0.144534 0.066596 0.005242 0.127063 0.011330 -0.120654 -0.122622 -0.035848 -0.143510 -0.200713 -0.059904 -0.014219 0.018667 0.233475 0.011251 -0.216268 -0.090171 -0.033022 0.216819 -0.022013 0.170843 -0.062143 -0.137298 0.066964 0.228185 0.052633 0.094690 0.049561 -0.017260 -0.159931 -0.277298 0.041825 -0.197903 0.216568 -0.074462 0.057303 0.040242 -0.026899 0.298611 0.124977 -0.100453 0.000209 0.128560 0.028635 0.103636 -0.097190 -0.287139 0.078642 -0.062534 -0.006589 0.166395 0.133822 0.011596 0.165431 0.077636 -0.050754 0.036097 0.099796 -0.038631 0.013386 -0.140971 0.207836 0.008125 0.068939 -0.097943 -0.007928 0.113980 -0.072548 -0.056647 -0.159725 -0.159333 -0.177289 0.154132 0.007232 -0.013803 -0.233332 0.300445 0.090285 -0.158018 0.012356 0.106337 0.068922 0.120184 -0.154052 -0.088129 -0.086439 0.055536 0.086402 0.025756 0.076841 -0.104107 0.165391 0.155316 0.134026 -0.001490 -0.223607 0.081431 0.067636 0.066386 -0.019721 0.122927 0.069837 0.032879 0.198463 -0.065702 0.195660 0.063387 -0.038559 0.043325 0.111033 -0.075856 -0.157981 -0.075284 0.063301 -0.074404 0.018302 0.242214 0.146673 0.024022 -0.081846 0.063123 -0.070950 -0.162121 0.290475 -0.059848 0.062971 0.195485
76 -0.029085 0.009786 0.053271 -0.072525 0.091191 -0.076999 -0.045920 -0.094403 -0.047442 -0.068259 -0.245616 -0.032225 0.070783 -0.001725 0.173070 -0.038821 -0.245925 -0.127854 -0.083177 0.178249 -0.057667 0.149728 0.105335 -0.130844 0.108274 0.186240 0.119769 -0.023120 0.012727 -0.048046 -0.132076 -0.048168 0.051116 -0.111189 0.137977 0.056789 0.084908 0.065723 -0.047609 0.235488 0.148321 -0.141845 -0.063639 0.142972 -0.053102 0.089747 0.000571 -0.229133 0.027383 -0.023090 -0.109061 0.117509 0.051668 0.015380 0.124632 0.070219 -0.041162 -0.017647 0.144507 -0.061331 -0.015261 -0.105761 0.059915 0.017205 0.027577 -0.065507 0.016952 0.164592 -0.070115 -0.085904 -0.182114 -0.200893 -0.130099 0.088652 -0.012257 -0.021980 -0.186510 0.228733 -0.003143 -0.098475 0.064941 0.152769 0.038999 -0.017520 -0.097905 -0.000546 -0.004945 -0.062352 0.044541 0.045323 0.052089 -0.094613 0.165550 0.124553 0.166250 -0.080312 -0.261045 -0.011362 0.013398 0.012943 0.114803 0.172275 0.063716 0.045928 0.086233 0.049378 0.081789 0.137143 0.053650 -0.001741 0.151225 -0.099269 -0.212752 -0.191769 0.053497 -0.142062 0.024125 0.173800 0.104866 0.028537 -0.008374 0.023424 -0.135614 -0.284655 0.195039 -0.061877 -0.038530 0.165635
67 -0.023783 0.210512 0.049455 0.014021 0.152957 0.004477 -0.104744 -0.120985 -0.020820 -0.128062 -0.183166 -0.091182 -0.062725 0.033770 0.198270 0.032227 -0.168600 -0.071230 0.025248 0.167011 0.030120 0.130644 -0.040090 -0.112944 0.047744 0.184927 0.014508 0.115539 0.089338 -0.046978 -0.148264 -0.278298 0.072637 -0.230922 0.179400 -0.113072 0.036836 0.006862 -0.003727 0.261524 0.107741 -0.085245 -0.001651 0.069957 0.109201 0.102171 -0.127085 -0.259625 0.085607 -0.084687 0.039977 0.171505 0.124724 -0.007208 0.164744 0.077665 -0.052739 0.091943 0.101745 -0.045264 -0.016099 -0.100975 0.228764 0.007819 0.088079 -0.096607 0.016913 0.087499 -0.087374 -0.045750 -0.144916 -0.146246 -0.159956 0.118876 0.012550 -0.004391 -0.221782 0.309793 0.094778 -0.141474 0.001487 0.056815 0.073139 0.135919 -0.133137 -0.088829 -0.058796 0.074761 0.047615 0.039582 0.093981 -0.088678 0.144726 0.107501 0.100629 -0.012340 -0.172644 0.083793 0.051090 0.092465 -0.067663 0.081489 0.075820 0.017677 0.196224 -0.064506 0.200699 0.040365 -0.053812 0.087042 0.098278 -0.032882 -0.124208 -0.052872 0.060063 -0.038740 0.011589 0.212877 0.122959 0.027547 -0.151712 0.039889 -0.078965 -0.073725 0.302414 -0.034544 0.064524 0.217616
39 -0.116803 -0.092262 0.204021 0.068113 -0.025741 0.053946 -0.161897 0.184093 -0.010296 -0.238445 -0.171555 0.147473 0.189413 -0.024765 0.104654 0.052906 -0.133810 -0.211449 -0.110236 -0.016961 -0.149580 0.310791 -0.138951 -0.225567 0.052631 0.420257 0.080290 -0.012207 -0.154902 0.112703 -0.261825 -0.175207 -0.150082 -0.011048 0.166105 0.110812 -0.009803 0.092933 -0.186534 0.265582 0.247348 -0.046566 -0.028853 0.258830 -0.259991 0.098234 0.139242 -0.172385 -0.132478 -0.047875 -0.259538 0.179192 -0.042669 -0.008581 -0.016831 -0.059930 -0.040348 -0.155176 0.061616 0.034477 0.252253 -0.192094 -0.166565 -0.053709 0.015893 0.244558 -0.122274 0.113379 -0.076939 -0.021547 -0.129621 0.075285 -0.202774 0.210844 -0.172055 0.054009 0.026427 -0.209307 0.010589 -0.186433 0.138731 0.345613 0.134846 0.041452 -0.143375 -0.005257 -0.034199 -0.112526 0.085691 -0.073652 -0.007223 -0.106809 0.075774 -0.021171 0.104784 0.233088 -0.301955 0.069215 0.025382 0.013884 0.336613 0.121773 0.065608 0.258514 0.043967 -0.040551 0.136112 0.147896 0.062144 -0.119085 0.301428 -0.322771 -0.138533 -0.142965 -0.030142 -0.205676 -0.148380 -0.060309 0.036500 -0.022712 0.196680 -0.044018 -0.013443 -0.526056 0.059838 0.013891 0.280669 -0.079619
72 0.027750 0.082706 0.023911 -0.079301 0.100701 -0.096883 -0.024847 -0.152798 -0.052604 -0.049384 -0.262587 -0.048676 0.002758 0.013302 0.163935 -0.032024 -0.252020 -0.122991 -0.055357 0.156949 -0.013984 0.115854 0.147758 -0.132867 0.114072 0.138715 0.115801 0.008404 0.060344 -0.115226 -0.111879 -0.075278 0.107430 -0.172928 0.136923 0.006482 0.062295 0.032893 -0.015199 0.204765 0.133982 -0.166340 -0.071946 0.100022 0.035735 0.110747 -0.067374 -0.242015 0.059451 -0.028508 -0.064636 0.094236 0.066471 0.024889 0.141665 0.083627 -0.034008 0.064934 0.145857 -0.079214 -0.072075 -0.077978 0.107149 0.027057 0.033436 -0.108776 0.076910 0.167230 -0.119887 -0.077455 -0.181155 -0.236239 -0.113107 0.054544 0.015226 -0.006799 -0.237970 0.334109 0.000969 -0.058657 0.043041 0.094060 0.037683 -0.004349 -0.105096 0.009821 -0.022073 -0.035758 0.005586 0.051630 0.066230 -0.096180 0.176449 0.079278 0.138325 -0.103432 -0.221572 0.018273 0.021021 0.031540 0.068947 0.158611 0.088629 0.004904 0.102790 0.061705 0.100145 0.117557 0.064034 0.043281 0.126330 -0.053299 -0.184232 -0.172915 0.063347 -0.103786 0.011771 0.183231 0.080708 0.039441 -0.078553 0.034202 -0.141917 -0.220665 0.244025 -0.046462 -0.063860 0.237543
37 -0.075499 -0.088786 0.189330 0.050356 -0.025902 0.033263 -0.135066 0.179036 -0.000412 -0.225535 -0.192005 0.147585 0.192312 -0.022325 0.082416 0.045246 -0.131193 -0.212748 -0.097989 -0.038937 -0.128736 0.283546 -0.098546 -0.215170 0.061791 0.383546 0.084132 -0.021621 -0.148228 0.076471 -0.254323 -0.142098 -0.125565 -0.020409 0.139772 0.115100 -0.016981 0.074627 -0.180096 0.227090 0.241628 -0.044400 -0.033300 0.233279 -0.242450 0.113509 0.134281 -0.144835 -0.136889 -0.059132 -0.264705 0.179458 -0.057078 -0.012991 -0.017914 -0.054800 -0.032996 -0.141877 0.067590 0.023792 0.232592 -0.159986 -0.181248 -0.055065 0.010893 0.241351 -0.093259 0.099109 -0.084229 -0.027148 -0.129782 0.066809 -0.179329 0.186427 -0.166826 0.050997 0.024174 -0.198482 -0.011128 -0.145883 0.149706 0.325672 0.122861 0.028437 -0.140906 0.018932 -0.016266 -0.129721 0.047081 -0.069385 0.004690 -0.103198 0.077746 -0.040110 0.104405 0.204686 -0.274988 0.048938 0.014256 0.015357 0.334366 0.103621 0.067604 0.254824 0.030978 -0.012255 0.114446 0.144336 0.079093 -0.102903 0.305523 -0.309607 -0.134405 -0.154031 -0.033222 -0.190517 -0.151660 -0.094107 0.002834 -0.016716 0.176926 -0.068884 -0.035489 -0.505574 0.048495 0.032163 0.259462 -0.066229
30 -0.047257 -0.001312 0.164355 0.054993 0.012894 0.040849 -0.138798 0.142603 0.004979 -0.223149 -0.180906 0.095904 0.115315 -0.007408 0.081403 0.064498 -0.106122 -0.180743 -0.035331 -0.041922 -0.079966 0.257213 -0.099716 -0.195506 0.046273 0.347111 0.048676 0.020595 -0.094058 0.044179 -0.245052 -0.197947 -0.080436 -0.089864 0.134933 0.053108 -0.028823 0.044075 -0.140821 0.230791 0.223161 -0.046297 -0.019721 0.179993 -0.142661 0.131069 0.068641 -0.161907 -0.092711 -0.078309 -0.198649 0.184841 -0.025369 -0.012602 0.010500 -0.041294 -0.036237 -0.076867 0.059893 0.016146 0.200207 -0.137549 -0.095205 -0.045608 0.038711 0.200024 -0.069271 0.079875 -0.103101 -0.018012 -0.121282 0.047801 -0.175769 0.172672 -0.143143 0.057101 -0.004120 -0.114343 0.013423 -0.148951 0.121808 0.262266 0.122423 0.064983 -0.145872 -0.005834 -0.020659 -0.084067 0.034120 -0.057849 0.030918 -0.102776 0.080146 -0.048408 0.085182 0.186732 -0.233041 0.079485 0.020899 0.048096 0.246998 0.078055 0.075012 0.218961 0.068579 -0.033251 0.152334 0.118387 0.048095 -0.049809 0.271419 -0.262049 -0.110454 -0.120779 -0.024891 -0.144419 -0.140432 -0.063795 0.011958 -0.009513 0.091285 -0.058425 -0.041443 -0.398344 0.109312 0.041203 0.248796 -0.021942
38 -0.132329 -0.101681 0.181080 0.025832 0.010871 0.024815 -0.151761 0.167644 -0.013936 -0.199062 -0.148693 0.087087 0.173500 -0.032220 0.108963 0.047982 -0.114051 -0.148416 -0.089575 0.040646 -0.139784 0.284002 -0.131382 -0.185416 0.034375 0.367111 0.044979 -0.026296 -0.138681 0.133557 -0.246414 -0.144159 -0.133260 0.012284 0.143596 0.127485 0.044036 0.103106 -0.173338 0.275492 0.214289 -0.031511 -0.019995 0.221219 -0.256553 0.105233 0.140471 -0.147836 -0.118050 -0.043196 -0.221200 0.173646 -0.015281 -0.021673 0.016243 -0.058788 -0.063583 -0.196331 0.064807 0.033348 0.219314 -0.167898 -0.128292 -0.057773 -0.004565 0.194070 -0.167582 0.085575 -0.019794 -0.028340 -0.116416 0.034144 -0.185922 0.202792 -0.143206 0.009751 0.030203 -0.191013 0.013957 -0.204608 0.109965 0.296265 0.091476 0.021584 -0.113266 -0.012768 0.008615 -0.079057 0.084333 -0.044354 -0.002757 -0.094923 0.067797 0.085294 0.135655 0.170748 -0.275283 0.018296 0.008447 -0.001356 0.239670 0.103662 0.026772 0.230063 0.037229 -0.049334 0.108521 0.139786 0.007063 -0.112474 0.251690 -0.272092 -0.150037 -0.145423 -0.014957 -0.171748 -0.087376 -0.001771 0.070561 -0.026067 0.171577 -0.036787 -0.042257 -0.405549 0.046084 -0.019216 0.214854 -0.096727
32 0.034146 0.056493 0.159510 -0.068172 0.188227 -0.060776 -0.063576 0.137374 0.029606 -0.137366 -0.271929 -0.076549 0.092661 0.009809 0.084821 0.100773 -0.091887 -0.089343 0.051503 -0.005599 0.032582 0.178069 0.086191 -0.133825 0.030450 0.259441 -0.049138 -0.037224 -0.013747 -0.034467 -0.235330 -0.044239 0.017379 -0.134812 0.050808 0.074359 0.049203 0.035720 -0.142785 0.237240 0.224800 -0.002008 -0.058153 0.069061 -0.060876 0.198818 0.043793 -0.107281 -0.106059 -0.115497 -0.135967 0.260491 -0.008123 -0.077369 0.060454 0.025806 -0.103645 -0.092963 0.133213 -0.036321 0.112973 -0.003702 -0.036186 -0.060686 0.057086 0.139332 -0.065544 0.034539 -0.092785 -0.058192 -0.137320 -0.062006 -0.142804 0.036441 -0.082953 0.020839 -0.028980 0.001358 -0.000454 -0.096824 0.123674 0.144003 0.049250 0.038615 -0.065302 0.043904 0.110266 -0.081906 -0.039532 0.054453 0.080693 -0.058185 0.051474 0.063831 0.120359 0.015807 -0.223559 -0.067068 -0.047820 0.095011 0.132006 0.013077 0.046345 0.183921 0.041319 -0.011203 0.088499 0.139266 -0.019755 0.042828 0.263571 -0.153407 -0.153562 -0.187084 0.001048 -0.081739 -0.035265 -0.040879 0.006258 0.013087 -0.086216 -0.189757 -0.187077 -0.168800 0.135185 0.051326 0.122825 0.014667
43 0.035886 0.060694 0.078740 -0.027997 0.079045 -0.042486 -0.039434 -0.034273 -0.015288 -0.136461 -0.280838 0.015920 0.058444 0.011335 0.133193 0.006579 -0.214801 -0.180640 -0.041967 0.040534 -0.012419 0.157170 0.089864 -0.161135 0.107783 0.224478 0.110039 0.011776 0.004657 -0.098095 -0.168085 -0.107240 0.047792 -0.171929 0.141958 0.010204 0.004572 0.010354 -0.067049 0.192608 0.188103 -0.124826 -0.067414 0.123389 -0.008637 0.111634 -0.029230 -0.204366 -0.002714 -0.069525 -0.133983 0.154567 0.022792 0.001878 0.075557 0.069156 -0.014583 0.051964 0.126770 -0.056711 0.023119 -0.088941 0.021673 -0.003251 0.054129 0.021085 0.072307 0.129700 -0.140957 -0.072338 -0.177926 -0.121323 -0.140555 0.079345 -0.048862 0.040089 -0.160614 0.181302 -0.003112 -0.057346 0.112377 0.172826 0.086812 0.032403 -0.136444 0.023651 -0.036382 -0.088969 0.000667 0.010155 0.076461 -0.100996 0.150084 -0.026459 0.101523 0.012267 -0.231722 0.039097 0.030596 0.061185 0.182140 0.121165 0.100187 0.093544 0.099943 0.045941 0.123619 0.109518 0.088962 0.024381 0.206500 -0.133624 -0.163293 -0.164610 0.017707 -0.126997 -0.065689 0.038699 0.019244 0.037599 -0.040296 -0.041035 -0.116713 -0.322167 0.204208 0.022757 0.068407 0.166373
74 -0.064393 0.224036 0.026288 0.063339 0.119296 0.018814 -0.140301 -0.191368 -0.085166 -0.158972 -0.205145 -0.066429 -0.105677 0.049786 0.288966 -0.014744 -0.235271 -0.142034 0.003940 0.225787 -0.049489 0.190806 -0.079824 -0.149006 0.087394 0.226641 0.048805 0.168508 0.151880 -0.078563 -0.158435 -0.428295 0.115894 -0.317836 0.248573 -0.163028 0.009775 -0.015309 -0.018479 0.323679 0.081277 -0.174385 -0.013496 0.139214 0.132768 0.146986 -0.183353 -0.377530 0.180588 -0.065382 0.035738 0.121561 0.176866 0.041846 0.181803 0.039201 -0.015481 0.134683 0.092785 -0.038581 0.003196 -0.174970 0.335076 0.025810 0.048847 -0.192468 0.054618 0.128970 -0.141571 -0.053553 -0.174741 -0.229065 -0.197018 0.195115 0.010057 0.023280 -0.364267 0.454615 0.093521 -0.201564 -0.000471 0.057885 0.076259 0.176053 -0.178966 -0.112090 -0.141224 0.121696 0.034186 0.005484 0.075575 -0.133602 0.218330 0.173153 0.101008 -0.005131 -0.218202 0.192936 0.090305 0.068320 -0.102721 0.154848 0.123722 -0.014873 0.260777 -0.074308 0.265369 0.009806 0.002976 0.111660 0.053668 -0.097992 -0.132167 -0.046349 0.107567 -0.068106 -0.044923 0.343943 0.144055 0.073111 -0.139037 0.149231 -0.057907 -0.126122 0.406841 -0.082899 0.047628 0.318531
77 -0.059726 0.174842 0.045112 0.035231 0.113418 0.022424 -0.119719 -0.133286 -0.035383 -0.145005 -0.172344 -0.051948 -0.045664 0.026470 0.217281 0.008256 -0.188634 -0.097198 -0.016343 0.192319 -0.014157 0.153669 -0.076943 -0.128292 0.063970 0.201396 0.050004 0.121471 0.066104 -0.022717 -0.147446 -0.300556 0.045492 -0.213780 0.206931 -0.102844 0.036037 0.013953 -0.014344 0.273978 0.108595 -0.098025 0.005538 0.110537 0.070020 0.084821 -0.119438 -0.282255 0.094736 -0.066275 0.012739 0.154215 0.130748 0.010122 0.160508 0.069507 -0.035103 0.082213 0.086724 -0.038092 0.002283 -0.145553 0.222248 0.013064 0.073919 -0.105616 0.007337 0.112804 -0.084888 -0.047405 -0.155446 -0.138362 -0.177361 0.161363 -0.000690 0.003235 -0.231657 0.300460 0.092702 -0.163587 0.008706 0.098179 0.084236 0.135871 -0.155983 -0.097898 -0.092406 0.068120 0.078133 0.013411 0.081027 -0.097740 0.163863 0.111256 0.101330 0.009687 -0.196939 0.110643 0.067809 0.072318 -0.038582 0.108171 0.079683 0.024836 0.209440 -0.065352 0.210090 0.038970 -0.038616 0.053738 0.090628 -0.064839 -0.130349 -0.054032 0.061333 -0.061416 0.001433 0.230780 0.140797 0.030298 -0.095428 0.085695 -0.047018 -0.150003 0.299404 -0.047357 0.076263 0.211177
75 -0.092245 0.205639 0.039465 0.078262 0.118090 0.038969 -0.169642 -0.190723 -0.091343 -0.171397 -0.203036 -0.048938 -0.089289 0.046177 0.310720 -0.014505 -0.261003 -0.151551 -0.018322 0.262816 -0.078367 0.221950 -0.104160 -0.153764 0.096511 0.263276 0.062625 0.164189 0.137520 -0.052531 -0.167554 -0.452902 0.091741 -0.304296 0.277328 -0.160684 0.017827 -0.000399 -0.027499 0.348179 0.094353 -0.178356 -0.010385 0.174815 0.101785 0.132963 -0.167368 -0.397725 0.179563 -0.052196 0.016613 0.129114 0.174889 0.055509 0.183417 0.040936 -0.016753 0.115915 0.095008 -0.031574 0.021209 -0.215030 0.324391 0.028737 0.050526 -0.191989 0.039480 0.153730 -0.133522 -0.064254 -0.189162 -0.227040 -0.212110 0.230559 0.008574 0.014225 -0.371923 0.448871 0.108388 -0.225393 -0.005243 0.080137 0.088103 0.182351 -0.182949 -0.130113 -0.158817 0.129621 0.066173 -0.005723 0.062527 -0.145859 0.225897 0.186068 0.118007 0.019875 -0.243547 0.202470 0.098398 0.060444 -0.076621 0.180321 0.119724 -0.004049 0.261884 -0.080228 0.275114 0.010197 -0.004115 0.087193 0.060001 -0.115561 -0.147619 -0.043220 0.103247 -0.093385 -0.047658 0.360299 0.172725 0.068306 -0.096184 0.174697 -0.046221 -0.184854 0.403117 -0.102999 0.070916 0.310683
44 -0.009049 0.059833 0.113472 -0.018504 0.121197 -0.009146 -0.080722 0.049893 -0.004211 -0.143100 -0.221248 -0.023236 0.067829 0.003258 0.123255 0.050306 -0.135749 -0.119978 -0.004021 0.049785 -0.005701 0.168491 0.019743 -0.130992 0.055925 0.250244 0.021258 0.008062 -0.005823 -0.021383 -0.189685 -0.122863 0.006052 -0.131887 0.115620 0.016085 0.020509 0.032831 -0.099292 0.226838 0.183035 -0.044430 -0.045132 0.115239 -0.039250 0.123871 0.000916 -0.159818 -0.039379 -0.079127 -0.104509 0.204901 0.024126 -0.032168 0.067379 0.037103 -0.051795 -0.041457 0.111354 -0.032136 0.091817 -0.072810 0.017284 -0.034436 0.055504 0.074247 -0.027896 0.079517 -0.089744 -0.053834 -0.141893 -0.063453 -0.153504 0.097541 -0.067832 0.013645 -0.087365 0.071431 0.025023 -0.106353 0.092081 0.165485 0.071911 0.060972 -0.102711 -0.003809 0.020467 -0.051889 0.015214 0.011616 0.066355 -0.079946 0.085328 0.057322 0.113071 0.036131 -0.227111 0.005490 0.009597 0.067416 0.132056 0.067124 0.057880 0.130469 0.087448 -0.015229 0.125397 0.109168 0.004859 0.018471 0.205400 -0.144162 -0.144394 -0.134446 0.007688 -0.091561 -0.037699 0.031930 0.035599 0.016187 -0.036559 -0.072778 -0.111165 -0.230708 0.164415 0.009423 0.112357 0.068619
55 -0.014102 0.049045 0.115394 -0.023702 0.120917 -0.000471 -0.066807 0.015413 0.016844 -0.160513 -0.251013 -0.003301 0.085468 0.003776 0.152903 0.042995 -0.152938 -0.140422 -0.025549 0.070659 0.007384 0.154634 -0.002469 -0.137241 0.077651 0.243939 0.039817 0.031920 -0.025032 -0.027561 -0.191601 -0.132620 0.020505 -0.163669 0.148429 0.008783 0.021727 0.019328 -0.097732 0.222499 0.188524 -0.035710 -0.035230 0.127635 -0.044059 0.110786 -0.013688 -0.164263 -0.022203 -0.097189 -0.122428 0.210812 0.048677 -0.027338 0.071939 0.065366 -0.032651 -0.029504 0.112497 -0.039495 0.071439 -0.086241 0.048723 -0.032383 0.049565 0.041610 -0.005068 0.069411 -0.081894 -0.065776 -0.160399 -0.054521 -0.154927 0.105838 -0.050504 0.014454 -0.119012 0.126192 0.026644 -0.070575 0.095975 0.164150 0.069952 0.090002 -0.131927 -0.029397 -0.033252 -0.061266 0.015149 -0.006010 0.090693 -0.091842 0.098889 0.073039 0.105420 0.041038 -0.229555 0.007475 0.037438 0.065094 0.129802 0.044350 0.058636 0.112785 0.116343 -0.018680 0.137044 0.082909 0.017098 0.007114 0.196599 -0.147556 -0.143834 -0.130255 0.010303 -0.094865 -0.032846 0.023295 0.029003 0.031249 -0.033902 -0.078490 -0.109912 -0.231235 0.172861 0.023638 0.109188 0.094197
40 -0.017569 0.054778 0.104970 -0.005812 0.076266 0.005264 -0.073860 -0.048668 -0.000122 -0.167186 -0.257913 0.024761 0.064682 0.008622 0.158106 0.010905 -0.206039 -0.157731 -0.056004 0.091932 -0.016947 0.168923 0.003026 -0.159033 0.100060 0.254972 0.090438 0.049074 -0.023622 -0.036190 -0.174733 -0.176303 0.024896 -0.159604 0.182517 -0.007034 0.009808 0.024524 -0.081413 0.218938 0.190491 -0.083402 -0.031197 0.141896 -0.039429 0.096269 -0.029519 -0.213591 0.008036 -0.073867 -0.120265 0.171923 0.060769 -0.006521 0.097139 0.078659 -0.019257 0.013932 0.103687 -0.050629 0.039889 -0.119638 0.061364 0.002988 0.056478 0.010795 0.026202 0.102781 -0.104406 -0.074153 -0.164451 -0.086148 -0.168479 0.109619 -0.055392 0.027575 -0.148629 0.177523 0.033360 -0.083749 0.091622 0.179858 0.093996 0.073542 -0.159177 -0.020686 -0.065712 -0.072679 0.048887 -0.008547 0.077160 -0.106617 0.134482 0.030643 0.100168 0.053394 -0.236312 0.044706 0.053325 0.053113 0.142827 0.088696 0.076294 0.076663 0.122703 -0.010766 0.147956 0.091443 0.040782 -0.003075 0.189496 -0.146340 -0.146638 -0.124036 0.031272 -0.113033 -0.030797 0.072576 0.046820 0.028553 -0.010826 -0.017933 -0.080321 -0.293035 0.198762 0.009837 0.104940 0.137711
9 -0.222906 -0.154246 0.179568 -0.171095 0.223603 -0.136081 -0.140865 0.113646 -0.030909 -0.051608 -0.215449 -0.160043 0.214985 -0.050216 0.217575 0.023681 -0.176529 0.034513 -0.102715 0.354672 -0.134798 0.279015 0.020178 -0.120393 0.011142 0.306767 -0.038951 -0.150105 -0.084950 0.207173 -0.248941 0.061174 -0.080154 0.100307 0.099356 0.264864 0.297435 0.234121 -0.174152 0.446880 0.232456 -0.014984 -0.055667 0.213952 -0.315727 0.189364 0.220491 -0.175409 -0.106414 -0.025745 -0.157860 0.242143 0.050886 -0.081243 0.187863 0.010970 -0.213483 -0.407688 0.172793 -0.013998 0.117200 -0.099810 -0.032034 -0.049038 -0.024093 0.041120 -0.345850 0.113976 0.141048 -0.098712 -0.163805 -0.198489 -0.214045 0.154773 -0.065316 -0.145078 -0.014282 -0.075157 0.020787 -0.323922 0.060574 0.225002 -0.054253 -0.082057 -0.005506 -0.021666 0.225228 -0.046676 0.134847 0.129458 0.015467 -0.059116 0.078077 0.494539 0.343153 -0.105823 -0.378117 -0.230778 -0.100275 -0.032705 0.037018 0.159380 -0.094847 0.195274 0.013781 -0.030581 0.000510 0.259276 -0.180144 -0.106011 0.211492 -0.144522 -0.333731 -0.293465 0.048461 -0.161310 0.175960 0.267616 0.252405 -0.042580 0.099399 -0.062399 -0.246462 -0.195552 0.058298 -0.162372 -0.027627 -0.100822
73 0.005282 0.060057 0.097485 -0.026448 0.109893 -0.023361 -0.054908 -0.006657 -0.012288 -0.133814 -0.243756 -0.006991 0.067582 0.003269 0.134621 0.024775 -0.181092 -0.145370 -0.027711 0.068090 -0.012026 0.154887 0.045563 -0.138261 0.085397 0.232939 0.067759 0.014025 0.000820 -0.054583 -0.177140 -0.106966 0.027976 -0.148036 0.136312 0.018637 0.023265 0.028975 -0.079743 0.211960 0.187879 -0.077496 -0.051093 0.127521 -0.035988 0.104164 -0.012884 -0.191014 -0.014774 -0.073815 -0.116444 0.188602 0.031968 -0.013502 0.074287 0.064950 -0.030426 -0.005177 0.127823 -0.044540 0.053968 -0.087330 0.030540 -0.015401 0.059219 0.029989 0.023647 0.106720 -0.099787 -0.064137 -0.167862 -0.093890 -0.148014 0.087931 -0.049530 0.020349 -0.137508 0.146521 0.011621 -0.071992 0.099729 0.171401 0.074272 0.049948 -0.120899 -0.001975 -0.017874 -0.072273 0.013904 0.011596 0.069065 -0.093830 0.124145 0.044366 0.110180 0.010961 -0.241196 0.017284 0.028055 0.057738 0.157564 0.097442 0.081900 0.108429 0.099932 0.011857 0.126465 0.107770 0.046991 0.015931 0.204747 -0.144603 -0.163988 -0.152810 0.019937 -0.112228 -0.035588 0.048056 0.041182 0.026591 -0.029221 -0.049649 -0.117467 -0.276583 0.185449 0.003788 0.085684 0.122853
45 -0.062113 -0.007852 0.115106 0.019478 0.055110 0.016476 -0.078123 0.061834 -0.019164 -0.135170 -0.185430 0.033696 0.117638 -0.001002 0.118514 0.010647 -0.153982 -0.151604 -0.055112 0.056741 -0.080419 0.187488 -0.002380 -0.130609 0.067939 0.280128 0.070245 -0.011753 -0.031377 0.006622 -0.180756 -0.087550 -0.058756 -0.042842 0.120005 0.035638 0.020325 0.048304 -0.115340 0.204504 0.187929 -0.053075 -0.054111 0.171420 -0.132128 0.069476 0.040993 -0.161959 -0.055765 -0.025060 -0.151819 0.178864 -0.004592 -0.016902 0.034424 0.035455 -0.019768 -0.079212 0.113410 -0.020690 0.132849 -0.132068 -0.050208 -0.011449 0.067143 0.105899 -0.029072 0.111471 -0.059838 -0.061884 -0.146683 -0.024974 -0.151218 0.105708 -0.090791 0.038732 -0.085825 0.005757 0.030879 -0.099824 0.109918 0.197415 0.092406 0.043656 -0.101438 0.007772 -0.025828 -0.085527 0.065542 0.006403 0.019335 -0.084661 0.070039 0.008110 0.083656 0.077097 -0.266319 0.023660 0.026590 0.038081 0.233838 0.126040 0.059948 0.129510 0.053029 -0.001793 0.082312 0.124058 0.055184 -0.030531 0.198589 -0.178434 -0.154336 -0.123917 0.016968 -0.150348 -0.069095 0.012882 0.039271 0.010535 0.069003 -0.006832 -0.074420 -0.374741 0.100353 -0.026956 0.140652 0.035220
31 0.135050 0.116828 0.189485 -0.083198 0.239897 -0.055049 -0.050277 0.219760 0.064895 -0.179643 -0.335476 -0.098460 0.078627 0.022720 0.025168 0.165148 -0.045383 -0.121667 0.141619 -0.136831 0.109395 0.181877 0.143662 -0.139975 0.035004 0.293705 -0.091154 -0.031313 0.003637 -0.113145 -0.286205 -0.035600 0.049426 -0.210736 0.016956 0.046656 -0.006988 -0.013963 -0.171720 0.219917 0.269678 0.017412 -0.083566 0.013320 0.010534 0.257594 0.018972 -0.074210 -0.150690 -0.172663 -0.155115 0.339380 -0.050065 -0.095426 0.022803 0.044802 -0.099999 -0.047731 0.165328 -0.054678 0.139763 0.049785 -0.058493 -0.090199 0.092242 0.228532 -0.017578 -0.002951 -0.167809 -0.047493 -0.151372 -0.020537 -0.140368 -0.012957 -0.112569 0.058862 -0.002498 -0.005060 -0.011228 -0.039030 0.183689 0.140680 0.077981 0.072981 -0.079872 0.087520 0.140903 -0.112083 -0.124460 0.047799 0.128990 -0.067145 0.030427 -0.038266 0.095640 0.035016 -0.218920 -0.065536 -0.054119 0.158012 0.187770 -0.036873 0.083396 0.232944 0.034029 0.001934 0.117177 0.148025 0.011458 0.095044 0.336207 -0.176423 -0.139953 -0.201554 -0.030875 -0.066061 -0.091587 -0.170206 -0.081985 0.024410 -0.169523 -0.298103 -0.239396 -0.157106 0.162003 0.134452 0.194004 0.019067
46 -0.007320 0.046314 0.144973 0.006593 0.128073 0.010897 -0.057849 0.116296 -0.002150 -0.158491 -0.246496 0.000010 0.119505 0.005640 0.116918 0.054345 -0.141584 -0.166737 -0.003737 0.005043 -0.021584 0.189409 0.052309 -0.131688 0.063934 0.313204 0.022216 -0.017144 -0.006079 -0.044337 -0.222214 -0.076529 -0.034744 -0.101349 0.104903 0.023338 0.001468 0.028147 -0.144121 0.213660 0.222637 -0.029069 -0.073446 0.135764 -0.095666 0.109336 0.028458 -0.144491 -0.076726 -0.064158 -0.158166 0.260718 -0.018525 -0.042283 0.027128 0.060851 -0.034520 -0.074211 0.148833 -0.033877 0.157851 -0.089197 -0.048638 -0.036527 0.098566 0.145583 -0.009955 0.085450 -0.089880 -0.073204 -0.169075 -0.021194 -0.160627 0.078011 -0.107115 0.053099 -0.087405 0.019023 0.026410 -0.078521 0.153211 0.189591 0.102038 0.075330 -0.101790 0.024534 0.003278 -0.104293 0.026281 0.022320 0.055905 -0.087699 0.049665 -0.002094 0.079914 0.080730 -0.292104 0.004782 0.021579 0.090142 0.259281 0.089914 0.081367 0.166944 0.051658 0.001739 0.096960 0.132715 0.052504 0.017097 0.250278 -0.189701 -0.167093 -0.151322 0.008559 -0.138717 -0.081411 -0.049507 -0.001477 0.022514 0.002875 -0.091288 -0.120444 -0.353069 0.124285 0.012019 0.168722 0.037888
47 -0.039981 0.198545 0.030387 0.053995 0.092789 0.011311 -0.122241 -0.178958 -0.060376 -0.160892 -0.207356 -0.022203 -0.060464 0.024676 0.254553 -0.020888 -0.253520 -0.158050 -0.042516 0.206828 -0.042018 0.166340 -0.059939 -0.168778 0.087777 0.227433 0.096049 0.134193 0.095275 -0.054190 -0.153755 -0.360188 0.072200 -0.260398 0.251764 -0.123550 0.008588 0.003000 0.015183 0.277631 0.110947 -0.158168 -0.014905 0.147795 0.082132 0.098996 -0.139967 -0.348354 0.124087 -0.057099 -0.004476 0.124057 0.139954 0.041551 0.173599 0.066394 -0.020721 0.146311 0.086983 -0.047074 -0.003243 -0.194723 0.229481 0.042651 0.071485 -0.135387 0.069970 0.161770 -0.125008 -0.056998 -0.169378 -0.182099 -0.182241 0.180660 0.014455 0.006190 -0.304309 0.374840 0.083436 -0.153674 -0.005973 0.115024 0.091383 0.139519 -0.189646 -0.100282 -0.151552 0.063760 0.067551 0.003445 0.065921 -0.120573 0.213822 0.057306 0.089273 0.021888 -0.217650 0.160667 0.091239 0.070915 -0.008582 0.167737 0.126193 0.010548 0.227597 -0.046601 0.234959 0.041639 0.014042 0.059216 0.110941 -0.086898 -0.143568 -0.062607 0.076230 -0.082513 -0.036905 0.262231 0.137409 0.030399 -0.096329 0.135583 -0.044535 -0.234297 0.351757 -0.067026 0.079038 0.270918
53 -0.044686 0.064272 0.078347 0.006683 0.078349 0.011144 -0.074793 -0.091342 -0.016974 -0.154475 -0.231937 0.018318 0.056366 0.012145 0.185412 -0.008499 -0.201040 -0.145623 -0.074038 0.130531 -0.012514 0.144505 -0.036646 -0.140891 0.092223 0.231538 0.088419 0.066844 -0.006237 -0.023630 -0.154953 -0.206995 0.022767 -0.162263 0.188997 -0.036660 0.018726 0.025658 -0.063031 0.215944 0.161558 -0.078072 -0.016564 0.136340 -0.018216 0.074856 -0.061017 -0.221224 0.030915 -0.070970 -0.097320 0.145427 0.087057 0.007045 0.112402 0.079441 -0.000030 0.030386 0.092849 -0.047628 0.032377 -0.135841 0.108990 0.009948 0.060824 -0.045126 0.027179 0.103737 -0.082433 -0.066884 -0.166633 -0.088466 -0.159245 0.130535 -0.019551 0.015591 -0.178782 0.225473 0.051766 -0.080955 0.068520 0.152378 0.083445 0.086712 -0.163735 -0.048163 -0.108949 -0.036219 0.071610 -0.009674 0.073716 -0.095643 0.140189 0.061446 0.099299 0.042048 -0.207968 0.066291 0.069968 0.044304 0.091352 0.087732 0.080282 0.043978 0.156425 -0.023292 0.154336 0.065830 0.025449 -0.004734 0.149053 -0.120089 -0.143037 -0.092704 0.041331 -0.110294 -0.019821 0.108517 0.072223 0.028260 -0.016179 0.016519 -0.054935 -0.266752 0.221249 -0.016955 0.078865 0.157055
68 -0.066681 0.155382 0.060515 0.017025 0.126852 0.014038 -0.130237 -0.147133 -0.040636 -0.155160 -0.210496 -0.048831 -0.026254 0.024456 0.242324 -0.003690 -0.238552 -0.111966 -0.040421 0.226823 -0.029501 0.181913 -0.060536 -0.147541 0.080752 0.239972 0.063692 0.115168 0.066220 -0.031745 -0.169330 -0.318512 0.049900 -0.222396 0.235158 -0.085172 0.051475 0.030047 -0.030116 0.314071 0.139103 -0.120286 -0.013449 0.142217 0.043465 0.113098 -0.118372 -0.317855 0.100097 -0.065188 -0.016416 0.165791 0.146917 0.022949 0.179114 0.074719 -0.037429 0.057683 0.111127 -0.046332 0.004597 -0.164290 0.230434 0.016726 0.074088 -0.117968 0.007673 0.137094 -0.090517 -0.058068 -0.181133 -0.179457 -0.184027 0.174792 0.016092 -0.003894 -0.275776 0.352892 0.101872 -0.169086 0.003051 0.107635 0.075697 0.130306 -0.173106 -0.104977 -0.114172 0.063814 0.083347 0.011451 0.078110 -0.116423 0.181191 0.144689 0.133323 0.002039 -0.243781 0.110721 0.080058 0.062734 -0.021860 0.144706 0.093592 0.024900 0.218381 -0.065263 0.220870 0.061458 -0.026472 0.046814 0.113683 -0.085788 -0.160687 -0.073879 0.075001 -0.086933 0.006428 0.266033 0.145791 0.033827 -0.080775 0.088191 -0.070863 -0.195420 0.318572 -0.070172 0.063057 0.224097
13 0.122640 0.109304 0.165267 -0.086161 0.220576 -0.058835 -0.041029 0.183035 0.052639 -0.151699 -0.317373 -0.103594 0.074234 0.018193 0.027593 0.147959 -0.059141 -0.100521 0.120225 -0.091059 0.097137 0.159763 0.153249 -0.135853 0.028735 0.256201 -0.075121 -0.042245 0.009519 -0.101670 -0.263873 -0.015532 0.054265 -0.188351 0.013575 0.046909 0.008682 0.000761 -0.150985 0.219146 0.249485 0.015899 -0.076794 0.013703 0.014168 0.241752 0.014403 -0.072397 -0.123335 -0.152755 -0.134417 0.314897 -0.029267 -0.091986 0.041825 0.040560 -0.103884 -0.047963 0.158648 -0.058464 0.107718 0.053126 -0.040176 -0.090748 0.089723 0.193088 -0.029466 0.007576 -0.141543 -0.056149 -0.148345 -0.040891 -0.137237 -0.011866 -0.085808 0.041049 -0.002236 0.015712 -0.018652 -0.043048 0.163456 0.128930 0.069568 0.058871 -0.066323 0.069957 0.146411 -0.101973 -0.100383 0.059962 0.130241 -0.051113 0.031667 -0.008051 0.107513 0.018666 -0.215656 -0.078446 -0.056849 0.145369 0.158282 -0.025915 0.060923 0.207062 0.032642 0.000177 0.096896 0.152676 -0.008385 0.090269 0.312082 -0.151567 -0.146245 -0.195683 -0.025115 -0.056070 -0.064543 -0.128489 -0.055932 0.021984 -0.163904 -0.274474 -0.231430 -0.135279 0.157082 0.113701 0.148955 0.034217
51 -0.004419 0.095486 0.095792 -0.008129 0.116316 0.001703 -0.072251 0.000520 -0.002675 -0.145768 -0.221949 -0.030379 0.041888 0.014173 0.141447 0.037830 -0.155742 -0.117938 -0.013738 0.074020 0.007510 0.150302 0.004029 -0.131678 0.062388 0.221372 0.032143 0.043531 0.015772 -0.042680 -0.178531 -0.156209 0.028468 -0.169260 0.134099 -0.020268 0.016388 0.015200 -0.068698 0.214770 0.165298 -0.057680 -0.027925 0.105040 0.001181 0.113733 -0.036431 -0.183285 -0.003631 -0.083947 -0.078890 0.189038 0.053862 -0.013504 0.081109 0.056365 -0.035645 0.004791 0.110857 -0.033810 0.052261 -0.083029 0.069477 -0.023088 0.060877 0.018671 0.009561 0.080667 -0.089629 -0.053635 -0.150676 -0.081368 -0.146406 0.098817 -0.042658 0.014419 -0.132462 0.155863 0.031444 -0.087390 0.079418 0.134732 0.075485 0.085988 -0.122683 -0.026199 -0.031309 -0.031902 0.018851 0.005891 0.078379 -0.083146 0.111761 0.053188 0.094813 0.027258 -0.202318 0.030115 0.031553 0.068074 0.095943 0.066434 0.066877 0.096865 0.118064 -0.014847 0.140665 0.076820 0.009281 0.028617 0.175476 -0.120565 -0.135388 -0.109505 0.020740 -0.084706 -0.037555 0.057539 0.045379 0.027539 -0.056478 -0.042861 -0.099538 -0.207146 0.196523 0.008087 0.097994 0.121346
34 0.002923 0.076700 0.100236 -0.013342 0.106611 -0.017142 -0.075011 0.025361 -0.003494 -0.136744 -0.221150 -0.021493 0.054379 0.009912 0.121222 0.048852 -0.139328 -0.118782 -0.002217 0.055158 -0.009417 0.164089 0.024983 -0.140893 0.059977 0.238316 0.031530 0.017621 0.002963 -0.037783 -0.182555 -0.133503 0.016322 -0.139250 0.116047 0.009870 0.021234 0.028980 -0.084940 0.225519 0.173495 -0.064843 -0.037689 0.107963 -0.028109 0.126569 -0.008359 -0.173173 -0.029051 -0.073646 -0.104481 0.184318 0.027921 -0.025074 0.071468 0.034141 -0.045547 -0.018507 0.108426 -0.035744 0.075170 -0.080794 0.025946 -0.026402 0.062087 0.056588 -0.012465 0.085980 -0.098687 -0.050749 -0.147407 -0.075257 -0.142631 0.092614 -0.058742 0.020942 -0.108762 0.104967 0.025815 -0.096136 0.088060 0.150617 0.075955 0.059727 -0.111368 -0.004974 0.007485 -0.048979 0.009478 0.012109 0.067322 -0.083092 0.097408 0.035368 0.102425 0.034303 -0.219976 0.020164 0.010252 0.067894 0.127247 0.075491 0.068741 0.117735 0.092138 -0.013766 0.128698 0.100996 0.018104 0.021674 0.194385 -0.139570 -0.139530 -0.129666 0.010424 -0.094673 -0.043397 0.036642 0.037811 0.019904 -0.039190 -0.057493 -0.107134 -0.233703 0.171390 0.009900 0.105980 0.095449
57 -0.062098 0.072556 0.093175 0.006839 0.091025 0.019322 -0.093716 -0.045714 -0.015185 -0.154618 -0.200431 -0.002198 0.051116 0.006174 0.189019 0.012253 -0.182573 -0.126291 -0.057312 0.130607 -0.024775 0.157029 -0.050757 -0.135738 0.073811 0.235314 0.061525 0.063616 -0.007446 -0.006020 -0.162026 -0.200880 0.008280 -0.150441 0.182871 -0.026896 0.033313 0.030266 -0.069749 0.234251 0.155004 -0.059703 -0.018875 0.145719 -0.032837 0.079733 -0.036666 -0.211671 0.026164 -0.067079 -0.081727 0.168401 0.083211 -0.001255 0.096554 0.061405 -0.019239 -0.005740 0.096933 -0.026159 0.051642 -0.131725 0.100053 -0.008961 0.051014 -0.018643 -0.008316 0.096266 -0.063234 -0.056987 -0.152635 -0.078446 -0.166205 0.142028 -0.036105 0.004825 -0.158450 0.173073 0.051108 -0.113398 0.060049 0.159365 0.075703 0.102303 -0.141734 -0.064314 -0.076490 -0.019907 0.061998 -0.004860 0.067762 -0.096361 0.126674 0.099498 0.105621 0.043323 -0.220152 0.058237 0.057943 0.045837 0.082877 0.084269 0.061343 0.077795 0.142333 -0.035853 0.158754 0.069553 0.006160 0.003016 0.142624 -0.128659 -0.140065 -0.096547 0.033378 -0.092794 -0.018767 0.113864 0.082520 0.025882 -0.012547 0.012586 -0.065184 -0.235154 0.201921 -0.018484 0.102030 0.125058
1 -0.212439 -0.151324 0.147076 -0.154112 0.179428 -0.123377 -0.118526 0.073594 -0.040063 -0.035689 -0.192487 -0.129847 0.194452 -0.044203 0.202932 -0.002779 -0.181368 0.024141 -0.110726 0.332509 -0.139044 0.250067 0.026148 -0.102256 0.016832 0.262043 -0.010645 -0.134776 -0.072561 0.184309 -0.210810 0.065280 -0.073002 0.096016 0.094764 0.241402 0.271734 0.215800 -0.141352 0.392968 0.206653 -0.031626 -0.054637 0.204173 -0.290771 0.151933 0.194927 -0.173267 -0.085617 -0.006139 -0.143507 0.191694 0.048993 -0.063817 0.173581 0.015082 -0.182553 -0.355700 0.152436 -0.011671 0.085162 -0.106284 -0.026299 -0.033995 -0.023423 0.011650 -0.299556 0.122237 0.129070 -0.093163 -0.152000 -0.191678 -0.190302 0.147789 -0.046705 -0.136379 -0.030839 -0.047416 0.016168 -0.291086 0.054247 0.207542 -0.048152 -0.087489 -0.006699 -0.022567 0.187866 -0.041349 0.135834 0.114721 0.003607 -0.055699 0.083742 0.444365 0.314913 -0.102659 -0.342946 -0.203131 -0.082487 -0.045871 0.037577 0.161659 -0.083468 0.155836 0.009771 -0.018790 -0.005463 0.235760 -0.146200 -0.100898 0.183095 -0.125626 -0.311816 -0.270712 0.051406 -0.156242 0.165670 0.260493 0.235805 -0.032884 0.104294 -0.029412 -0.209163 -0.202763 0.051852 -0.160012 -0.050750 -0.070100
5 -0.149540 -0.135510 0.175320 -0.178334 0.214875 -0.130882 -0.103181 0.135702 -0.011401 -0.050796 -0.232839 -0.148271 0.200470 -0.039820 0.165995 0.040618 -0.145054 0.011880 -0.065661 0.258146 -0.091289 0.245069 0.069540 -0.107151 0.013372 0.275220 -0.045589 -0.148523 -0.079650 0.151153 -0.239485 0.105529 -0.056377 0.070860 0.059050 0.251616 0.244486 0.189305 -0.166739 0.381490 0.236870 0.000036 -0.064231 0.167268 -0.269119 0.186358 0.197895 -0.130539 -0.129847 -0.044356 -0.169018 0.249833 0.019603 -0.089211 0.146991 0.017391 -0.195283 -0.355878 0.174331 -0.024912 0.108115 -0.052584 -0.061334 -0.058499 -0.013914 0.076536 -0.290842 0.094310 0.097688 -0.090504 -0.153156 -0.167869 -0.183217 0.108497 -0.069198 -0.115606 0.001290 -0.085118 -0.002465 -0.252967 0.085885 0.212396 -0.043999 -0.078866 -0.004006 0.011641 0.228312 -0.077886 0.085529 0.121210 0.032466 -0.051133 0.056981 0.400102 0.302544 -0.098467 -0.345214 -0.228759 -0.096795 -0.012033 0.077410 0.115920 -0.068827 0.200990 -0.012333 -0.009214 -0.011229 0.243496 -0.136686 -0.079151 0.230618 -0.142526 -0.304093 -0.286576 0.030338 -0.146994 0.140377 0.169104 0.184050 -0.030197 0.065258 -0.115777 -0.253970 -0.189074 0.042113 -0.109989 -0.012196 -0.092194
7 -0.186512 -0.121676 0.164289 -0.172450 0.226884 -0.125365 -0.117741 0.110069 -0.027637 -0.039642 -0.201806 -0.176543 0.177062 -0.040788 0.187800 0.034179 -0.143402 0.053596 -0.061060 0.308245 -0.100330 0.242500 0.042992 -0.091411 0.004122 0.264750 -0.061891 -0.136295 -0.056783 0.171654 -0.230460 0.072231 -0.060272 0.075285 0.073032 0.233688 0.275735 0.202108 -0.155153 0.406446 0.218252 0.002893 -0.058895 0.169515 -0.266415 0.189614 0.191699 -0.153276 -0.102692 -0.039369 -0.128558 0.238157 0.048520 -0.081651 0.172562 0.019417 -0.202425 -0.365595 0.166307 -0.019984 0.097239 -0.063365 -0.010141 -0.054954 -0.015384 0.035071 -0.312795 0.086833 0.125637 -0.086088 -0.143540 -0.190140 -0.195981 0.125547 -0.046703 -0.131807 -0.013798 -0.058731 0.012271 -0.291557 0.064264 0.185406 -0.053624 -0.067027 0.005268 -0.015825 0.235042 -0.040967 0.105734 0.132320 0.024111 -0.043321 0.062708 0.457369 0.313866 -0.119234 -0.336135 -0.229301 -0.099771 -0.020868 0.012156 0.127220 -0.090559 0.175548 0.010281 -0.030638 -0.001735 0.235595 -0.173373 -0.073787 0.194603 -0.117835 -0.305896 -0.268813 0.045703 -0.131740 0.170795 0.237488 0.224595 -0.033047 0.053709 -0.080680 -0.245259 -0.138771 0.061826 -0.140175 -0.037015 -0.089158
10 -0.225062 -0.137725 0.149053 -0.154102 0.197324 -0.114207 -0.122427 0.057251 -0.035612 -0.036066 -0.182291 -0.144911 0.183039 -0.048287 0.219535 0.002690 -0.173546 0.038159 -0.106282 0.360946 -0.122865 0.241729 0.005500 -0.090476 0.015430 0.260523 -0.025578 -0.117155 -0.067925 0.191294 -0.206197 0.040992 -0.070289 0.088737 0.109849 0.224125 0.277553 0.207235 -0.137145 0.404137 0.183637 -0.018250 -0.038607 0.193653 -0.277418 0.149008 0.178992 -0.172816 -0.067448 -0.020493 -0.124404 0.199780 0.067957 -0.064213 0.182037 0.022987 -0.182997 -0.358213 0.150440 -0.012620 0.080275 -0.104241 0.008846 -0.030905 -0.025725 -0.012987 -0.308503 0.110366 0.143412 -0.090951 -0.142267 -0.194147 -0.197264 0.154744 -0.031426 -0.139404 -0.045727 -0.026302 0.032383 -0.290434 0.040491 0.191001 -0.056307 -0.062125 -0.014273 -0.038926 0.180277 -0.024874 0.141730 0.108994 0.007319 -0.056284 0.086475 0.468814 0.307423 -0.113512 -0.335894 -0.196738 -0.070378 -0.041969 0.003852 0.146630 -0.086030 0.145096 0.024652 -0.032440 -0.000028 0.213507 -0.165613 -0.101590 0.163428 -0.108359 -0.307838 -0.250772 0.051444 -0.144224 0.177675 0.281398 0.245691 -0.030930 0.095326 -0.020933 -0.206932 -0.160595 0.060874 -0.165443 -0.050272 -0.075719
8 -0.204979 -0.155761 0.157679 -0.182209 0.212264 -0.145504 -0.113269 0.102937 -0.030595 -0.033517 -0.217223 -0.158948 0.205444 -0.051788 0.196525 0.017748 -0.169954 0.040220 -0.099099 0.337621 -0.118906 0.256030 0.058373 -0.100857 0.015904 0.277962 -0.035552 -0.153601 -0.078420 0.183296 -0.227730 0.099283 -0.064621 0.101853 0.083561 0.266308 0.293056 0.221846 -0.155810 0.415164 0.233703 -0.022231 -0.060639 0.194910 -0.300823 0.180342 0.212067 -0.163640 -0.108251 -0.023737 -0.153973 0.230312 0.046925 -0.080566 0.179019 0.018211 -0.206170 -0.383715 0.175262 -0.024900 0.095279 -0.081505 -0.038916 -0.044958 -0.019830 0.029507 -0.323879 0.115923 0.131959 -0.098374 -0.154462 -0.205850 -0.196649 0.131219 -0.052645 -0.145936 -0.016722 -0.057440 0.007967 -0.297092 0.064321 0.211478 -0.057430 -0.094482 -0.002337 -0.005691 0.229575 -0.056011 0.120551 0.128873 0.019562 -0.056291 0.077310 0.470874 0.331504 -0.122253 -0.361045 -0.240961 -0.104256 -0.035954 0.041291 0.159033 -0.087384 0.180785 0.000469 -0.010794 -0.012080 0.255526 -0.163161 -0.096108 0.209788 -0.129558 -0.335013 -0.296240 0.052759 -0.162387 0.181769 0.250854 0.236522 -0.033772 0.086035 -0.067310 -0.248478 -0.186585 0.052714 -0.157105 -0.058535 -0.091894
6 -0.217850 -0.142241 0.161940 -0.140669 0.175824 -0.102746 -0.127163 0.095626 -0.033382 -0.057566 -0.182807 -0.117623 0.196327 -0.046843 0.204112 0.010115 -0.159904 0.019531 -0.105311 0.316314 -0.131411 0.252115 -0.016269 -0.109502 0.018259 0.283225 -0.021972 -0.116802 -0.084255 0.199509 -0.221688 0.034996 -0.083889 0.090477 0.112012 0.224810 0.258605 0.207674 -0.149518 0.393516 0.207400 -0.017785 -0.039708 0.205334 -0.292329 0.150554 0.193540 -0.170412 -0.088042 -0.020609 -0.144874 0.210415 0.055895 -0.061363 0.159507 0.012953 -0.175889 -0.356501 0.145556 -0.007549 0.113572 -0.108831 -0.018968 -0.043157 -0.023767 0.029472 -0.304183 0.105401 0.127608 -0.088073 -0.139803 -0.160272 -0.202697 0.164590 -0.057939 -0.125372 -0.019051 -0.071255 0.024201 -0.295472 0.055688 0.215629 -0.042012 -0.061549 -0.018159 -0.029346 0.168623 -0.042167 0.135304 0.098454 0.005338 -0.060569 0.074730 0.440875 0.298963 -0.075193 -0.336043 -0.187351 -0.071383 -0.037124 0.038812 0.143545 -0.082761 0.171573 0.019992 -0.034077 0.009961 0.217744 -0.151718 -0.108662 0.186830 -0.138742 -0.296792 -0.246423 0.046325 -0.148609 0.150162 0.235000 0.230439 -0.034160 0.110663 -0.040250 -0.196916 -0.201357 0.046830 -0.152940 -0.014202 -0.093330
15 -0.093288 -0.035692 0.137319 -0.059454 0.119955 -0.037532 -0.098947 0.066827 -0.015839 -0.121677 -0.207825 -0.030827 0.135018 -0.013521 0.156262 0.030921 -0.154945 -0.085242 -0.056368 0.143212 -0.068500 0.214615 -0.006573 -0.136603 0.049971 0.273283 0.019788 -0.040927 -0.055843 0.065931 -0.207293 -0.062262 -0.036118 -0.044901 0.123419 0.106193 0.105980 0.096753 -0.127881 0.289607 0.201444 -0.038548 -0.046129 0.161125 -0.159545 0.126275 0.085289 -0.172233 -0.062939 -0.052097 -0.145854 0.192629 0.029160 -0.037636 0.093446 0.025957 -0.087179 -0.157265 0.121733 -0.022235 0.109209 -0.099631 -0.013615 -0.034407 0.019439 0.064916 -0.128272 0.092579 -0.008013 -0.061598 -0.145647 -0.091179 -0.173618 0.126719 -0.072413 -0.031005 -0.062889 0.006826 0.021062 -0.172411 0.086614 0.207385 0.038951 0.014764 -0.079709 -0.009077 0.061567 -0.061422 0.066560 0.029428 0.039093 -0.076444 0.090353 0.173487 0.175051 0.013543 -0.269480 -0.052826 -0.012539 0.016978 0.128699 0.103749 0.012651 0.154904 0.053477 -0.014641 0.081866 0.148935 -0.032464 -0.039353 0.209223 -0.165707 -0.200338 -0.182187 0.015168 -0.129966 0.015009 0.095177 0.101859 -0.000194 0.046624 -0.057310 -0.135178 -0.264978 0.114613 -0.048267 0.080638 0.002861
54 -0.022594 0.067040 0.107166 0.006225 0.099120 0.011337 -0.085430 0.000693 0.001024 -0.167930 -0.227494 0.004063 0.062578 0.010435 0.152728 0.038721 -0.160170 -0.134870 -0.026164 0.071447 -0.014865 0.171454 -0.023878 -0.142877 0.071821 0.254511 0.046496 0.039815 -0.009214 -0.019891 -0.185085 -0.177937 0.011053 -0.157410 0.155294 -0.012638 0.012704 0.020812 -0.083050 0.232034 0.170788 -0.053936 -0.028611 0.129049 -0.035516 0.111397 -0.024134 -0.188973 -0.008779 -0.082871 -0.109598 0.187793 0.050525 -0.014162 0.082390 0.045224 -0.029169 -0.006699 0.099410 -0.032965 0.080289 -0.106315 0.052475 -0.016680 0.059463 0.036087 -0.003400 0.083185 -0.092562 -0.056327 -0.152629 -0.060960 -0.167252 0.123636 -0.059597 0.024115 -0.128909 0.126327 0.040095 -0.097704 0.088454 0.168584 0.084399 0.092051 -0.140667 -0.027670 -0.042578 -0.041717 0.029856 -0.001860 0.074744 -0.089341 0.113735 0.055212 0.100222 0.058183 -0.221409 0.040564 0.037895 0.057810 0.123372 0.071147 0.070569 0.110733 0.122082 -0.027383 0.149407 0.082766 0.017255 0.010442 0.189197 -0.147814 -0.140067 -0.110584 0.019327 -0.100908 -0.042340 0.054890 0.051929 0.017978 -0.024093 -0.032552 -0.088328 -0.246991 0.190470 0.010756 0.126190 0.099718
33 -0.050048 -0.012199 0.128957 -0.049182 0.115004 -0.039148 -0.083365 0.082815 -0.012560 -0.119993 -0.215818 -0.023877 0.115364 -0.010067 0.115675 0.043427 -0.137799 -0.100592 -0.036492 0.077011 -0.047439 0.194028 0.022169 -0.138504 0.044026 0.264346 0.019074 -0.036167 -0.042513 0.024062 -0.204906 -0.053819 -0.029919 -0.056590 0.097463 0.084957 0.069557 0.074282 -0.123502 0.247854 0.195763 -0.040430 -0.050007 0.138645 -0.126755 0.127963 0.065431 -0.150522 -0.071692 -0.056520 -0.142429 0.194227 0.006239 -0.033123 0.064845 0.021374 -0.076988 -0.122918 0.118255 -0.021693 0.108473 -0.082541 -0.037156 -0.038935 0.029929 0.096603 -0.085967 0.089208 -0.045715 -0.060013 -0.142801 -0.072543 -0.154314 0.100542 -0.075435 -0.009059 -0.048230 0.003885 0.006912 -0.130483 0.101874 0.188564 0.046776 0.014675 -0.083003 0.010291 0.058018 -0.077114 0.033554 0.022838 0.046844 -0.077027 0.081729 0.108376 0.144411 0.023004 -0.254336 -0.037869 -0.011947 0.036175 0.153283 0.090493 0.030266 0.150423 0.042242 -0.004551 0.081494 0.142156 -0.003122 -0.021325 0.217746 -0.162834 -0.180412 -0.168325 0.007450 -0.120781 -0.013860 0.042858 0.061170 -0.000354 0.022522 -0.076095 -0.128625 -0.266981 0.109442 -0.017705 0.092678 0.011116
12 -0.003795 0.048683 0.142979 -0.031980 0.138287 -0.019154 -0.084032 0.115959 0.009295 -0.154715 -0.229590 -0.042580 0.088951 0.002571 0.103023 0.078156 -0.113204 -0.106880 0.014403 0.023905 -0.004343 0.198104 0.024444 -0.144201 0.041909 0.277258 -0.013863 -0.016376 -0.017928 -0.010338 -0.224167 -0.094505 -0.004309 -0.117784 0.091255 0.050233 0.030879 0.046235 -0.124791 0.250179 0.212507 -0.025291 -0.044428 0.107287 -0.074933 0.166211 0.033524 -0.144987 -0.076169 -0.096586 -0.131667 0.235619 0.006214 -0.050187 0.059508 0.022266 -0.081129 -0.085077 0.119867 -0.029108 0.122612 -0.059485 -0.012184 -0.051590 0.053617 0.126098 -0.069629 0.061914 -0.081709 -0.049735 -0.146483 -0.047236 -0.157343 0.090799 -0.083174 0.019718 -0.050874 0.012661 0.010594 -0.122062 0.116348 0.174622 0.067608 0.053038 -0.095720 0.011253 0.060516 -0.066255 -0.002724 0.026681 0.070528 -0.076844 0.068093 0.063444 0.126070 0.047185 -0.235737 -0.024272 -0.015265 0.073731 0.142011 0.051508 0.053199 0.169140 0.064512 -0.022344 0.114141 0.128535 -0.008504 0.017297 0.245641 -0.168761 -0.153762 -0.161467 -0.002764 -0.101705 -0.042940 -0.007907 0.028523 0.004279 -0.031981 -0.119385 -0.144000 -0.230460 0.143200 0.023299 0.136511 0.026752
41 0.007835 0.051848 0.107013 -0.075327 0.166475 -0.063920 -0.061527 0.044792 -0.003781 -0.096520 -0.238698 -0.083967 0.068232 -0.001526 0.115205 0.051784 -0.138285 -0.074081 0.009204 0.088852 0.007794 0.152082 0.083646 -0.115718 0.049120 0.207191 -0.000235 -0.028483 0.012269 -0.027806 -0.185502 -0.040136 0.036624 -0.111543 0.079094 0.056542 0.072492 0.050103 -0.090728 0.242538 0.179859 -0.042445 -0.057980 0.087023 -0.040969 0.149931 0.020694 -0.149564 -0.045564 -0.080100 -0.091994 0.206126 0.030276 -0.046790 0.096385 0.044991 -0.087370 -0.067156 0.139941 -0.048660 0.044114 -0.032524 0.028364 -0.033165 0.046427 0.046095 -0.048210 0.073507 -0.061794 -0.064603 -0.144245 -0.114260 -0.134863 0.055549 -0.039168 -0.011034 -0.088900 0.099688 0.010480 -0.110967 0.085654 0.129066 0.034583 0.022846 -0.072567 0.014522 0.073072 -0.053943 0.001653 0.056196 0.072938 -0.067445 0.082373 0.117840 0.148750 -0.039725 -0.226957 -0.053503 -0.024334 0.060748 0.085692 0.068124 0.035339 0.116065 0.061862 0.000922 0.082186 0.138315 -0.019565 0.026991 0.198756 -0.107939 -0.177419 -0.173631 0.023275 -0.084424 0.013879 0.063620 0.057359 0.010373 -0.067863 -0.097372 -0.168975 -0.167142 0.160629 -0.004382 0.050118 0.076513
48 -0.054540 0.173763 0.047423 0.034894 0.109877 0.005737 -0.116423 -0.154537 -0.051778 -0.149564 -0.201736 -0.038494 -0.036091 0.025000 0.245451 -0.015365 -0.235406 -0.135505 -0.042329 0.206633 -0.032744 0.157570 -0.050068 -0.144874 0.085437 0.227924 0.080242 0.119382 0.073514 -0.039048 -0.147185 -0.317211 0.063891 -0.233810 0.227055 -0.104064 0.027867 0.021515 -0.005471 0.279338 0.119685 -0.127908 -0.012293 0.136033 0.057540 0.098405 -0.123119 -0.318724 0.109308 -0.056628 -0.012476 0.142580 0.138462 0.026495 0.168415 0.071483 -0.027986 0.092252 0.091940 -0.048965 0.002085 -0.171657 0.211555 0.035858 0.070951 -0.124344 0.034715 0.139274 -0.098463 -0.060561 -0.171602 -0.166361 -0.178844 0.166152 0.004227 -0.006119 -0.267687 0.341936 0.080064 -0.145448 0.014023 0.110880 0.074663 0.123248 -0.173253 -0.090546 -0.118628 0.051720 0.073892 0.012598 0.071740 -0.115896 0.189907 0.098473 0.100358 0.001308 -0.218897 0.120381 0.074007 0.062264 -0.011587 0.140292 0.105408 0.014510 0.207130 -0.049087 0.207057 0.043132 -0.002275 0.051438 0.113013 -0.080196 -0.147971 -0.076574 0.070440 -0.077001 -0.014740 0.242449 0.142092 0.031209 -0.083926 0.109364 -0.062433 -0.206841 0.315064 -0.065888 0.069467 0.237258
16 -0.003311 0.050138 0.124149 -0.036664 0.141882 -0.027326 -0.075486 0.074743 0.002591 -0.139541 -0.228594 -0.050323 0.072936 0.006991 0.114686 0.068013 -0.118963 -0.097854 0.010521 0.050920 -0.000171 0.174682 0.033353 -0.130569 0.040855 0.252407 -0.004080 -0.008184 -0.010650 -0.014137 -0.203071 -0.096084 0.010831 -0.122684 0.092141 0.036758 0.042587 0.036844 -0.112800 0.237924 0.194949 -0.025506 -0.045694 0.098465 -0.058120 0.145607 0.020566 -0.143464 -0.055623 -0.085601 -0.113096 0.220296 0.020075 -0.045734 0.069677 0.036007 -0.072771 -0.068814 0.119322 -0.031339 0.096831 -0.053202 0.006175 -0.045686 0.059196 0.089885 -0.047653 0.065355 -0.078838 -0.050324 -0.144033 -0.068164 -0.152916 0.078637 -0.068343 0.012651 -0.068358 0.050004 0.014967 -0.104029 0.100663 0.153613 0.057350 0.052977 -0.091363 0.002109 0.051830 -0.058942 0.000951 0.029626 0.068256 -0.072166 0.073805 0.073078 0.114225 0.029368 -0.222646 -0.017777 -0.006745 0.070919 0.122662 0.054747 0.046140 0.146325 0.067396 -0.021055 0.106157 0.122785 -0.005813 0.018296 0.215222 -0.139604 -0.156047 -0.144870 0.008709 -0.092439 -0.029234 0.022787 0.036797 0.008561 -0.049005 -0.099065 -0.137499 -0.204655 0.147387 0.016562 0.114482 0.047205
14 0.010716 0.060450 0.120107 -0.055045 0.154521 -0.040769 -0.064114 0.071149 0.003079 -0.120408 -0.227638 -0.064133 0.068784 0.006956 0.108957 0.068969 -0.122080 -0.088694 0.023813 0.051441 0.011564 0.159949 0.054880 -0.117674 0.040507 0.228491 -0.011869 -0.010074 0.006798 -0.026724 -0.198180 -0.067850 0.019208 -0.122548 0.078476 0.040065 0.047222 0.040641 -0.102100 0.228842 0.185792 -0.029688 -0.053265 0.089652 -0.037044 0.147801 0.015044 -0.136551 -0.054169 -0.085833 -0.097432 0.216084 0.020674 -0.045879 0.080640 0.038374 -0.076095 -0.060050 0.129946 -0.036527 0.081760 -0.037223 0.014884 -0.042642 0.055578 0.081821 -0.043304 0.063579 -0.077151 -0.058327 -0.144594 -0.081058 -0.139110 0.066490 -0.062910 0.003275 -0.076969 0.068671 0.016085 -0.100241 0.100330 0.135932 0.053591 0.050116 -0.078911 0.013859 0.065699 -0.055613 -0.005131 0.040345 0.076698 -0.066759 0.072151 0.077549 0.122396 0.008694 -0.225126 -0.035807 -0.012580 0.076137 0.112862 0.055611 0.045828 0.133137 0.061882 -0.013099 0.100085 0.125587 -0.014064 0.035908 0.207435 -0.121893 -0.158725 -0.152176 0.008002 -0.079122 -0.018520 0.025885 0.037175 0.012988 -0.068409 -0.109127 -0.151633 -0.182671 0.151662 0.019120 0.093770 0.057851