77 16
11 -0.430715 -0.028731 -0.069923 0.769382 0.169689 -0.212769 0.267974 0.157091 -0.140490 -0.066579 0.249077 -0.052718 -0.082437 -0.165450 0.172589 0.507547
56 -0.364560 0.025838 -0.016255 0.514988 0.153520 -0.194202 0.408268 0.190660 -0.516431 -0.080530 -0.075186 0.107028 -0.210163 -0.346413 0.220117 0.381320
59 -0.341450 0.153590 0.065962 0.278518 0.245524 -0.273754 0.425947 0.206633 -0.428410 -0.245400 -0.066201 0.174107 -0.417128 -0.371718 0.202970 0.530149
63 -0.361449 0.090428 0.141151 0.238234 0.226883 -0.290976 0.373186 0.310881 -0.558581 -0.256554 -0.111967 0.198855 -0.500178 -0.497131 0.122448 0.568087
27 -0.371876 -0.077383 -0.124726 0.672180 0.124298 -0.230468 0.449410 0.094846 -0.156782 -0.060188 0.117699 0.157778 -0.036275 -0.296126 0.111908 0.471490
60 -0.324120 0.164323 0.129399 0.291198 0.137337 -0.206679 0.432075 0.236110 -0.515534 -0.240911 -0.062723 0.246415 -0.494780 -0.432966 0.187372 0.505958
26 -0.350135 -0.158241 0.106853 0.686314 -0.350600 0.102632 0.544664 0.254496 0.210309 -0.228984 0.538644 0.102851 -0.402515 -0.245029 -0.020755 0.504356
65 -0.289816 0.214324 -0.041922 0.329231 0.185829 -0.235142 0.507182 0.049409 -0.501592 -0.174372 -0.271323 0.375202 -0.410657 -0.494652 0.217445 0.489926
49 -0.281967 0.104957 0.061112 0.247332 0.029987 0.029894 0.560596 0.220636 -0.522461 -0.362272 -0.052199 0.077672 -0.578394 -0.245739 0.208656 0.640971
24 -0.203058 0.060904 -0.501562 0.883503 0.037139 0.038525 0.663795 -0.346823 0.152116 -0.317601 -0.027312 0.399757 -0.118987 -0.078863 0.160481 0.575383
2 -0.500429 0.361892 -0.236132 1.461665 0.272208 -0.042983 -0.445549 -0.059965 -0.667041 0.246504 0.149590 0.088399 -0.206183 -0.248548 0.520345 0.222566
28 -0.313565 -0.097372 -0.043464 0.552084 -0.011702 -0.093469 0.500765 0.144912 -0.035512 -0.295001 0.231484 0.082419 -0.302082 -0.195340 0.043256 0.550589
66 -0.345065 0.214763 0.216904 0.116754 0.118074 -0.258220 0.579369 0.294668 -0.660744 -0.317562 -0.185167 0.298161 -0.696820 -0.575851 0.167678 0.565480
25 -0.352824 -0.090396 -0.068890 0.764540 -0.129658 -0.016854 0.509723 0.141271 0.100577 -0.182037 0.383221 0.069244 -0.157531 -0.162291 0.093116 0.488675
64 -0.355261 0.262454 0.187220 0.252111 0.179509 -0.276313 0.399170 0.221126 -0.689971 -0.195605 -0.157406 0.222074 -0.579278 -0.493739 0.264520 0.504238
62 -0.340559 0.242760 0.243008 0.155723 0.203810 -0.225843 0.390335 0.348583 -0.777652 -0.198463 -0.194937 0.247414 -0.646589 -0.551126 0.219624 0.550977
50 -0.402672 0.061712 0.031012 0.506981 0.053645 -0.274209 0.570504 0.313479 -0.495331 0.010988 0.017964 0.146200 -0.089700 -0.476753 0.147473 0.328749
18 -0.148077 0.055325 -0.609248 0.954908 0.018129 0.087113 0.745405 -0.453875 0.185939 -0.360842 -0.079838 0.532217 -0.118526 -0.104276 0.169353 0.581009
22 -0.062874 0.041791 -0.781440 0.849054 0.137222 -0.028378 0.932305 -0.524716 0.187824 -0.460130 -0.206575 0.561318 -0.026424 0.008438 0.168281 0.696621
21 -0.064253 -0.008633 -0.850916 0.928381 0.149005 0.009336 0.957910 -0.528584 0.242871 -0.504766 -0.178029 0.532743 -0.056072 0.032154 0.131187 0.770797
20 -0.035579 0.079729 -0.704666 0.833826 0.053647 0.050744 0.955745 -0.537352 0.197084 -0.443954 -0.176470 0.578283 -0.152701 -0.050887 0.185908 0.666772
23 -0.102049 0.037024 -0.708715 0.915678 0.080814 0.054523 0.813418 -0.496001 0.207250 -0.354395 -0.106156 0.480063 -0.053933 -0.042038 0.146914 0.629948
19 -0.088260 0.051588 -0.644352 0.853316 0.085738 0.043815 0.821693 -0.470503 0.180622 -0.439096 -0.141310 0.498215 -0.095912 -0.008876 0.202102 0.629179
4 -0.420832 0.388584 -0.194311 1.348691 0.275267 -0.045277 -0.353218 -0.101326 -0.632842 0.170684 0.054423 0.080707 -0.216796 -0.188300 0.536887 0.245222
17 -0.026232 0.035695 -0.831063 0.973785 0.151712 -0.029439 0.862033 -0.644622 0.227527 -0.438764 -0.254477 0.622090 -0.025420 -0.009400 0.174770 0.633103
70 -0.366158 -0.084571 0.178752 0.649551 -0.487920 0.168674 0.484615 0.254343 0.221174 -0.300991 0.581607 0.084831 -0.534866 -0.308837 -0.017877 0.478512
52 -0.443864 -0.029829 0.110877 0.479717 -0.074432 -0.149401 0.577865 0.456942 -0.607860 0.028347 0.114466 0.031408 -0.099843 -0.478564 0.150892 0.434433
69 -0.346210 -0.101776 0.133954 0.547010 -0.324019 0.104350 0.472938 0.262220 0.089420 -0.367795 0.450566 0.079379 -0.536981 -0.302955 0.042131 0.516744
42 -0.361884 -0.076296 0.090126 0.729043 -0.084517 -0.082968 0.383275 0.223959 -0.010325 -0.143040 0.424907 0.045584 -0.308164 -0.257302 0.032548 0.467983
3 -0.397026 0.285435 -0.235838 1.229207 0.273496 -0.066706 -0.285900 -0.028492 -0.541975 0.140475 0.149451 0.005778 -0.166099 -0.078841 0.473140 0.290997
71 -0.363643 -0.093290 0.217067 0.583501 -0.242556 -0.029468 0.426491 0.313803 -0.022183 -0.262684 0.465408 0.022432 -0.490532 -0.374309 0.013233 0.535103
61 -0.336842 0.099725 0.192530 0.252787 0.245560 -0.334848 0.452616 0.343567 -0.572176 -0.247241 -0.072298 0.190962 -0.513762 -0.480012 0.140349 0.535865
58 -0.312846 0.206117 0.253200 0.155414 0.107504 -0.285674 0.582021 0.305489 -0.763432 -0.174540 -0.167010 0.208576 -0.628731 -0.574031 0.160663 0.482541
29 -0.366751 -0.301424 -0.204710 0.519320 0.044662 -0.318220 0.340496 0.031017 -0.129632 -0.220204 0.174628 -0.133418 0.000283 -0.230736 0.030104 0.754341
36 -0.453921 -0.362170 -0.472950 1.162665 0.599696 -0.574942 0.107250 0.218215 0.012739 -0.139997 0.591825 -0.410623 0.234010 0.302062 0.115934 0.774907
35 -0.459048 -0.433999 -0.407602 0.916401 0.418989 -0.601759 0.360270 0.283026 0.081667 -0.226178 0.587022 -0.390901 0.246276 0.152457 0.061367 0.837859
67 -0.407543 0.192294 0.330445 0.256588 0.080172 -0.226944 0.375461 0.428792 -0.750959 -0.184629 -0.089875 0.228805 -0.670631 -0.690216 0.174523 0.511880
72 -0.342154 -0.134079 0.180044 0.537165 -0.236924 -0.055771 0.460136 0.342604 0.020081 -0.297639 0.461634 0.036017 -0.456894 -0.299051 0.029936 0.577079
38 -0.434574 -0.445882 -0.383684 0.974697 0.438974 -0.559240 0.333808 0.335396 0.089413 -0.242807 0.616790 -0.384603 0.263976 0.154474 0.033278 0.826655
37 -0.382484 -0.366362 -0.444528 1.050698 0.416470 -0.496445 0.311806 0.161768 0.206283 -0.204281 0.524980 -0.243463 0.242558 0.197000 0.104284 0.698946
76 -0.380899 -0.087433 0.154144 0.644954 -0.261918 0.057823 0.325859 0.292320 0.000204 -0.236996 0.458660 -0.004316 -0.444918 -0.291494 0.042786 0.540761
30 -0.360554 -0.263107 -0.377774 1.013424 0.393661 -0.445627 0.272329 0.208441 0.037277 -0.129003 0.395479 -0.195613 0.134651 0.125738 0.111060 0.677100
39 -0.391561 -0.409382 -0.394020 0.923271 0.465409 -0.520850 0.281083 0.335222 0.075278 -0.233825 0.587131 -0.344560 0.163742 0.163028 0.019755 0.779788
32 -0.261082 -0.071687 -0.412348 0.863716 0.136058 -0.119965 0.526744 -0.181964 0.196943 -0.321632 0.196461 0.184697 -0.092559 0.031240 0.140027 0.625522
75 -0.251263 0.063444 0.265885 -0.216190 -0.154014 0.216798 1.094177 0.443081 -0.904285 -0.619647 -0.203034 -0.168096 -0.912434 -0.216707 0.234662 1.023444
77 -0.348136 0.143458 0.254502 0.200811 0.075182 -0.187794 0.561097 0.305418 -0.593821 -0.224231 -0.083212 0.269993 -0.639181 -0.582597 0.151214 0.522086
74 -0.270285 0.056596 0.272926 -0.163945 -0.233345 0.259013 1.120869 0.494966 -0.861815 -0.632500 -0.193270 -0.063666 -0.980418 -0.270953 0.260034 1.024547
43 -0.366250 -0.136044 -0.052818 0.736614 -0.172276 -0.033132 0.428628 0.200040 0.021897 -0.183333 0.399023 0.003751 -0.266257 -0.186441 0.047209 0.459020
44 -0.291893 -0.060962 -0.148517 0.659133 0.075373 -0.165663 0.405306 0.026657 -0.146886 -0.146320 0.143686 0.086583 -0.086027 -0.215008 0.161133 0.501819
55 -0.385483 -0.023593 0.107334 0.518417 -0.027583 -0.238855 0.576180 0.374486 -0.409320 -0.048541 0.123908 0.056320 -0.175332 -0.436530 0.094549 0.476166
47 -0.319814 0.219778 0.243173 0.083750 0.023412 0.024826 0.656772 0.416560 -0.780393 -0.426186 -0.111303 0.140271 -0.838599 -0.374685 0.224215 0.650185
31 -0.244249 0.005589 -0.437456 0.876857 0.089469 -0.085950 0.620847 -0.228714 0.200419 -0.309844 0.129210 0.308831 -0.046468 0.019151 0.100965 0.625404
40 -0.392349 0.012197 0.194683 0.519171 -0.143502 -0.089502 0.507734 0.399909 -0.525826 -0.002671 0.170546 0.064364 -0.230771 -0.509983 0.102954 0.383646
9 -0.458276 0.365209 -0.093969 1.444278 0.224320 0.052694 -0.402580 -0.052313 -0.575627 0.201902 0.136665 0.060926 -0.248340 -0.160344 0.490484 0.229521
45 -0.382846 -0.117104 -0.068748 0.545717 0.042666 -0.296637 0.286846 0.129261 -0.314754 -0.114396 0.064214 -0.025694 -0.121406 -0.405670 0.157065 0.608509
73 -0.333005 -0.096305 -0.121284 0.561159 0.043948 -0.215867 0.472599 0.155374 -0.094659 -0.203980 0.177849 0.049236 -0.136969 -0.209269 0.086987 0.519239
68 -0.318199 0.052965 0.312688 0.098699 0.070395 -0.262357 0.565740 0.386621 -0.686915 -0.244564 -0.046943 0.100580 -0.683800 -0.622902 0.059078 0.569346
34 -0.369674 -0.086837 -0.070198 0.629499 0.134739 -0.253831 0.366018 0.211084 -0.129756 -0.182343 0.249626 -0.006420 -0.142024 -0.133248 0.072086 0.582373
51 -0.380411 -0.022558 0.018082 0.626064 -0.022346 -0.093097 0.420412 0.194906 -0.179863 -0.138333 0.236992 0.027011 -0.217646 -0.248194 0.104314 0.477869
13 -0.149874 -0.042128 -0.418470 0.626230 0.142805 -0.083467 0.664517 -0.176644 0.053216 -0.354789 0.023371 0.262260 -0.148848 -0.060507 0.107744 0.632306
53 -0.445382 -0.076171 0.187044 0.536621 -0.014048 -0.167139 0.508890 0.460988 -0.484808 0.006873 0.238157 -0.002183 -0.273723 -0.484274 0.146034 0.428675
46 -0.334594 -0.240223 -0.280915 0.592670 0.134590 -0.299784 0.327005 -0.027947 -0.103108 -0.167992 0.100936 -0.092037 0.039352 -0.192467 0.068258 0.667519
57 -0.408354 -0.038412 0.104177 0.523979 0.011632 -0.156312 0.451907 0.332313 -0.314387 -0.089275 0.205369 0.029468 -0.240454 -0.343984 0.125455 0.457833
5 -0.469537 0.347343 -0.133883 1.286484 0.281049 -0.032698 -0.360891 -0.000803 -0.615395 0.200482 0.067971 0.030805 -0.199135 -0.162114 0.515489 0.250883
8 -0.514243 0.322268 -0.096965 1.366838 0.145725 0.024368 -0.291739 -0.035993 -0.552619 0.172063 0.165769 0.041438 -0.188702 -0.206872 0.472683 0.282356
48 -0.365876 0.164160 0.246006 0.114620 -0.010429 -0.046374 0.632698 0.454353 -0.771114 -0.402086 -0.080982 0.105145 -0.745034 -0.407767 0.186600 0.691550
7 -0.476557 0.332955 -0.183255 1.401841 0.193948 0.064187 -0.406352 -0.110510 -0.543973 0.194626 0.172151 -0.000144 -0.145669 -0.136148 0.489786 0.263654
6 -0.492311 0.274575 -0.133242 1.297345 0.212153 -0.036172 -0.306133 0.008189 -0.537914 0.194746 0.168731 -0.020956 -0.144444 -0.150143 0.460451 0.269445
10 -0.489625 0.387656 -0.129304 1.426109 0.221986 -0.015143 -0.388086 -0.009223 -0.682164 0.262244 0.126730 0.015297 -0.179666 -0.177688 0.516364 0.242973
1 -0.531583 0.216040 -0.073008 1.315131 0.180227 -0.038329 -0.254939 0.065695 -0.511970 0.142654 0.260550 -0.095966 -0.186385 -0.146392 0.423125 0.334157
54 -0.367350 0.038566 0.131102 0.421766 0.020619 -0.166738 0.478249 0.349967 -0.565941 -0.127961 0.025817 0.045361 -0.348040 -0.413435 0.153327 0.461955
41 -0.437118 -0.012985 0.072674 0.652675 -0.022122 -0.100878 0.273567 0.336781 -0.230246 -0.111533 0.312589 -0.065764 -0.351836 -0.255159 0.112476 0.496160
33 -0.382137 -0.031264 -0.055094 0.739466 0.134395 -0.152422 0.201609 0.169276 -0.226783 -0.093690 0.236115 -0.049683 -0.177898 -0.182321 0.175736 0.495242
15 -0.296805 -0.019037 -0.212812 0.818767 0.113025 -0.101203 0.258835 0.007376 -0.092776 -0.139849 0.149494 0.055030 -0.126994 -0.103648 0.161810 0.425540
14 -0.370161 -0.041108 -0.127081 0.804522 0.104608 -0.164581 0.271556 0.129695 -0.192454 -0.093944 0.196352 0.014673 -0.115503 -0.145025 0.174754 0.514913
12 -0.332025 0.002054 -0.126309 0.586267 0.141793 -0.207126 0.277256 0.173984 -0.262234 -0.157666 0.131197 -0.013624 -0.192510 -0.144848 0.181897 0.533220
16 -0.304913 -0.019980 -0.179334 0.670363 0.085662 -0.127651 0.365596 0.067113 -0.118046 -0.189578 0.180452 0.061293 -0.141057 -0.142974 0.131676 0.514071
