77 16
11 0.333754 -0.021523 -0.402071 -0.126246 -0.432595 -0.035567 -0.115126 -0.078849 -0.007493 -0.402646 0.085106 -0.040747 0.435060 -0.095033 -0.701796 0.242093
56 0.063328 0.053968 -0.214127 -0.315420 -0.070169 -0.051177 -0.017789 -0.188538 0.401103 -0.353054 -0.181585 -0.229357 0.511564 -0.056115 -0.897833 0.165355
59 0.249973 0.220126 -0.053400 -0.463992 -0.070439 -0.249453 -0.048856 0.178438 0.707522 -0.230180 -0.073830 -0.285871 0.643033 0.133354 -0.688141 -0.057295
63 0.197263 0.207498 -0.007173 -0.434760 0.023706 -0.284517 0.033194 0.166141 0.751156 -0.196227 -0.120349 -0.332259 0.679017 0.093370 -0.757597 0.002662
27 0.219958 -0.186012 -0.356426 -0.069513 -0.158210 -0.024100 0.020166 -0.378551 0.140896 -0.348085 0.047364 -0.031301 0.483621 -0.196121 -0.835808 0.299097
65 0.173453 0.127304 -0.019111 -0.516755 0.022285 -0.262046 0.004186 -0.000474 0.799627 -0.232433 -0.132531 -0.324962 0.635460 0.114936 -0.773975 -0.126478
60 0.082506 0.415429 -0.058992 -0.525934 -0.062388 -0.214592 0.083375 0.147210 0.696240 -0.272614 -0.144129 -0.509695 0.683121 0.129209 -0.791380 -0.007403
26 0.626222 -0.301885 -0.259664 -0.157655 -0.232789 -0.156695 -0.244507 -0.418159 0.239832 -0.493840 0.228859 0.302705 0.336576 -0.182420 -0.473087 -0.004360
49 0.312060 0.037630 0.004620 -0.531056 0.090349 -0.291462 -0.211974 0.185093 0.821117 -0.136067 -0.182631 -0.229969 0.706711 0.244398 -0.927656 -0.149744
28 0.562002 0.045830 -0.173756 -0.110327 -0.494092 -0.316267 -0.101366 -0.075287 0.282434 -0.327150 0.342697 -0.065033 0.486476 -0.181317 -0.268397 0.209503
24 0.469180 0.169093 -0.234819 0.013363 -0.696670 -0.301043 0.073705 -0.308195 0.165911 -0.506454 0.451331 -0.189162 0.506553 -0.380984 -0.235171 0.459044
66 0.238051 0.214551 0.107038 -0.449166 0.012508 -0.362245 0.071379 0.128872 0.890939 -0.109130 -0.081969 -0.390634 0.714545 0.081641 -0.736760 -0.031033
64 0.221254 0.077633 0.135918 -0.573479 0.181309 -0.321115 -0.029483 -0.027602 0.928627 -0.212021 -0.226210 -0.317175 0.700192 0.156999 -0.845658 -0.214524
62 0.247114 0.067258 0.001270 -0.459519 0.066229 -0.223407 -0.080212 -0.007794 0.719202 -0.234530 -0.092294 -0.220205 0.636104 0.162225 -0.814422 -0.112984
25 0.655847 -0.422280 -0.295642 -0.013167 -0.284315 -0.150047 -0.281203 -0.424371 0.149043 -0.396650 0.292079 0.289613 0.429872 -0.222891 -0.535413 0.156641
50 0.136067 -0.089745 -0.315878 -0.064114 -0.103892 -0.016422 0.062897 -0.290735 0.163968 -0.267787 -0.058670 -0.151277 0.537907 -0.212138 -0.997129 0.433995
2 0.292449 0.186165 -0.558503 -0.852068 -0.367339 0.236497 -0.038782 -0.593777 -0.076910 -1.181458 -0.080149 0.083429 0.043156 -0.192272 -0.509921 -0.447289
21 0.569216 0.519121 -0.159019 0.001252 -1.024678 -0.543095 0.289448 -0.283628 0.322507 -0.624334 0.682366 -0.462359 0.656530 -0.497654 0.002049 0.705965
70 0.755849 -0.577550 -0.137760 -0.046718 -0.117925 -0.160691 -0.318541 -0.520517 0.354949 -0.328385 0.223863 0.465401 0.436696 -0.218131 -0.638260 0.013570
18 0.556594 0.484349 -0.156324 0.083340 -1.000515 -0.530683 0.304671 -0.301504 0.326041 -0.509884 0.672261 -0.435725 0.674856 -0.518584 0.007425 0.757715
20 0.678311 0.508581 -0.140982 0.064150 -1.062854 -0.673704 0.266869 -0.347120 0.410783 -0.572734 0.753652 -0.488536 0.775609 -0.560416 0.014263 0.783647
22 0.597339 0.471825 -0.193306 0.078329 -1.081234 -0.531632 0.291519 -0.383340 0.335536 -0.693366 0.758004 -0.439217 0.708964 -0.586570 0.039829 0.804971
69 0.786215 -0.536064 -0.114663 -0.016219 -0.136248 -0.233563 -0.288811 -0.452681 0.343054 -0.345750 0.249927 0.437094 0.443745 -0.222161 -0.529028 0.079936
23 0.595185 0.573416 -0.240742 0.025799 -1.167237 -0.571767 0.259522 -0.269025 0.226191 -0.682449 0.803949 -0.510989 0.701946 -0.567481 -0.007813 0.762580
19 0.613146 0.586791 -0.100750 0.023731 -1.122205 -0.584119 0.304247 -0.345731 0.395007 -0.678422 0.754443 -0.509500 0.706377 -0.510596 0.110967 0.738248
17 0.595795 0.550736 -0.151523 0.092390 -1.033462 -0.615248 0.299899 -0.290082 0.336004 -0.601750 0.733043 -0.498804 0.745506 -0.531011 0.012314 0.773237
52 0.073790 -0.061334 -0.410624 -0.189872 -0.121787 0.039820 0.035953 -0.271936 0.107771 -0.305588 -0.133774 -0.180419 0.477767 -0.167195 -1.028434 0.344929
4 0.273601 0.043922 -0.566760 -0.715587 -0.436931 0.242487 0.044816 -0.779685 -0.121313 -1.196384 -0.032066 0.077474 0.010255 -0.246608 -0.506196 -0.327904
71 0.754124 -0.501328 -0.135373 -0.093147 -0.114758 -0.170915 -0.303352 -0.430463 0.395187 -0.400080 0.193839 0.423521 0.416907 -0.167819 -0.521873 0.012192
61 0.178188 0.238394 0.005524 -0.554739 0.071489 -0.287588 -0.059960 0.151215 0.833776 -0.184180 -0.190954 -0.333789 0.650975 0.169725 -0.796565 -0.111656
3 0.207928 0.181269 -0.619802 -0.667220 -0.472397 0.219664 0.077481 -0.638624 -0.142565 -1.187822 0.007855 -0.026281 0.114510 -0.283259 -0.492997 -0.208845
42 0.716436 -0.534429 -0.056717 0.127883 -0.105465 -0.328563 -0.241061 -0.432249 0.478119 -0.152508 0.200300 0.292308 0.605980 -0.199808 -0.693142 0.181899
58 0.164616 0.230748 -0.013819 -0.604231 0.062612 -0.228897 -0.133481 0.159828 0.857252 -0.212292 -0.276718 -0.374996 0.712325 0.224280 -0.932716 -0.222228
67 0.227787 0.310728 0.126258 -0.472829 -0.127588 -0.357814 0.019176 0.051699 0.819261 -0.271366 -0.005127 -0.380231 0.611413 0.093269 -0.496683 -0.129218
35 0.770131 0.037776 -0.788151 -0.241115 -0.586432 0.158641 -0.526496 0.463880 -0.466759 -0.413398 0.198198 0.092861 0.513435 -0.006491 -0.886707 0.346315
36 0.725981 0.095529 -0.882870 -0.289226 -0.604062 0.208226 -0.509603 0.434580 -0.471214 -0.473605 0.159657 0.093793 0.510896 0.032296 -0.984767 0.343562
76 0.806898 -0.557170 0.061667 0.027148 -0.039947 -0.385079 -0.316409 -0.469529 0.631395 -0.226304 0.235309 0.400757 0.550673 -0.171118 -0.533499 0.070822
29 0.501024 -0.133792 -0.401738 -0.293215 -0.481712 0.007991 -0.488898 0.000629 -0.092440 -0.420065 0.046057 0.041570 0.382600 0.027042 -0.726223 -0.036086
72 0.681591 -0.483695 -0.031367 -0.051274 -0.076094 -0.277423 -0.259659 -0.521968 0.563856 -0.300721 0.203416 0.306815 0.479391 -0.160741 -0.552102 0.014419
37 0.743610 0.021401 -0.858432 -0.268104 -0.550419 0.179622 -0.531322 0.430900 -0.453465 -0.440769 0.147803 0.096721 0.442591 0.040822 -0.936245 0.277145
30 0.771724 0.068575 -0.705742 -0.180792 -0.564825 0.057863 -0.483997 0.491838 -0.379529 -0.320009 0.233682 0.034767 0.504756 0.007992 -0.782639 0.331646
39 0.739629 0.097592 -0.843236 -0.337761 -0.539605 0.180142 -0.524261 0.421745 -0.479905 -0.543174 0.114859 0.075430 0.434718 0.025575 -0.885313 0.198757
38 0.812264 0.035134 -0.815532 -0.329158 -0.538124 0.220135 -0.574656 0.417895 -0.487457 -0.508145 0.115213 0.194805 0.422715 0.004245 -0.921495 0.227843
77 0.224456 0.131036 0.050119 -0.593266 0.120102 -0.312280 -0.050600 -0.039295 0.924830 -0.235074 -0.204905 -0.299429 0.695430 0.171989 -0.829291 -0.179424
32 0.447016 0.101210 -0.392750 -0.087467 -0.585788 -0.168050 -0.111006 -0.195022 0.037750 -0.524517 0.374860 -0.096897 0.423431 -0.262605 -0.345472 0.346133
55 0.001482 -0.171525 -0.321618 -0.164100 -0.021895 0.055353 0.011250 -0.309976 0.219640 -0.273456 -0.158284 -0.120716 0.573734 -0.151059 -1.104482 0.351904
44 0.505414 -0.294254 -0.289540 -0.074551 -0.226756 -0.080974 -0.208758 -0.253024 0.166114 -0.321326 0.104164 0.121279 0.478296 -0.147604 -0.691120 0.201750
43 0.643465 -0.488085 -0.020307 0.045387 -0.139998 -0.257525 -0.191807 -0.610667 0.524295 -0.264938 0.149560 0.307877 0.553334 -0.235305 -0.583698 0.130357
74 0.480465 -0.013810 0.118573 -0.776540 0.260656 -0.446131 -0.434981 0.053632 1.079716 -0.198342 -0.183324 -0.172658 0.849494 0.367409 -1.088272 -0.366200
73 0.443519 -0.244147 -0.344575 -0.061395 -0.290103 -0.071081 -0.174916 -0.267138 0.136021 -0.382418 0.087879 0.068319 0.457936 -0.133175 -0.673380 0.235491
45 0.505443 -0.200456 -0.356453 -0.298807 -0.399204 -0.060781 -0.521051 -0.034002 0.021083 -0.388593 0.063461 0.075408 0.455439 0.034825 -0.692630 -0.077078
75 0.424496 0.098070 0.106430 -0.893578 0.267642 -0.473936 -0.375041 0.143461 1.147088 -0.233626 -0.235739 -0.308296 0.944377 0.356015 -1.157182 -0.393088
47 0.410160 0.281275 0.318646 -0.659813 -0.071002 -0.542906 -0.047559 0.081543 1.255302 -0.130787 -0.034174 -0.494301 0.908975 0.262880 -0.738491 -0.189278
13 0.511379 0.158229 -0.215565 -0.000237 -0.629105 -0.327343 -0.015899 -0.148705 0.168688 -0.406579 0.439146 -0.157297 0.522858 -0.306360 -0.267930 0.477157
40 0.468961 -0.283599 -0.188502 -0.181854 -0.104756 -0.198081 -0.242173 -0.323918 0.373931 -0.283684 0.072186 0.172629 0.530078 -0.060067 -0.741872 0.186398
34 0.430680 -0.042657 -0.397947 -0.195708 -0.404641 -0.055435 -0.145002 -0.130724 0.029930 -0.450641 0.124868 0.016002 0.365976 -0.127594 -0.528319 0.130024
68 0.285741 -0.070414 -0.124504 -0.500593 0.107198 -0.113620 -0.247571 0.015397 0.690830 -0.231153 -0.263123 -0.144296 0.666257 0.234303 -1.043536 -0.232044
57 0.191922 -0.102644 -0.186731 -0.136840 -0.133454 -0.121427 -0.017335 -0.199497 0.312963 -0.245782 -0.049963 -0.105328 0.555490 -0.094489 -0.807609 0.251478
31 0.560089 0.132667 -0.317024 0.079255 -0.758000 -0.241283 0.012496 -0.232969 0.069910 -0.516551 0.490727 -0.120116 0.496140 -0.362000 -0.276865 0.470770
9 0.248778 0.115700 -0.543607 -0.621497 -0.368370 0.165755 -0.029612 -0.438183 -0.024431 -1.006981 -0.015483 -0.015680 0.143623 -0.130265 -0.532652 -0.255573
53 0.380777 -0.079545 -0.088554 -0.133566 -0.238674 -0.278272 -0.087316 -0.200654 0.431501 -0.260937 0.144368 -0.076873 0.606424 -0.082918 -0.646794 0.228137
51 0.387692 -0.093563 -0.225092 -0.141255 -0.266090 -0.142318 -0.070427 -0.255297 0.274257 -0.368479 0.139732 -0.020501 0.408450 -0.163424 -0.529068 0.170782
46 0.441697 -0.018551 -0.339509 -0.355552 -0.332049 -0.071807 -0.316081 -0.055180 0.099461 -0.439058 0.063559 -0.025133 0.464289 0.009727 -0.651632 0.013469
16 0.417509 0.041167 -0.367025 -0.180135 -0.355665 -0.087142 -0.157874 -0.084021 0.060552 -0.406605 0.166576 -0.026121 0.426511 -0.122842 -0.541096 0.144516
48 0.398326 0.309696 0.223430 -0.646719 -0.106759 -0.544116 -0.061286 0.119669 1.112285 -0.197407 0.007737 -0.492182 0.848960 0.196580 -0.747208 -0.159411
33 0.299435 -0.017242 -0.263169 -0.310886 -0.223964 -0.058971 -0.124681 -0.224536 0.213647 -0.490172 0.016829 -0.050682 0.387259 -0.087240 -0.593561 -0.049601
15 0.396556 0.047024 -0.267637 -0.206336 -0.390385 -0.167061 -0.129742 -0.126434 0.188965 -0.370530 0.135310 -0.089412 0.432850 -0.108492 -0.481525 0.167066
41 0.472548 -0.140549 -0.147752 -0.169708 -0.265284 -0.187266 -0.130187 -0.281430 0.345924 -0.353846 0.142270 0.048561 0.470357 -0.117889 -0.603530 0.125753
14 0.434100 0.033935 -0.337391 -0.271632 -0.367236 -0.078236 -0.101889 -0.180501 0.103837 -0.482301 0.117705 0.004482 0.328431 -0.104853 -0.449711 0.112567
6 0.276247 0.106479 -0.427357 -0.585718 -0.322192 0.055888 -0.088454 -0.385747 0.104491 -0.835703 -0.036248 -0.021988 0.236160 -0.140463 -0.568252 -0.178897
7 0.343250 0.032364 -0.346294 -0.376850 -0.286135 -0.024353 -0.123878 -0.219144 0.175866 -0.609370 0.019591 -0.072062 0.324113 -0.100526 -0.561001 -0.037426
1 0.329018 0.104968 -0.603153 -0.657340 -0.436683 0.230492 -0.127339 -0.460060 -0.103164 -0.987087 -0.003863 0.086871 0.127569 -0.147873 -0.556889 -0.256787
5 0.347854 -0.011725 -0.360168 -0.459650 -0.270326 0.043459 -0.107155 -0.384612 0.136788 -0.726529 0.017759 0.082974 0.251254 -0.129421 -0.594672 -0.149255
54 0.300037 -0.029512 -0.165573 -0.281341 -0.135148 -0.164802 -0.110698 -0.092817 0.383261 -0.312018 0.022425 -0.112859 0.482741 -0.045347 -0.729895 0.097769
10 0.347710 0.194413 -0.452209 -0.484655 -0.428992 0.022518 -0.064629 -0.347541 0.009126 -0.801385 0.119600 -0.043268 0.207749 -0.142477 -0.404762 -0.075648
8 0.272622 0.122396 -0.446030 -0.510866 -0.324424 0.063500 -0.043466 -0.351985 0.036649 -0.762810 0.017015 -0.033774 0.230545 -0.143323 -0.522794 -0.099935
12 0.343959 0.083384 -0.298784 -0.299348 -0.327567 -0.068323 -0.119702 -0.115358 0.104787 -0.478789 0.084514 -0.107871 0.403505 -0.100273 -0.520629 0.120201
