77 128
11 -0.048823 -0.110565 0.172137 0.029173 0.188596 0.094057 0.021235 0.202689 -0.154752 0.104734 -0.106123 -0.090562 -0.146844 -0.004221 0.016264 0.108403 0.150663 0.006975 0.099393 -0.101436 -0.012781 -0.047025 0.086355 0.135581 -0.080124 -0.058630 -0.064950 -0.076306 0.023679 -0.119738 -0.034268 0.090438 0.113276 -0.044074 -0.041911 -0.047532 0.107164 0.132987 0.165019 0.088683 -0.010437 0.025531 0.074925 0.028768 -0.144064 -0.043663 0.045768 -0.088926 0.069330 0.100666 0.013435 -0.000190 0.028602 0.066070 0.182113 0.035828 -0.016641 0.006980 -0.103635 -0.036904 -0.006505 0.122164 -0.126066 -0.103144 0.006281 0.101579 -0.100174 -0.111547 0.170578 -0.065624 0.015463 -0.271104 -0.129456 -0.064127 0.057661 0.186000 0.107337 0.155143 0.101744 -0.020487 -0.072157 0.236078 0.083262 -0.109002 0.086304 0.237472 0.032844 -0.209832 -0.047058 -0.103793 0.189036 0.152660 0.042990 -0.178299 0.104649 0.247715 -0.111253 -0.046416 0.016805 -0.151469 -0.024162 0.024878 -0.028532 0.226166 0.141941 -0.067774 -0.132967 0.028116 -0.017794 0.039650 0.096864 0.142842 -0.049288 -0.081791 0.013692 -0.063946 0.036847 -0.060759 -0.014756 -0.217681 -0.014510 0.037708 0.128881 -0.077619 0.022924 0.173163 0.063880 -0.085506
56 -0.020276 -0.063806 0.038873 0.162554 0.262432 0.054397 -0.019209 0.106787 -0.052820 0.115188 -0.016632 -0.031779 -0.101008 0.032634 -0.015822 0.126632 0.146351 -0.059640 0.113547 -0.218490 -0.033855 0.023647 0.097842 -0.052657 -0.039164 -0.082246 -0.003851 0.049336 0.054915 -0.007979 -0.103014 -0.040090 0.186265 -0.124162 0.014704 0.006699 0.217347 0.048262 0.183168 -0.006673 -0.060990 0.137348 0.015004 0.085956 -0.254432 -0.040436 0.020867 0.006527 0.134935 -0.004416 0.148791 -0.037253 0.009211 0.148097 0.240805 -0.011080 -0.043350 -0.141511 -0.129599 -0.170176 0.037510 0.124486 -0.046661 -0.058193 0.003404 0.043944 -0.124675 -0.084892 -0.021907 -0.080017 -0.113897 -0.153454 -0.178987 0.052338 0.024309 -0.056937 0.134001 0.001575 0.006704 -0.052283 -0.125396 0.102672 0.110857 -0.024501 0.075812 0.210820 -0.023447 -0.109396 -0.037910 -0.003134 0.170030 0.148668 -0.049855 -0.158115 -0.039591 0.168348 -0.127476 0.041166 -0.086321 -0.124027 -0.049470 0.062112 0.025038 0.274627 0.145872 -0.012207 -0.182626 0.029484 -0.068503 -0.020208 0.103689 0.167047 0.079173 -0.315375 -0.060275 -0.107343 -0.222520 0.073094 -0.035520 -0.141904 0.015306 0.173599 0.074027 -0.189367 -0.113686 0.300456 -0.006254 0.021997
59 0.053814 0.017276 -0.086617 0.138787 0.189175 -0.004708 0.112183 0.093331 -0.101393 0.154749 0.133169 0.140742 -0.060299 0.085947 -0.122634 0.121957 0.115482 -0.016711 0.072934 -0.321458 -0.107994 0.235798 0.096155 -0.194143 -0.016416 -0.215653 0.051538 0.074009 0.063566 0.058188 -0.091367 -0.107629 0.117324 -0.183463 0.079941 0.011105 0.157802 0.161192 0.191599 -0.065518 -0.133038 0.085574 -0.074019 0.089194 -0.385871 0.017270 0.165431 -0.033050 0.180399 -0.106326 0.379328 0.068859 -0.003365 0.145118 0.369645 -0.058461 0.037334 -0.282758 -0.018255 -0.235962 0.005112 -0.009861 -0.055760 -0.127629 0.051109 0.130196 -0.196439 -0.160009 0.119627 -0.041962 -0.319967 -0.123141 -0.199576 0.007205 0.016577 -0.113300 0.202647 0.029626 -0.007708 -0.042991 -0.150872 0.015621 0.142084 0.018959 0.273957 0.205383 -0.059421 -0.176620 -0.059818 -0.089690 0.134159 0.127595 -0.107348 -0.018103 0.056593 0.112573 -0.166801 0.128415 -0.024829 -0.049287 -0.128623 0.112575 -0.062954 0.180648 -0.005442 0.095136 -0.128341 -0.126524 -0.128778 0.064588 0.048597 0.139107 0.215326 -0.390488 0.041072 -0.202496 -0.329773 0.206302 -0.021602 0.087464 -0.062171 0.190538 -0.054060 -0.133173 -0.272070 0.158394 -0.018264 0.051794
63 0.027139 -0.019260 -0.020731 0.147433 0.241979 0.013442 0.096353 0.080058 -0.037112 0.141333 0.063599 0.089764 -0.058326 0.036422 -0.091151 0.138390 0.136278 0.012866 0.072529 -0.264270 -0.063445 0.208598 0.118967 -0.183504 -0.037659 -0.182135 0.012707 0.045329 0.105549 0.086008 -0.106119 -0.133321 0.105085 -0.174130 0.044672 0.027664 0.172368 0.182322 0.171431 -0.021236 -0.090501 0.131109 -0.066891 0.062136 -0.324287 0.024174 0.126588 -0.037751 0.196884 -0.112024 0.303595 0.062403 0.021792 0.180005 0.337759 -0.015731 0.045520 -0.243647 -0.003325 -0.210747 0.029156 0.036881 0.001431 -0.061691 0.039018 0.092338 -0.222572 -0.117591 0.071905 -0.089494 -0.252268 -0.151353 -0.209345 0.029102 0.074915 -0.062502 0.187519 -0.004384 0.009513 -0.054318 -0.102498 0.038141 0.143159 -0.017245 0.215870 0.239558 -0.056777 -0.168416 -0.108574 -0.022793 0.096748 0.111729 -0.015859 -0.005420 0.087239 0.121730 -0.164330 0.098038 -0.061738 -0.021967 -0.086333 0.063015 -0.050097 0.168855 -0.003543 0.025071 -0.186973 -0.104895 -0.131623 0.068717 0.046800 0.129693 0.183045 -0.362941 0.001938 -0.176767 -0.331155 0.166567 -0.049152 -0.000756 -0.044242 0.221439 0.005697 -0.207688 -0.224598 0.179519 0.039349 0.041102
27 -0.064165 -0.080731 0.075253 0.132206 0.230465 0.040723 -0.038951 0.163615 -0.088494 0.094360 -0.034556 -0.086051 -0.129084 0.023365 0.047068 0.128287 0.195653 -0.043822 0.122922 -0.160711 -0.015014 -0.055325 0.076544 0.057576 -0.040673 -0.029064 -0.019318 0.002585 0.020377 -0.102870 -0.071782 0.044454 0.134114 -0.098026 -0.015214 -0.017816 0.212780 0.055320 0.194051 0.046125 -0.041479 0.072266 0.085149 0.072542 -0.178184 -0.025985 -0.019666 -0.010141 0.064356 0.055176 0.044893 -0.053046 0.021108 0.124781 0.190967 0.014027 -0.051764 -0.042935 -0.119511 -0.091390 -0.001697 0.157467 -0.131492 -0.060285 0.023743 0.071004 -0.083147 -0.096990 0.021527 -0.068102 -0.027761 -0.185087 -0.121003 0.015428 0.038961 0.094162 0.127486 0.061119 0.072111 -0.037500 -0.162240 0.164431 0.078881 -0.111615 0.050858 0.237922 0.004255 -0.153244 -0.020070 -0.055527 0.188380 0.163020 -0.023034 -0.226975 0.026466 0.215045 -0.107188 -0.014810 -0.016916 -0.190535 0.008983 0.028677 0.015875 0.239587 0.183583 -0.049079 -0.153944 0.089766 -0.005146 -0.032370 0.095602 0.161499 0.027274 -0.205045 -0.050527 -0.054665 -0.069146 -0.039411 -0.053114 -0.191590 -0.000242 0.100983 0.061693 -0.127751 -0.061154 0.256760 0.020466 -0.049191
60 0.024419 -0.017959 -0.026674 0.176714 0.255709 0.007068 0.083504 0.068018 -0.012531 0.141625 0.065932 0.091009 -0.065145 0.038971 -0.071786 0.155695 0.160747 -0.006974 0.077428 -0.265470 -0.056614 0.195268 0.126188 -0.192294 -0.018728 -0.171938 0.024114 0.063435 0.114509 0.069257 -0.111126 -0.131113 0.091070 -0.194998 0.057110 0.042295 0.191975 0.170251 0.184129 -0.017407 -0.086415 0.147579 -0.062722 0.074570 -0.320770 0.027431 0.101796 -0.009224 0.190499 -0.121520 0.312298 0.048914 0.021118 0.205597 0.338902 -0.023691 0.043033 -0.236881 0.005796 -0.209206 0.030003 0.065934 -0.018907 -0.048942 0.054970 0.080477 -0.220833 -0.116266 0.028118 -0.088368 -0.248560 -0.142874 -0.209688 0.063183 0.086599 -0.046144 0.190253 -0.027048 0.006319 -0.053596 -0.125953 0.027723 0.138805 -0.028782 0.200261 0.258003 -0.056260 -0.161015 -0.113245 -0.020750 0.097641 0.111029 -0.018395 -0.022091 0.076160 0.121818 -0.164797 0.086127 -0.069936 -0.038869 -0.065372 0.064721 -0.039659 0.163459 0.013067 0.015593 -0.185289 -0.081203 -0.112668 0.048157 0.040877 0.123193 0.204480 -0.387762 -0.019472 -0.167301 -0.324682 0.149106 -0.063865 -0.001865 -0.018281 0.241524 0.002335 -0.223181 -0.217961 0.207057 0.034152 0.050876
26 -0.086535 -0.100183 0.127786 0.063540 0.169374 -0.035143 0.075326 0.205085 -0.101811 0.061040 -0.007745 -0.040438 -0.113927 -0.034559 0.079887 0.097427 0.262578 0.045959 0.061806 -0.077971 0.004678 0.030933 0.107281 0.070391 -0.041311 -0.052787 -0.061924 -0.079040 0.030660 -0.095295 -0.024955 0.038633 -0.053913 -0.121503 -0.050566 -0.019863 0.154617 0.222164 0.190067 0.120619 -0.041631 -0.008173 0.087044 0.032366 -0.136150 0.080779 0.035346 -0.128552 0.031228 0.009415 0.055189 0.032805 0.069254 0.092787 0.203661 0.082849 0.034613 0.018024 0.069547 -0.006555 -0.067179 0.082846 -0.158933 -0.046069 0.083417 0.146723 -0.175963 -0.154818 0.178180 -0.109619 -0.072993 -0.237470 -0.019497 -0.036973 0.130931 0.357262 0.166562 0.148328 0.174027 -0.024269 -0.186102 0.166984 0.086324 -0.238785 0.179540 0.334754 -0.031601 -0.269690 -0.074728 -0.130750 0.082109 0.059008 0.112038 -0.140640 0.266967 0.218221 -0.104197 -0.060522 0.098892 -0.127022 0.071172 -0.039473 -0.089169 0.045363 0.046724 -0.100729 -0.115206 0.045732 0.026713 0.052853 0.006067 0.093922 0.040988 -0.061655 0.048993 -0.054047 0.040104 -0.125397 -0.065913 -0.104945 -0.067278 0.033527 -0.026885 -0.067666 -0.070320 0.013264 0.110644 -0.095504
65 0.043084 0.007515 -0.087521 0.143115 0.192321 -0.023442 0.100863 0.080767 -0.070182 0.168841 0.158711 0.135357 -0.056063 0.081136 -0.109823 0.114407 0.138323 -0.011552 0.068491 -0.289173 -0.082019 0.210525 0.102277 -0.192286 -0.031676 -0.192697 0.035727 0.081134 0.074050 0.061444 -0.106993 -0.115115 0.094556 -0.178977 0.075781 0.023652 0.161099 0.181966 0.195085 -0.063972 -0.121837 0.114805 -0.052548 0.073755 -0.378383 0.037069 0.155280 -0.010168 0.145334 -0.089740 0.368038 0.078466 -0.006193 0.169132 0.356537 -0.071148 0.060418 -0.271058 0.003483 -0.225763 -0.010451 0.003989 -0.048242 -0.118212 0.063661 0.127819 -0.206228 -0.148504 0.093470 -0.033244 -0.307256 -0.111672 -0.182414 0.033575 0.050607 -0.071390 0.189042 0.016584 0.005738 -0.050075 -0.145903 0.003142 0.139304 -0.007556 0.258165 0.190970 -0.065295 -0.189090 -0.062486 -0.059206 0.116400 0.115471 -0.070988 -0.032193 0.068401 0.106228 -0.169704 0.125128 -0.044191 -0.065775 -0.105491 0.096632 -0.066737 0.147664 -0.026098 0.075114 -0.124848 -0.108844 -0.093835 0.048152 0.050728 0.123340 0.204920 -0.377213 -0.005832 -0.181374 -0.333286 0.209571 -0.054080 0.106806 -0.070465 0.210696 -0.062298 -0.118103 -0.278128 0.109946 0.021889 0.035982
49 0.028889 -0.006464 -0.037676 0.125935 0.180697 -0.016307 0.111209 0.118405 -0.070746 0.093007 0.055205 0.091947 -0.047777 0.026842 -0.041723 0.143852 0.137220 0.024874 0.065538 -0.258951 -0.093391 0.226838 0.100160 -0.143263 -0.006702 -0.181033 0.024461 0.009925 0.070772 0.038439 -0.061556 -0.101796 0.041368 -0.188260 0.034804 0.031301 0.168182 0.146500 0.159058 0.008479 -0.117694 0.039656 -0.069316 0.093895 -0.297939 0.020995 0.107252 -0.104295 0.213205 -0.144178 0.277599 0.050192 0.054574 0.104634 0.330790 0.032307 0.007048 -0.198403 0.023082 -0.180103 0.017550 0.015922 -0.068984 -0.068624 0.055318 0.109681 -0.209922 -0.146568 0.149658 -0.103891 -0.263341 -0.170468 -0.158306 -0.009072 0.042074 0.005514 0.215707 0.049202 0.024239 -0.027305 -0.156544 0.062982 0.122994 -0.052829 0.246686 0.313381 -0.048585 -0.184686 -0.104252 -0.114300 0.093644 0.092292 -0.038364 -0.011410 0.151902 0.140663 -0.145967 0.063814 0.015850 -0.022544 -0.068940 0.052373 -0.069575 0.151954 0.013362 0.013468 -0.166969 -0.094361 -0.149120 0.092827 0.017236 0.115835 0.193884 -0.305694 0.108334 -0.180243 -0.252363 0.090548 -0.014837 -0.027792 -0.058839 0.149824 -0.045346 -0.184255 -0.210511 0.179038 0.005039 0.028770
28 -0.053539 -0.094924 0.116485 0.011202 0.132727 0.031217 0.043731 0.197969 -0.176298 0.123034 0.004481 -0.040197 -0.143095 0.028510 -0.002197 0.053669 0.162870 0.000466 0.077604 -0.103611 -0.000500 -0.040857 0.080759 0.103687 -0.076844 -0.057235 -0.054121 -0.041002 -0.014951 -0.123803 -0.045868 0.093534 0.084951 -0.046634 -0.028228 -0.062875 0.089375 0.161686 0.186107 0.046790 -0.026604 -0.000370 0.104488 0.014927 -0.177045 0.021246 0.084971 -0.069233 -0.016602 0.134467 0.061259 0.026089 0.002204 0.052865 0.189252 -0.013313 0.023846 -0.007426 -0.055434 -0.034142 -0.062835 0.063460 -0.148754 -0.144840 0.037905 0.157267 -0.102952 -0.154352 0.201365 -0.019057 -0.056435 -0.221060 -0.071978 -0.068392 0.063957 0.213186 0.104330 0.178815 0.126102 -0.026510 -0.109934 0.186360 0.082266 -0.124453 0.136103 0.184654 0.008853 -0.240784 -0.008837 -0.112145 0.163809 0.122369 0.020913 -0.176472 0.119749 0.221305 -0.102054 -0.003041 0.047147 -0.173201 -0.019341 0.040992 -0.054919 0.145023 0.077788 -0.021418 -0.070967 0.030240 0.042173 0.030248 0.078440 0.131967 -0.020548 -0.076373 -0.006027 -0.063877 0.013665 -0.005223 -0.040925 -0.080308 -0.069655 0.033339 0.037633 0.011290 -0.067755 0.035744 0.067006 -0.109173
24 -0.089001 -0.148057 0.089735 0.026160 0.177210 0.028864 -0.015552 0.193198 -0.243096 0.271735 0.167290 -0.054801 -0.223828 0.113905 -0.063405 -0.036845 0.203562 -0.109030 0.107036 -0.127824 0.088083 -0.228396 0.095868 0.146727 -0.159575 -0.020826 -0.091584 0.056499 -0.041635 -0.176019 -0.149603 0.153302 0.239805 0.011933 -0.019599 -0.111496 0.107150 0.202546 0.297348 -0.025923 -0.000821 0.136653 0.238995 -0.034872 -0.323235 0.068725 0.127401 0.098901 -0.241082 0.372303 0.088878 0.067163 -0.097965 0.160117 0.209465 -0.210904 0.094153 -0.029838 -0.165538 -0.046723 -0.156004 0.103935 -0.180123 -0.299513 0.058796 0.202604 -0.076350 -0.186422 0.141692 0.123921 -0.049038 -0.162294 -0.074298 -0.003313 0.106470 0.233390 0.019265 0.197018 0.146636 -0.081577 -0.102271 0.157403 0.088629 -0.125389 0.101205 -0.042824 -0.005994 -0.291474 0.113998 -0.043959 0.272994 0.180642 -0.010557 -0.348400 -0.052160 0.233041 -0.144243 0.084492 -0.060032 -0.376346 -0.039913 0.114557 -0.010133 0.193959 0.058700 0.044674 0.001474 0.105508 0.235598 -0.105301 0.192036 0.199041 -0.118650 -0.110361 -0.267614 -0.036497 -0.011928 0.135508 -0.112598 0.110966 -0.102824 0.099273 0.037688 0.205441 -0.153164 -0.104358 0.135177 -0.164040
66 0.045344 0.006893 -0.076962 0.162335 0.233294 -0.005739 0.109868 0.080106 -0.062612 0.167588 0.124518 0.142916 -0.064093 0.076211 -0.129703 0.146472 0.139198 -0.000276 0.075882 -0.326378 -0.099582 0.258393 0.117905 -0.234270 -0.024496 -0.220562 0.050136 0.084412 0.097192 0.080392 -0.110228 -0.141207 0.108942 -0.208330 0.082957 0.029400 0.188673 0.195434 0.197068 -0.063150 -0.127907 0.118439 -0.080667 0.089393 -0.389191 0.024175 0.162753 -0.023286 0.214748 -0.138864 0.403138 0.072363 0.009393 0.186214 0.396309 -0.050193 0.051034 -0.307648 -0.001669 -0.257235 0.017069 0.011398 -0.028729 -0.092561 0.057428 0.121421 -0.234677 -0.151950 0.089696 -0.065214 -0.327506 -0.131359 -0.224447 0.030060 0.044915 -0.117266 0.215174 -0.005015 -0.006725 -0.048140 -0.140804 0.008449 0.153983 0.010215 0.276781 0.244490 -0.071278 -0.182439 -0.095187 -0.050480 0.112764 0.124379 -0.073674 0.001799 0.070088 0.118013 -0.183738 0.124243 -0.047732 -0.028687 -0.115890 0.101293 -0.063883 0.178505 -0.011424 0.070892 -0.167077 -0.136493 -0.146824 0.068536 0.038769 0.135678 0.242218 -0.429776 0.020795 -0.211356 -0.380911 0.218979 -0.043803 0.071959 -0.051650 0.233978 -0.038241 -0.191384 -0.281371 0.186770 0.007718 0.057959
25 -0.085264 -0.123191 0.119134 0.072596 0.188451 -0.043509 0.052336 0.170515 -0.077209 0.096727 0.038288 -0.043971 -0.116587 -0.020991 0.065925 0.063897 0.260125 0.014308 0.064675 -0.077770 0.039401 -0.008800 0.119741 0.048498 -0.067063 -0.023260 -0.062864 -0.034627 0.030362 -0.082708 -0.062805 0.024274 -0.001852 -0.106704 -0.046892 -0.017328 0.170338 0.210789 0.208318 0.082284 -0.020790 0.056952 0.115259 0.017213 -0.157467 0.093093 0.023622 -0.057984 -0.025489 0.055818 0.053285 0.025887 0.033010 0.115889 0.190284 0.042016 0.044702 -0.002959 0.042470 -0.014550 -0.079751 0.097312 -0.132782 -0.067771 0.084718 0.137151 -0.164930 -0.128474 0.116786 -0.071470 -0.066278 -0.199950 -0.029800 0.006766 0.143303 0.322689 0.138134 0.115277 0.157030 -0.054087 -0.156614 0.137308 0.085177 -0.217190 0.131844 0.258557 -0.035578 -0.244032 -0.052666 -0.062620 0.084659 0.059748 0.102759 -0.165879 0.204984 0.196950 -0.090499 -0.016739 0.032883 -0.151966 0.063426 -0.036759 -0.065330 0.049896 0.037144 -0.088126 -0.118856 0.075177 0.067396 0.005197 0.034892 0.099383 0.028021 -0.084871 -0.040108 -0.037180 -0.023136 -0.068988 -0.101217 -0.084089 -0.069223 0.079542 -0.002003 -0.043393 -0.087659 -0.005564 0.117474 -0.095729
64 0.026250 -0.014772 -0.057093 0.165174 0.248644 -0.017685 0.090503 0.064648 -0.025169 0.163369 0.128752 0.112457 -0.062049 0.056959 -0.093168 0.136256 0.166464 -0.004631 0.073156 -0.279568 -0.058876 0.217092 0.130209 -0.217386 -0.028902 -0.184951 0.025864 0.079380 0.109464 0.086224 -0.122264 -0.139860 0.080049 -0.199126 0.062026 0.044559 0.190314 0.207058 0.198549 -0.039775 -0.106940 0.153372 -0.056893 0.065066 -0.355042 0.046102 0.128665 -0.004306 0.163691 -0.121882 0.351427 0.074082 0.009003 0.210600 0.358007 -0.046666 0.068571 -0.266792 0.025049 -0.217878 0.005236 0.041944 -0.013523 -0.065405 0.061894 0.102432 -0.226525 -0.123877 0.039526 -0.064381 -0.284045 -0.123583 -0.195799 0.061484 0.093461 -0.050298 0.196033 -0.027316 0.005370 -0.055431 -0.134141 -0.005305 0.147889 -0.031314 0.237514 0.226364 -0.077615 -0.182872 -0.093494 -0.019890 0.086048 0.096187 -0.031232 -0.015084 0.080396 0.104875 -0.163874 0.112297 -0.069949 -0.039974 -0.070422 0.065711 -0.053729 0.126223 -0.026605 0.040463 -0.164933 -0.096479 -0.098588 0.037104 0.035263 0.118870 0.218172 -0.387232 -0.032672 -0.169066 -0.356222 0.183387 -0.070715 0.076723 -0.051518 0.243153 -0.038419 -0.173222 -0.257648 0.134488 0.046807 0.048224
62 0.067347 0.019225 -0.086945 0.152564 0.208794 -0.005483 0.141827 0.076878 -0.056689 0.140993 0.100090 0.159467 -0.040967 0.064408 -0.118511 0.158817 0.122599 0.020562 0.066141 -0.329709 -0.118618 0.306141 0.109569 -0.236644 -0.001236 -0.239950 0.057913 0.059348 0.098712 0.098587 -0.088120 -0.149254 0.084713 -0.215417 0.083885 0.042587 0.169583 0.178144 0.178155 -0.048559 -0.133976 0.090747 -0.110875 0.100400 -0.374870 0.012323 0.164885 -0.059655 0.252253 -0.173443 0.398799 0.075463 0.022155 0.155349 0.396393 -0.023635 0.033822 -0.309226 0.021299 -0.256780 0.030736 -0.005615 -0.031652 -0.082799 0.056014 0.120017 -0.233187 -0.151429 0.129058 -0.086301 -0.341514 -0.151825 -0.225326 0.013757 0.035965 -0.118230 0.233743 0.007875 -0.011844 -0.036688 -0.143520 0.018671 0.157968 0.014384 0.296106 0.282855 -0.064249 -0.175773 -0.118037 -0.084355 0.106124 0.116980 -0.075517 0.035535 0.110612 0.112261 -0.182093 0.123842 -0.024980 0.002208 -0.127026 0.093832 -0.079738 0.173798 -0.023776 0.073659 -0.181052 -0.163813 -0.185590 0.101678 0.027465 0.125159 0.260629 -0.429569 0.083148 -0.232096 -0.379592 0.207159 -0.028362 0.048585 -0.058468 0.223699 -0.042736 -0.219922 -0.282266 0.204624 -0.010145 0.068061
50 -0.058737 -0.065191 0.022533 0.208460 0.284611 0.023740 -0.051319 0.124942 -0.025914 0.077001 -0.025748 -0.069176 -0.093963 0.015669 0.057561 0.163294 0.216142 -0.062248 0.124306 -0.214860 -0.031309 0.007024 0.096778 -0.040242 -0.006421 -0.052733 -0.001407 0.041839 0.049234 -0.035951 -0.097085 -0.035157 0.150128 -0.166111 0.008008 0.026706 0.285218 0.029799 0.197622 0.022927 -0.073483 0.130860 0.043505 0.117537 -0.217763 -0.022057 -0.046764 0.007360 0.127550 -0.028270 0.109929 -0.079726 0.041461 0.164782 0.226658 0.032052 -0.072163 -0.111153 -0.120143 -0.156373 0.029542 0.164064 -0.091723 -0.010534 0.022608 0.039889 -0.120826 -0.083918 -0.072754 -0.114725 -0.095749 -0.155055 -0.148059 0.068385 0.023909 -0.001918 0.157955 -0.023929 0.032745 -0.045465 -0.200741 0.100153 0.096245 -0.087485 0.051864 0.284555 -0.030618 -0.108573 -0.044453 -0.006644 0.161365 0.144897 -0.040012 -0.205644 -0.006277 0.178873 -0.112811 0.005278 -0.051791 -0.153283 0.008101 0.021250 0.035428 0.259580 0.194538 -0.049738 -0.203347 0.088531 -0.051396 -0.048870 0.094451 0.176205 0.092333 -0.320974 -0.054822 -0.076309 -0.186369 -0.001129 -0.060976 -0.194528 0.022854 0.175836 0.039234 -0.229650 -0.125797 0.349692 -0.014063 0.007334
70 -0.079347 -0.083471 0.067980 0.095539 0.154844 -0.094752 0.089453 0.196131 -0.086335 0.038006 0.041987 -0.009187 -0.088330 -0.027602 0.101062 0.105634 0.290322 0.044856 0.054068 -0.111993 -0.026688 0.104780 0.114893 0.019125 -0.009448 -0.063695 -0.034801 -0.058052 0.021735 -0.085840 -0.020129 -0.000348 -0.091506 -0.169110 -0.033502 0.009690 0.195735 0.216679 0.199682 0.107050 -0.081978 -0.028271 0.075622 0.065885 -0.161334 0.096012 0.018601 -0.138753 0.048242 -0.049906 0.106264 0.015839 0.081518 0.078468 0.237862 0.109578 0.018604 -0.018287 0.103611 -0.032342 -0.080418 0.057821 -0.181669 -0.042341 0.110598 0.162847 -0.193236 -0.167064 0.176658 -0.119693 -0.142243 -0.224856 0.001787 -0.030854 0.113554 0.346227 0.217450 0.127518 0.165841 -0.022102 -0.254283 0.122099 0.083614 -0.252351 0.215130 0.385334 -0.050559 -0.268667 -0.078450 -0.146822 0.060464 0.047018 0.077281 -0.137819 0.307958 0.203730 -0.097248 -0.040409 0.128628 -0.115710 0.068767 -0.048108 -0.100276 0.020067 0.038657 -0.092656 -0.123290 0.051355 0.007902 0.053496 -0.023237 0.088123 0.112093 -0.102674 0.089582 -0.074617 -0.020306 -0.120817 -0.075912 -0.085045 -0.083916 0.046829 -0.094167 -0.080579 -0.142530 0.024310 0.082183 -0.084630
2 -0.111367 -0.245483 0.396585 0.110885 0.458206 0.115248 0.058044 0.091646 0.105351 0.158893 -0.222123 -0.143810 -0.183995 -0.158801 -0.007861 0.146721 0.233137 0.095632 0.101389 0.016346 0.237745 -0.070955 0.230099 -0.013502 -0.208488 0.012111 -0.189575 -0.101131 0.268180 0.072422 -0.165272 -0.107537 0.073344 -0.063510 -0.137544 0.006950 0.172286 0.377942 0.169098 0.204056 0.161929 0.331434 0.056040 -0.112237 -0.066959 0.068888 0.038224 -0.028460 0.107208 0.041479 -0.038606 0.074952 0.085658 0.370036 0.202737 0.072043 0.154695 0.022598 0.055243 -0.005583 0.056082 0.292944 0.157468 0.092662 0.026549 0.003477 -0.327035 -0.000581 -0.015099 -0.207337 0.133083 -0.315327 -0.232382 0.107771 0.381176 0.389996 0.068068 0.002477 0.182852 -0.137644 0.122709 0.248492 0.173368 -0.259885 -0.025654 0.297182 -0.019758 -0.225707 -0.254910 0.186463 0.018017 0.041856 0.398768 -0.039963 0.231852 0.247776 -0.156962 -0.043769 -0.198145 -0.023520 0.136559 -0.106851 0.003563 0.100991 0.015435 -0.289051 -0.335504 0.035842 0.024353 0.052914 0.062087 0.090642 -0.062362 -0.111861 -0.229518 -0.000958 -0.093614 -0.082187 -0.134731 -0.320863 0.062013 0.236080 0.337613 -0.292447 0.158883 0.106498 0.302133 -0.049757
18 -0.090395 -0.170817 0.069696 0.026577 0.200764 0.001171 0.009533 0.196533 -0.290497 0.355399 0.276424 -0.009009 -0.263411 0.154935 -0.113671 -0.073986 0.234305 -0.123807 0.104579 -0.170682 0.121049 -0.234145 0.135121 0.110777 -0.196686 -0.041581 -0.105637 0.103386 -0.044120 -0.168626 -0.196558 0.145144 0.272449 0.002790 -0.009906 -0.119874 0.116703 0.290650 0.365663 -0.064821 -0.014403 0.193966 0.277153 -0.048569 -0.436241 0.115639 0.195158 0.137680 -0.317578 0.433575 0.178409 0.113913 -0.128894 0.208472 0.279125 -0.287320 0.154604 -0.076303 -0.153606 -0.076792 -0.201651 0.088017 -0.180807 -0.376141 0.090403 0.256323 -0.124776 -0.229893 0.166226 0.176192 -0.125508 -0.154577 -0.086721 0.005710 0.147201 0.266330 0.020448 0.222314 0.165721 -0.110217 -0.115835 0.125403 0.122082 -0.138165 0.157964 -0.096015 -0.042011 -0.353788 0.139117 -0.031220 0.292664 0.174993 -0.021111 -0.374581 -0.059922 0.241416 -0.167840 0.143601 -0.086885 -0.423732 -0.054600 0.149009 -0.021931 0.176545 0.001425 0.084951 0.028715 0.097461 0.288922 -0.126817 0.209972 0.215039 -0.105152 -0.153032 -0.336196 -0.048606 -0.070459 0.217719 -0.142521 0.234960 -0.141563 0.135565 0.003894 0.280618 -0.235581 -0.214458 0.171250 -0.176923
17 -0.099909 -0.172687 0.068722 0.020523 0.177087 -0.014567 -0.010109 0.221988 -0.320731 0.358454 0.298830 -0.030569 -0.275164 0.170964 -0.092895 -0.081585 0.259415 -0.143586 0.115757 -0.164435 0.121648 -0.273723 0.128578 0.150019 -0.197644 -0.029863 -0.105933 0.105761 -0.076427 -0.215355 -0.187939 0.186685 0.273588 0.013283 -0.008124 -0.134082 0.123834 0.281129 0.383146 -0.067796 -0.019459 0.167052 0.316491 -0.044019 -0.436394 0.123432 0.176455 0.141413 -0.368263 0.476543 0.160047 0.103865 -0.137313 0.195318 0.270432 -0.293866 0.142165 -0.054203 -0.169672 -0.056571 -0.226786 0.092020 -0.236459 -0.405882 0.100639 0.276274 -0.102731 -0.244543 0.179021 0.198656 -0.115614 -0.162718 -0.057580 0.003626 0.129729 0.308362 0.016822 0.249501 0.184567 -0.106328 -0.153483 0.136913 0.106899 -0.161792 0.161688 -0.098787 -0.032015 -0.374263 0.169062 -0.064438 0.320197 0.191085 -0.043470 -0.430405 -0.063642 0.258846 -0.166208 0.139684 -0.062766 -0.477525 -0.054384 0.154835 -0.024113 0.183546 0.025080 0.090290 0.055331 0.125801 0.327436 -0.155877 0.223286 0.223425 -0.125766 -0.129495 -0.346853 -0.041455 -0.035239 0.204075 -0.150845 0.243732 -0.156633 0.119849 -0.025859 0.326322 -0.243486 -0.230979 0.170426 -0.201646
21 -0.085533 -0.166988 0.051783 0.028729 0.181349 -0.005927 -0.004590 0.186838 -0.280608 0.351437 0.292015 -0.009037 -0.251510 0.164853 -0.109871 -0.085616 0.233707 -0.132367 0.106175 -0.166915 0.127554 -0.248621 0.129586 0.108433 -0.194597 -0.033402 -0.096116 0.117490 -0.053141 -0.169239 -0.193745 0.147836 0.265522 0.011081 -0.003610 -0.118992 0.118885 0.273301 0.362134 -0.078131 -0.008665 0.195439 0.275297 -0.052462 -0.429250 0.123176 0.184753 0.154323 -0.341854 0.439266 0.173104 0.110883 -0.131930 0.209030 0.262836 -0.298035 0.155228 -0.073241 -0.157570 -0.072369 -0.207061 0.083402 -0.184179 -0.379702 0.091347 0.245641 -0.104661 -0.221454 0.150650 0.192186 -0.120827 -0.128067 -0.070161 0.017798 0.134613 0.255687 0.006253 0.206327 0.154987 -0.113271 -0.120815 0.105366 0.106768 -0.132893 0.147481 -0.122929 -0.039557 -0.334523 0.151605 -0.024023 0.284613 0.170154 -0.035024 -0.381476 -0.077389 0.227281 -0.159337 0.152942 -0.094730 -0.429409 -0.049640 0.148487 -0.018104 0.161082 -0.008764 0.093571 0.043716 0.109082 0.308419 -0.145365 0.216197 0.207501 -0.115485 -0.145901 -0.351689 -0.040347 -0.071491 0.225320 -0.145315 0.255481 -0.148134 0.138127 -0.009975 0.301003 -0.243282 -0.226326 0.165122 -0.178718
69 -0.085407 -0.083257 0.102154 0.077006 0.136878 -0.101939 0.094112 0.229690 -0.098590 0.005904 0.003513 -0.024877 -0.082337 -0.043365 0.142915 0.114563 0.312585 0.069231 0.051232 -0.087772 -0.050798 0.116416 0.107629 0.057835 0.005295 -0.057620 -0.035538 -0.095306 0.009821 -0.114464 0.014132 0.025491 -0.145395 -0.168961 -0.045611 0.009107 0.195041 0.217457 0.191496 0.143960 -0.090820 -0.085194 0.079250 0.071930 -0.112395 0.097141 -0.007414 -0.186404 0.062779 -0.067197 0.067098 0.007558 0.106408 0.036871 0.224772 0.165701 -0.004250 0.023455 0.130529 0.004278 -0.089351 0.055844 -0.214078 -0.014479 0.114703 0.177761 -0.185320 -0.176202 0.215015 -0.157000 -0.126846 -0.254429 0.034664 -0.058310 0.106245 0.412862 0.233754 0.162346 0.186321 -0.005995 -0.274877 0.154482 0.069722 -0.284508 0.236435 0.455576 -0.040047 -0.286567 -0.087449 -0.186052 0.045252 0.036960 0.095876 -0.137243 0.372534 0.223132 -0.091868 -0.087984 0.181464 -0.102297 0.095236 -0.069021 -0.119727 0.002412 0.057082 -0.114167 -0.126475 0.055878 -0.011459 0.074582 -0.041954 0.083263 0.100559 -0.055129 0.149152 -0.069109 0.043851 -0.186031 -0.075558 -0.147697 -0.090398 0.009890 -0.107037 -0.100111 -0.109489 0.034965 0.084878 -0.103364
52 -0.065870 -0.080426 0.085026 0.188569 0.308719 0.050318 -0.059863 0.128580 -0.024367 0.072624 -0.079568 -0.105879 -0.117656 -0.005299 0.053428 0.170050 0.202133 -0.055138 0.131264 -0.178980 -0.009769 -0.025433 0.105735 0.000352 -0.032233 -0.037719 -0.022101 0.012216 0.061795 -0.047246 -0.092068 -0.019359 0.147309 -0.136410 -0.009164 0.014265 0.265820 0.047302 0.183633 0.056922 -0.044259 0.132839 0.049946 0.096144 -0.180259 -0.044176 -0.050737 -0.009792 0.137683 -0.008211 0.061581 -0.067861 0.046134 0.175094 0.219591 0.043067 -0.064264 -0.065917 -0.128928 -0.128223 0.043882 0.192364 -0.070373 0.003338 0.003479 0.031720 -0.129353 -0.071043 -0.060244 -0.123650 -0.039666 -0.195010 -0.166421 0.063952 0.045447 0.037216 0.142504 -0.011083 0.035127 -0.044778 -0.162393 0.144723 0.097588 -0.102590 0.021629 0.292469 -0.012626 -0.114879 -0.060196 0.002001 0.157814 0.154132 -0.002317 -0.205328 0.000389 0.205553 -0.114416 -0.022509 -0.061886 -0.147411 0.020303 0.010801 0.039346 0.276303 0.209496 -0.087691 -0.214045 0.086628 -0.056733 -0.041591 0.096369 0.175287 0.062277 -0.276902 -0.067949 -0.067867 -0.152262 -0.036120 -0.055728 -0.245573 0.038292 0.157494 0.091620 -0.234175 -0.052772 0.352367 0.016153 -0.000040
23 -0.104795 -0.181937 0.110342 0.012472 0.191208 0.006396 -0.002448 0.207674 -0.274899 0.330245 0.234222 -0.047660 -0.260652 0.130246 -0.082584 -0.073944 0.245579 -0.117504 0.108432 -0.117104 0.141829 -0.270104 0.130050 0.154316 -0.198016 -0.007226 -0.113353 0.076566 -0.045229 -0.191986 -0.181295 0.166017 0.241133 0.025253 -0.027981 -0.124559 0.107447 0.281894 0.351845 -0.034362 0.008143 0.177652 0.295017 -0.062614 -0.370516 0.111375 0.161064 0.128227 -0.337012 0.448988 0.107088 0.102858 -0.117065 0.200497 0.233057 -0.260203 0.148474 -0.024916 -0.151483 -0.032101 -0.202196 0.113271 -0.193179 -0.348568 0.087541 0.245696 -0.109441 -0.217147 0.159327 0.163306 -0.061695 -0.168757 -0.059194 0.005658 0.156166 0.328360 0.001758 0.231700 0.183099 -0.107259 -0.109009 0.154360 0.108827 -0.169291 0.123838 -0.083039 -0.026918 -0.347960 0.134023 -0.034081 0.283445 0.165177 0.013741 -0.392860 -0.037819 0.253608 -0.157624 0.110881 -0.079312 -0.427429 -0.026000 0.120845 -0.024083 0.156086 0.016359 0.049620 0.022040 0.123391 0.315305 -0.136707 0.207826 0.199614 -0.147050 -0.094408 -0.341923 -0.023804 -0.010731 0.162089 -0.150366 0.187625 -0.133621 0.114474 0.021282 0.283208 -0.181807 -0.216324 0.182915 -0.200489
20 -0.101586 -0.178385 0.077217 0.035878 0.201986 -0.006621 -0.013273 0.191934 -0.257916 0.330074 0.251156 -0.036354 -0.247749 0.140345 -0.079971 -0.069103 0.243608 -0.122503 0.109688 -0.141620 0.136461 -0.255903 0.131584 0.122933 -0.189853 -0.012607 -0.100234 0.099674 -0.042728 -0.176760 -0.186587 0.145620 0.257734 0.007435 -0.021991 -0.117068 0.135451 0.266409 0.358686 -0.054919 0.001039 0.192312 0.288650 -0.052602 -0.395153 0.115894 0.153461 0.148668 -0.326228 0.425632 0.135828 0.094164 -0.116306 0.211532 0.242773 -0.264949 0.141907 -0.052217 -0.151275 -0.053666 -0.194118 0.108262 -0.186039 -0.347469 0.088814 0.235804 -0.110540 -0.208266 0.128979 0.165382 -0.080941 -0.146495 -0.066066 0.023367 0.149719 0.288046 0.013757 0.200785 0.171902 -0.113564 -0.120193 0.130604 0.108189 -0.153043 0.125164 -0.080903 -0.037945 -0.335326 0.134266 -0.018819 0.273299 0.163602 -0.005406 -0.390214 -0.053370 0.238077 -0.155849 0.125555 -0.092589 -0.424279 -0.029522 0.125908 -0.012288 0.169162 0.018029 0.059676 0.014018 0.126092 0.304252 -0.149932 0.205537 0.204283 -0.122727 -0.133001 -0.350584 -0.027317 -0.049599 0.182971 -0.150632 0.196209 -0.131169 0.131654 0.013908 0.266355 -0.207620 -0.195140 0.168339 -0.178284
19 -0.097518 -0.172275 0.098134 0.012358 0.176182 0.008300 0.000150 0.223592 -0.295911 0.319981 0.226647 -0.042720 -0.260826 0.141590 -0.073446 -0.065201 0.239699 -0.117587 0.105568 -0.139200 0.115397 -0.255010 0.123050 0.154805 -0.188699 -0.021498 -0.106907 0.074836 -0.054034 -0.199700 -0.171317 0.178381 0.254039 0.013944 -0.021223 -0.126097 0.110061 0.265560 0.351731 -0.042190 -0.010621 0.150598 0.287566 -0.048955 -0.387065 0.105747 0.166608 0.112611 -0.316376 0.439970 0.121159 0.091012 -0.111173 0.172211 0.245244 -0.248971 0.126459 -0.036624 -0.160386 -0.045686 -0.203058 0.099044 -0.207493 -0.363519 0.082444 0.249880 -0.101770 -0.222830 0.188075 0.162202 -0.078494 -0.178133 -0.060683 -0.012392 0.130341 0.300753 0.018051 0.245532 0.177194 -0.098027 -0.128184 0.163457 0.104958 -0.154726 0.140659 -0.063399 -0.024399 -0.355056 0.137846 -0.054870 0.297030 0.181421 -0.013271 -0.392344 -0.036685 0.260134 -0.152772 0.108665 -0.055816 -0.423071 -0.043650 0.133067 -0.024675 0.183694 0.034137 0.061657 0.031166 0.116234 0.292085 -0.126697 0.205066 0.209978 -0.133645 -0.106051 -0.303955 -0.035521 -0.007436 0.166662 -0.130211 0.175942 -0.139199 0.101588 0.010715 0.275976 -0.198911 -0.190378 0.163559 -0.193575
22 -0.107002 -0.198990 0.086822 0.033972 0.214154 0.003553 -0.017949 0.213450 -0.307298 0.383645 0.299691 -0.034205 -0.293827 0.164536 -0.111602 -0.091682 0.261719 -0.148526 0.122906 -0.161641 0.154605 -0.300577 0.141366 0.149748 -0.220365 -0.017102 -0.122313 0.116922 -0.058521 -0.200908 -0.220164 0.169052 0.307034 0.019081 -0.013852 -0.142427 0.132301 0.291764 0.400857 -0.069147 0.005109 0.217520 0.323073 -0.059601 -0.452891 0.132090 0.190118 0.171160 -0.381263 0.501335 0.147424 0.109328 -0.149585 0.234250 0.271168 -0.321212 0.163059 -0.057977 -0.189538 -0.067317 -0.225813 0.114584 -0.201367 -0.407304 0.088844 0.266829 -0.108014 -0.238082 0.156223 0.201361 -0.094974 -0.157519 -0.078244 0.024347 0.161126 0.294522 -0.004013 0.239611 0.183922 -0.123944 -0.125405 0.138706 0.118706 -0.158551 0.135954 -0.137405 -0.032367 -0.371676 0.164461 -0.019651 0.320663 0.186146 -0.019075 -0.438618 -0.088588 0.260319 -0.166405 0.151228 -0.106529 -0.486011 -0.044707 0.154297 -0.009518 0.188759 0.018409 0.082367 0.044558 0.129942 0.354718 -0.168126 0.240251 0.231025 -0.149960 -0.144225 -0.401994 -0.027348 -0.048632 0.221967 -0.158395 0.244311 -0.145214 0.143532 0.009799 0.324131 -0.241088 -0.240463 0.186920 -0.203870
71 -0.095037 -0.102771 0.086642 0.077723 0.140978 -0.109209 0.087573 0.215163 -0.093848 0.035990 0.055469 -0.020994 -0.084647 -0.032342 0.128124 0.082652 0.315485 0.042593 0.046490 -0.083700 -0.015280 0.065319 0.109336 0.052679 -0.012012 -0.040635 -0.040007 -0.069716 0.002709 -0.108983 -0.011358 0.028456 -0.112353 -0.153911 -0.052120 0.002906 0.196552 0.221288 0.211225 0.114049 -0.076124 -0.045153 0.108102 0.060054 -0.138975 0.119659 -0.000822 -0.134275 0.001261 -0.021375 0.072596 0.020898 0.076496 0.061457 0.204406 0.116004 0.017459 0.016616 0.122911 0.003986 -0.103787 0.058447 -0.215363 -0.042812 0.115945 0.175911 -0.178480 -0.172187 0.183900 -0.114657 -0.122527 -0.221534 0.036861 -0.031959 0.119350 0.410055 0.215050 0.151833 0.194322 -0.023628 -0.269408 0.135916 0.074267 -0.278099 0.214888 0.385004 -0.045409 -0.285153 -0.060139 -0.160225 0.053755 0.037828 0.092950 -0.160221 0.331108 0.208755 -0.086824 -0.057858 0.141609 -0.134144 0.096412 -0.066534 -0.110392 -0.002999 0.033552 -0.099403 -0.109363 0.075027 0.039192 0.040199 -0.025203 0.089005 0.087087 -0.061035 0.077772 -0.058501 0.020315 -0.149295 -0.098787 -0.093389 -0.099912 0.032518 -0.104924 -0.046339 -0.137872 -0.015778 0.094522 -0.106743
4 -0.107026 -0.228610 0.385363 0.099081 0.430745 0.116371 0.054031 0.084464 0.113092 0.145837 -0.220805 -0.141607 -0.169888 -0.166937 -0.010712 0.142046 0.211333 0.094362 0.092484 0.020167 0.230781 -0.070163 0.219167 -0.017613 -0.201877 0.004002 -0.177196 -0.101809 0.259124 0.084569 -0.165209 -0.110229 0.073602 -0.052054 -0.134486 -0.003979 0.158029 0.352981 0.152726 0.201471 0.163160 0.320786 0.048045 -0.120049 -0.062214 0.074816 0.041333 -0.024281 0.104275 0.044201 -0.050990 0.082366 0.082699 0.347578 0.185459 0.070766 0.150866 0.022651 0.050117 0.001991 0.056705 0.278560 0.165041 0.087289 0.015922 -0.003579 -0.312996 0.007737 -0.011031 -0.194382 0.132633 -0.301287 -0.225370 0.101356 0.368843 0.356157 0.068553 0.000809 0.174665 -0.139383 0.140375 0.234027 0.160014 -0.241235 -0.031244 0.271659 -0.018098 -0.206495 -0.248943 0.185995 0.015259 0.039824 0.394173 -0.026391 0.221550 0.232838 -0.150103 -0.031577 -0.197535 -0.011918 0.125865 -0.102068 0.008095 0.095998 0.009998 -0.281287 -0.329254 0.032723 0.020185 0.062047 0.057572 0.090106 -0.060640 -0.109290 -0.217820 -0.005814 -0.097432 -0.064803 -0.122217 -0.305738 0.067817 0.227066 0.331509 -0.288862 0.157323 0.093811 0.284658 -0.045629
61 0.030467 -0.025371 -0.030052 0.185888 0.281049 -0.012222 0.115425 0.056026 0.022934 0.138233 0.076154 0.113731 -0.041855 0.013162 -0.083055 0.167494 0.172099 0.029110 0.071712 -0.283491 -0.050651 0.262973 0.145227 -0.256612 -0.027689 -0.188741 0.022434 0.057348 0.150070 0.127291 -0.121360 -0.196611 0.060183 -0.227142 0.042922 0.062928 0.216691 0.214047 0.183639 -0.013087 -0.097593 0.168066 -0.092462 0.070455 -0.345610 0.051489 0.119898 -0.034178 0.241977 -0.191659 0.348874 0.074193 0.044173 0.226944 0.378002 0.008013 0.064235 -0.276955 0.056911 -0.228406 0.041790 0.059765 0.025698 -0.020873 0.064783 0.075863 -0.275399 -0.110764 0.041999 -0.123942 -0.288814 -0.151601 -0.223586 0.075002 0.119949 -0.036362 0.224655 -0.048355 0.016379 -0.072669 -0.116451 0.015881 0.164913 -0.045934 0.237824 0.301838 -0.082196 -0.170705 -0.151715 -0.002805 0.058885 0.079219 0.015900 0.033752 0.135753 0.117445 -0.174520 0.106588 -0.084391 0.010844 -0.060156 0.037082 -0.060397 0.132478 -0.035174 -0.006979 -0.229102 -0.113972 -0.151781 0.074183 0.015419 0.113274 0.238828 -0.414203 0.004696 -0.188463 -0.386082 0.152363 -0.065555 0.001285 -0.031364 0.263430 -0.003908 -0.264899 -0.228981 0.186321 0.049621 0.070198
3 -0.109417 -0.237069 0.418063 0.081931 0.443081 0.169351 0.037488 0.104754 0.091606 0.157610 -0.274994 -0.173143 -0.194597 -0.166277 -0.011304 0.158494 0.193938 0.094930 0.112375 0.033854 0.226984 -0.110119 0.210281 0.031183 -0.210086 0.011880 -0.188528 -0.118318 0.255637 0.054257 -0.160032 -0.073748 0.109232 -0.032260 -0.135254 -0.008549 0.135977 0.336051 0.136084 0.209455 0.168616 0.319574 0.058973 -0.117385 -0.046124 0.032009 0.044529 -0.034006 0.122393 0.079625 -0.078880 0.059949 0.083365 0.344617 0.175545 0.067513 0.133653 0.047591 0.005048 0.004110 0.076847 0.308310 0.160559 0.078445 -0.009492 -0.009026 -0.287636 0.007994 -0.002607 -0.201200 0.171403 -0.327846 -0.259901 0.080584 0.354172 0.347402 0.044462 0.011876 0.174347 -0.127991 0.162680 0.288543 0.170669 -0.229398 -0.064443 0.276877 0.003542 -0.202863 -0.242602 0.189519 0.048238 0.069105 0.388014 -0.049860 0.187766 0.261940 -0.153531 -0.060503 -0.198404 -0.028788 0.116387 -0.084602 0.019230 0.147494 0.054102 -0.293200 -0.334458 0.035808 0.011449 0.065268 0.084978 0.110953 -0.103790 -0.097984 -0.223330 0.003452 -0.063901 -0.076106 -0.112153 -0.376903 0.084639 0.215530 0.388485 -0.303810 0.202188 0.157012 0.284093 -0.055038
42 -0.048386 -0.065506 0.016260 0.112194 0.146621 -0.106180 0.093441 0.182174 -0.088170 0.047253 0.083626 0.028754 -0.067843 -0.000624 0.081133 0.097801 0.278659 0.030526 0.047620 -0.153850 -0.051736 0.146029 0.113369 -0.032961 0.009908 -0.090583 -0.007548 -0.028433 0.021426 -0.058427 -0.029357 -0.026690 -0.080049 -0.188913 -0.017313 0.017579 0.209062 0.191471 0.207858 0.076321 -0.109480 -0.021893 0.049369 0.085125 -0.212065 0.101232 0.030523 -0.127894 0.072596 -0.088010 0.162383 0.028274 0.069592 0.075624 0.265549 0.092530 0.013976 -0.065891 0.105964 -0.070127 -0.075646 0.029167 -0.178460 -0.048103 0.107009 0.162087 -0.188322 -0.172472 0.160191 -0.114862 -0.202269 -0.183747 -0.005678 -0.015163 0.085806 0.272145 0.231459 0.108014 0.131393 -0.022948 -0.268242 0.089048 0.091942 -0.209704 0.245335 0.373705 -0.064152 -0.252702 -0.058091 -0.153390 0.050596 0.041019 0.033093 -0.115836 0.278847 0.173397 -0.103459 -0.011500 0.114755 -0.101973 0.042953 -0.034614 -0.097885 0.027796 0.020986 -0.049115 -0.124598 0.022542 -0.019204 0.051908 -0.019958 0.095279 0.145768 -0.157011 0.100839 -0.099692 -0.076831 -0.078175 -0.068411 -0.036838 -0.092686 0.062505 -0.125148 -0.086631 -0.188968 0.038187 0.049955 -0.055949
67 0.064546 0.007992 -0.031222 0.133230 0.212647 0.025132 0.151151 0.109719 -0.070394 0.106374 0.017663 0.126363 -0.043778 0.029691 -0.096308 0.184580 0.106477 0.048047 0.071601 -0.307016 -0.129940 0.313061 0.111243 -0.202929 -0.005153 -0.238516 0.044952 0.013152 0.107239 0.079663 -0.065078 -0.134938 0.071943 -0.209984 0.064141 0.031687 0.157181 0.173983 0.155913 -0.010903 -0.126630 0.052578 -0.126777 0.100467 -0.335128 -0.015730 0.162146 -0.121759 0.310035 -0.195388 0.356594 0.060901 0.054397 0.127918 0.392408 0.033280 0.015861 -0.273154 0.020999 -0.236652 0.058713 0.006209 -0.029578 -0.061267 0.035493 0.115725 -0.248055 -0.154298 0.172378 -0.128781 -0.311261 -0.204165 -0.240974 -0.020261 0.032345 -0.084306 0.248358 0.037900 0.000990 -0.033199 -0.128833 0.082101 0.163243 -0.002059 0.287147 0.354232 -0.050026 -0.184770 -0.148184 -0.104789 0.105519 0.118481 -0.042453 0.046297 0.161546 0.152978 -0.179009 0.081332 0.003869 0.032308 -0.120988 0.077211 -0.082706 0.196632 0.008779 0.033807 -0.211282 -0.166638 -0.229410 0.140292 0.012518 0.128395 0.242172 -0.386611 0.144683 -0.232656 -0.333677 0.146675 -0.002937 -0.047469 -0.039761 0.185570 0.000111 -0.263056 -0.210632 0.254903 -0.010597 0.063001
58 0.037432 -0.005817 -0.076576 0.163058 0.207620 -0.036223 0.090920 0.101443 -0.072082 0.128335 0.131538 0.105535 -0.053804 0.064422 -0.068277 0.126720 0.164730 -0.016790 0.070792 -0.298273 -0.097262 0.227648 0.113355 -0.183670 -0.003693 -0.188329 0.039684 0.063613 0.066063 0.051280 -0.090110 -0.116826 0.082232 -0.201311 0.061988 0.025554 0.202104 0.151964 0.204283 -0.035313 -0.137240 0.085404 -0.055267 0.106503 -0.364354 0.031185 0.120843 -0.046421 0.179588 -0.126134 0.335233 0.051932 0.019527 0.147130 0.362896 -0.017495 0.018641 -0.254447 0.003358 -0.229274 -0.002590 0.009030 -0.070946 -0.096301 0.059795 0.120987 -0.205082 -0.155489 0.093441 -0.074871 -0.316362 -0.134029 -0.169465 0.030091 0.031019 -0.062186 0.211260 0.021841 0.010712 -0.043819 -0.191712 0.015193 0.139457 -0.023562 0.254425 0.255610 -0.066391 -0.181775 -0.063903 -0.080304 0.108723 0.108705 -0.075655 -0.041619 0.091611 0.127253 -0.157447 0.099894 -0.022542 -0.065135 -0.088135 0.077891 -0.062243 0.167999 0.010535 0.058501 -0.149761 -0.087481 -0.119038 0.050419 0.040608 0.134029 0.217073 -0.375616 0.040919 -0.187169 -0.328450 0.155745 -0.041890 0.042441 -0.063938 0.190190 -0.075682 -0.164952 -0.270228 0.164526 -0.006508 0.044616
35 -0.003321 -0.110551 0.303388 -0.093889 0.160045 0.288407 0.049608 0.299340 -0.327334 0.141880 -0.298752 -0.128184 -0.226046 0.009322 -0.090984 0.130740 -0.027430 0.033271 0.142470 -0.119287 -0.065920 -0.086323 0.041867 0.266294 -0.146963 -0.125252 -0.094450 -0.152419 0.005780 -0.178951 -0.008288 0.206900 0.304645 0.078561 -0.059689 -0.142174 -0.034461 0.088035 0.107942 0.101247 0.011150 -0.061487 0.045754 0.008427 -0.159748 -0.197299 0.176302 -0.190301 0.181367 0.235924 -0.027573 -0.004027 0.007397 -0.034982 0.211873 0.007033 -0.066654 0.018319 -0.289677 -0.054185 0.051582 0.119694 -0.109250 -0.211449 -0.097169 0.141079 -0.065329 -0.151042 0.380879 -0.060782 0.077558 -0.425862 -0.277969 -0.229782 -0.035006 0.076698 0.067965 0.316515 0.094025 -0.005701 0.074597 0.451427 0.129691 0.007949 0.093109 0.229082 0.114772 -0.242094 -0.043627 -0.178263 0.354663 0.286822 -0.005964 -0.186052 0.031246 0.372161 -0.175473 -0.061901 0.033870 -0.161249 -0.174401 0.148686 -0.010548 0.470691 0.251739 -0.035765 -0.145531 -0.075884 -0.141185 0.147376 0.179794 0.238209 -0.173478 -0.061307 0.108343 -0.142037 0.110948 0.011530 0.106023 -0.387417 0.012822 -0.035219 0.310438 -0.100008 0.149039 0.344198 0.024594 -0.113092
29 -0.031882 -0.111374 0.147666 0.021142 0.163147 0.077545 0.077006 0.218652 -0.139866 0.091533 -0.114981 -0.059397 -0.108678 -0.021417 0.030048 0.121943 0.139980 0.048163 0.096294 -0.135952 -0.017712 0.013119 0.070683 0.099379 -0.077859 -0.069141 -0.024472 -0.076118 0.029359 -0.108836 -0.009966 0.069415 0.085955 -0.068831 -0.061972 -0.047288 0.104219 0.124063 0.168757 0.074897 -0.020884 -0.003967 0.042890 0.037080 -0.161131 -0.045959 0.044069 -0.122769 0.120660 0.031689 0.035463 -0.002535 0.052741 0.024325 0.176175 0.069150 -0.037680 -0.020945 -0.043405 -0.039109 0.013655 0.107075 -0.153375 -0.092285 0.028991 0.104220 -0.118426 -0.137388 0.215785 -0.083467 -0.009937 -0.279674 -0.134601 -0.074820 0.049603 0.201966 0.166515 0.153445 0.122524 -0.022366 -0.080496 0.263727 0.095040 -0.102533 0.131446 0.291072 0.033897 -0.220098 -0.083300 -0.139743 0.171436 0.142591 0.045116 -0.134301 0.180509 0.240549 -0.100856 -0.019574 0.032365 -0.096859 -0.037579 0.010346 -0.053429 0.203756 0.096798 -0.055879 -0.180012 0.013117 -0.051226 0.081172 0.055052 0.128976 -0.011574 -0.093901 0.086669 -0.082089 -0.000305 -0.061676 -0.007706 -0.247698 -0.053052 0.040508 0.119574 -0.097841 -0.003525 0.184857 0.042274 -0.074082
36 0.003521 -0.090393 0.280763 -0.052332 0.187029 0.264818 0.062281 0.268347 -0.251189 0.106275 -0.313194 -0.107522 -0.189430 -0.016616 -0.070403 0.166054 -0.011074 0.056923 0.136761 -0.134328 -0.076424 -0.013408 0.048788 0.193736 -0.114711 -0.130756 -0.072241 -0.145099 0.040343 -0.130013 -0.000978 0.144003 0.241149 0.024681 -0.054664 -0.097789 0.001710 0.092782 0.090464 0.112189 0.001070 -0.040910 -0.005972 0.025089 -0.138449 -0.192558 0.140458 -0.198312 0.252109 0.126545 -0.004081 -0.009902 0.035045 -0.012031 0.216858 0.058441 -0.072659 -0.007599 -0.224590 -0.069578 0.080099 0.125972 -0.077817 -0.141667 -0.081520 0.100393 -0.098435 -0.123491 0.331100 -0.108343 0.057513 -0.407148 -0.280052 -0.193041 -0.017651 0.058443 0.104371 0.247398 0.074279 -0.006329 0.059197 0.409676 0.129658 0.001484 0.098936 0.294147 0.096647 -0.210510 -0.098106 -0.166101 0.298717 0.254262 0.014181 -0.121866 0.075525 0.340149 -0.168140 -0.062784 0.030222 -0.087800 -0.149974 0.113180 -0.017827 0.427695 0.226389 -0.055032 -0.195081 -0.087248 -0.182592 0.166606 0.143560 0.206754 -0.108444 -0.100874 0.137288 -0.141753 0.058272 -0.012368 0.090888 -0.411857 0.027998 0.001493 0.299673 -0.178144 0.144121 0.385381 0.019600 -0.074878
72 -0.091276 -0.098612 0.106387 0.089548 0.168487 -0.092513 0.098905 0.215395 -0.069654 0.024183 0.003127 -0.020799 -0.080797 -0.056193 0.127531 0.117253 0.311971 0.072080 0.045493 -0.093594 -0.020826 0.114388 0.124048 0.025583 -0.010274 -0.059135 -0.045016 -0.088287 0.034755 -0.087627 -0.008263 -0.003431 -0.126811 -0.174685 -0.053833 0.014892 0.202207 0.238547 0.192022 0.137434 -0.074491 -0.041979 0.074598 0.062111 -0.135508 0.108268 -0.000928 -0.173136 0.074104 -0.074298 0.080964 0.018844 0.104935 0.074281 0.234465 0.151638 0.016062 0.009702 0.139885 -0.009395 -0.070813 0.067144 -0.182363 -0.014855 0.112384 0.165098 -0.212820 -0.162772 0.192427 -0.156904 -0.121877 -0.247821 0.009763 -0.035941 0.135176 0.406835 0.232181 0.133709 0.187672 -0.026984 -0.247743 0.150367 0.084896 -0.287804 0.221973 0.446362 -0.052768 -0.286573 -0.105201 -0.152327 0.037531 0.035309 0.121837 -0.123093 0.368811 0.219850 -0.098434 -0.068618 0.140364 -0.091628 0.098962 -0.081503 -0.116663 -0.001427 0.037031 -0.124174 -0.151547 0.051306 -0.007139 0.073073 -0.038152 0.081018 0.109319 -0.074015 0.114328 -0.072286 -0.004945 -0.168053 -0.083975 -0.138662 -0.087058 0.041590 -0.076436 -0.114062 -0.111110 0.028433 0.095946 -0.095881
76 -0.085327 -0.084459 0.079856 0.078804 0.136568 -0.114994 0.105661 0.223996 -0.090030 0.016412 0.040345 -0.006729 -0.075911 -0.035994 0.130701 0.103249 0.311366 0.068514 0.041928 -0.098563 -0.040127 0.125897 0.108912 0.027384 -0.001690 -0.064923 -0.028902 -0.081623 0.007071 -0.102423 0.004000 0.006928 -0.142443 -0.177878 -0.045998 0.011056 0.202026 0.235390 0.205231 0.127736 -0.092154 -0.069851 0.077830 0.067470 -0.147486 0.116732 0.008770 -0.174142 0.053432 -0.075915 0.095875 0.026519 0.101742 0.045668 0.236313 0.142656 0.012763 -0.001294 0.148505 -0.005673 -0.092586 0.040208 -0.215576 -0.034487 0.125055 0.187714 -0.203036 -0.179813 0.213146 -0.136695 -0.152974 -0.238628 0.036145 -0.045628 0.117954 0.413523 0.243087 0.157349 0.187177 -0.017307 -0.278537 0.136352 0.078792 -0.286345 0.252422 0.437206 -0.051267 -0.298509 -0.081932 -0.183280 0.035307 0.026838 0.097398 -0.130227 0.376549 0.209445 -0.094106 -0.060552 0.169518 -0.101605 0.089754 -0.070902 -0.126850 -0.014400 0.022199 -0.103756 -0.129586 0.053848 -0.002899 0.069763 -0.042269 0.080745 0.114458 -0.070007 0.135059 -0.079147 0.004608 -0.162075 -0.085098 -0.108178 -0.110018 0.021589 -0.119951 -0.077862 -0.142087 -0.004521 0.084581 -0.102001
39 0.006969 -0.088487 0.282815 -0.075148 0.156751 0.266784 0.077893 0.274660 -0.287902 0.107733 -0.304738 -0.097915 -0.196658 -0.009711 -0.082976 0.157867 -0.023946 0.058608 0.130197 -0.133254 -0.088064 -0.009351 0.044667 0.219532 -0.113491 -0.147725 -0.073303 -0.163680 0.030665 -0.136812 0.010724 0.165815 0.242080 0.036451 -0.046000 -0.109551 -0.025860 0.097643 0.084774 0.108390 -0.000116 -0.075044 -0.003519 0.023659 -0.147365 -0.188757 0.167829 -0.216995 0.242713 0.144709 0.003387 0.002134 0.032614 -0.034692 0.222825 0.056482 -0.069197 -0.003513 -0.234008 -0.064157 0.067293 0.099621 -0.092778 -0.172857 -0.084905 0.126242 -0.095144 -0.144991 0.381407 -0.093528 0.041104 -0.421736 -0.272129 -0.219726 -0.027577 0.067761 0.102872 0.286782 0.076275 0.008038 0.053747 0.422509 0.124607 0.003322 0.123012 0.287238 0.100142 -0.231344 -0.082020 -0.189716 0.307530 0.257733 0.003776 -0.124559 0.079962 0.347994 -0.175560 -0.070712 0.058921 -0.098758 -0.160625 0.129507 -0.025692 0.431774 0.224773 -0.043423 -0.164287 -0.104464 -0.183137 0.176571 0.139794 0.207043 -0.117475 -0.084269 0.167251 -0.152986 0.083747 -0.002645 0.114478 -0.388364 0.019742 -0.023655 0.283345 -0.151064 0.139649 0.355531 0.014280 -0.083719
38 0.007689 -0.106610 0.295476 -0.115736 0.131996 0.285488 0.065597 0.283230 -0.329515 0.155184 -0.277279 -0.106462 -0.227298 0.016238 -0.110638 0.108941 -0.053995 0.039896 0.134039 -0.113314 -0.047337 -0.091352 0.034760 0.254299 -0.158472 -0.129017 -0.098553 -0.151383 0.003853 -0.164992 -0.014716 0.199954 0.297621 0.094989 -0.050159 -0.146487 -0.066531 0.107842 0.102914 0.085437 0.022683 -0.050934 0.046253 -0.007727 -0.165552 -0.182755 0.203948 -0.177126 0.153719 0.258311 -0.021378 0.018981 -0.007591 -0.025355 0.206324 -0.016914 -0.038080 0.014407 -0.279955 -0.047161 0.042967 0.102635 -0.096142 -0.233868 -0.090116 0.148360 -0.068327 -0.147752 0.400743 -0.032123 0.070307 -0.404957 -0.274107 -0.230842 -0.023574 0.080598 0.048193 0.323910 0.093095 -0.012491 0.100922 0.436728 0.127921 0.020856 0.092533 0.185059 0.107651 -0.238569 -0.040916 -0.176050 0.337944 0.270133 -0.002814 -0.166811 0.024439 0.357341 -0.173233 -0.044182 0.035359 -0.152374 -0.179405 0.160305 -0.008855 0.442073 0.208220 -0.019716 -0.123584 -0.096188 -0.117724 0.151709 0.183575 0.222345 -0.180384 -0.049953 0.094089 -0.137423 0.111978 0.043974 0.106879 -0.338077 -0.000265 -0.039093 0.306635 -0.058361 0.145311 0.284667 0.043287 -0.119495
30 -0.020658 -0.096352 0.213773 -0.043567 0.152401 0.215597 0.031293 0.242106 -0.265759 0.145898 -0.194523 -0.101689 -0.197597 0.031552 -0.072728 0.102961 0.023139 0.000118 0.131496 -0.126049 -0.047167 -0.085494 0.049083 0.207944 -0.123188 -0.097700 -0.071461 -0.096655 0.002247 -0.152150 -0.029858 0.167766 0.259796 0.040139 -0.033645 -0.110436 0.012276 0.088020 0.133760 0.062693 -0.001578 -0.016059 0.062482 0.019387 -0.180178 -0.142155 0.135029 -0.119689 0.109686 0.211377 0.005451 0.000465 -0.010244 0.011812 0.192467 -0.018872 -0.043289 -0.005420 -0.245158 -0.066227 0.019780 0.111198 -0.108292 -0.195217 -0.056919 0.122299 -0.056280 -0.134125 0.282859 -0.026361 0.041480 -0.334510 -0.224419 -0.158846 -0.014039 0.069131 0.062876 0.247938 0.073965 -0.015273 0.023056 0.342176 0.104952 -0.010597 0.079495 0.177347 0.081600 -0.211700 -0.016637 -0.139325 0.305096 0.238073 -0.021519 -0.190545 0.001761 0.304852 -0.147411 -0.026560 0.016522 -0.169694 -0.131773 0.128810 -0.006428 0.385105 0.205767 -0.015908 -0.119510 -0.034068 -0.070741 0.086583 0.162395 0.201789 -0.125769 -0.086098 0.045508 -0.114380 0.059174 0.033471 0.064121 -0.272493 -0.003636 0.002995 0.224191 -0.060408 0.072511 0.259226 0.028524 -0.098982
37 -0.002488 -0.092200 0.261679 -0.087315 0.141161 0.257739 0.056408 0.282267 -0.309326 0.134123 -0.266093 -0.108961 -0.201866 0.013214 -0.088672 0.119560 -0.023506 0.030365 0.135125 -0.131079 -0.069540 -0.063808 0.039501 0.242948 -0.131026 -0.128648 -0.077185 -0.135139 0.002915 -0.162062 -0.004600 0.191405 0.277944 0.058446 -0.049740 -0.129886 -0.029770 0.078932 0.105321 0.086117 0.000589 -0.065706 0.035310 0.016372 -0.163132 -0.186738 0.168470 -0.181268 0.173756 0.209388 -0.006071 -0.000878 0.010043 -0.038152 0.202321 0.012445 -0.067627 0.002779 -0.264336 -0.062038 0.048775 0.102107 -0.112466 -0.210973 -0.081244 0.137648 -0.061032 -0.150452 0.366207 -0.050799 0.050294 -0.390080 -0.256747 -0.216814 -0.042747 0.060644 0.077696 0.290610 0.079139 -0.000010 0.056036 0.413452 0.118915 0.014241 0.101392 0.222223 0.100341 -0.223608 -0.038909 -0.187024 0.335212 0.271331 -0.020384 -0.167594 0.031452 0.343404 -0.169222 -0.045986 0.044439 -0.147178 -0.170189 0.142844 -0.018504 0.440525 0.227028 -0.016830 -0.139152 -0.076549 -0.135983 0.144051 0.169527 0.222107 -0.150754 -0.068371 0.117109 -0.141983 0.089540 0.020598 0.102053 -0.349359 0.004058 -0.028611 0.276251 -0.086284 0.122442 0.320668 0.013847 -0.106837
32 -0.089282 -0.143035 0.153440 0.004407 0.173226 0.028522 0.030613 0.183057 -0.172493 0.180171 0.043215 -0.062733 -0.182417 0.030959 -0.012822 0.012025 0.197632 -0.019159 0.081372 -0.065380 0.079327 -0.136210 0.099806 0.133085 -0.126410 -0.012883 -0.095368 -0.030344 0.005419 -0.130889 -0.090913 0.105714 0.121020 -0.013050 -0.043387 -0.078721 0.089960 0.213024 0.220580 0.051594 0.015377 0.083347 0.171212 -0.028419 -0.189004 0.059282 0.089030 -0.004480 -0.127530 0.239238 0.020376 0.059419 -0.019018 0.110874 0.172010 -0.076676 0.070376 0.016371 -0.065812 -0.003173 -0.101070 0.104184 -0.133840 -0.182841 0.046295 0.154347 -0.112847 -0.137694 0.171167 0.024762 0.000166 -0.211372 -0.066480 -0.034037 0.134960 0.297396 0.045359 0.179758 0.153791 -0.052856 -0.073633 0.181135 0.085842 -0.157647 0.096991 0.092098 0.005608 -0.258691 0.016529 -0.054726 0.170109 0.111356 0.073586 -0.233890 0.088768 0.228658 -0.103530 0.016486 -0.008381 -0.239065 0.010213 0.036390 -0.039913 0.118874 0.045731 -0.038087 -0.056401 0.064554 0.133079 -0.021879 0.115769 0.133272 -0.087190 -0.035032 -0.124746 -0.025853 0.046720 0.004358 -0.072385 -0.029263 -0.067690 0.049193 0.072620 0.080179 -0.055581 -0.059742 0.129491 -0.138953
77 0.045258 -0.001365 -0.072092 0.146111 0.207921 -0.014888 0.110315 0.080088 -0.057268 0.144465 0.123748 0.130177 -0.053884 0.066502 -0.099239 0.125837 0.138970 0.004754 0.067705 -0.291791 -0.080609 0.230076 0.117194 -0.204832 -0.019914 -0.193444 0.035294 0.067258 0.082862 0.070964 -0.094529 -0.132856 0.078956 -0.196178 0.065051 0.029512 0.170499 0.177574 0.184189 -0.038699 -0.116916 0.107724 -0.069159 0.080605 -0.361248 0.033090 0.143777 -0.036766 0.178552 -0.127173 0.352278 0.069426 0.013546 0.165780 0.366229 -0.034105 0.043391 -0.267142 0.019766 -0.226206 0.011733 0.013990 -0.036168 -0.095603 0.059521 0.119362 -0.220239 -0.144017 0.102762 -0.062709 -0.306494 -0.135435 -0.186516 0.026515 0.057242 -0.059510 0.199233 0.012514 0.006263 -0.050735 -0.143597 0.016243 0.140922 -0.010021 0.257203 0.234611 -0.064762 -0.176688 -0.090986 -0.064324 0.097940 0.104970 -0.057216 -0.004463 0.091148 0.117933 -0.165589 0.118996 -0.035739 -0.037705 -0.094239 0.081224 -0.070793 0.144186 -0.026576 0.057293 -0.150452 -0.115809 -0.126046 0.064611 0.039577 0.120147 0.217105 -0.369765 0.026070 -0.185926 -0.330831 0.178412 -0.045850 0.063833 -0.056800 0.207579 -0.041035 -0.164889 -0.254784 0.144301 0.013036 0.043857
55 -0.066022 -0.093426 0.086501 0.167634 0.289795 0.018574 -0.027065 0.117978 -0.008242 0.084689 -0.041901 -0.075968 -0.111913 -0.011041 0.050938 0.150683 0.229705 -0.027993 0.109443 -0.152000 0.010582 -0.004463 0.121171 -0.022609 -0.038120 -0.034461 -0.033570 0.007427 0.076347 -0.031019 -0.094004 -0.038489 0.091281 -0.147044 -0.019834 0.020111 0.246616 0.106648 0.191145 0.065903 -0.034709 0.140951 0.052009 0.067964 -0.177766 0.002229 -0.034062 -0.007514 0.096631 -0.011783 0.078351 -0.039098 0.050749 0.185179 0.217624 0.041043 -0.024454 -0.065846 -0.063398 -0.101552 0.018712 0.174257 -0.068427 -0.002204 0.037080 0.043692 -0.155212 -0.071554 -0.041341 -0.116782 -0.054210 -0.184420 -0.136750 0.070041 0.093316 0.116961 0.140663 -0.002361 0.070419 -0.049509 -0.154002 0.120377 0.102545 -0.136753 0.050203 0.289582 -0.030324 -0.144524 -0.076484 0.002096 0.120420 0.112463 0.047331 -0.173126 0.061823 0.189254 -0.111838 -0.013468 -0.058669 -0.130714 0.042527 -0.005875 0.010772 0.199451 0.147116 -0.096476 -0.194288 0.082930 -0.021104 -0.033110 0.072613 0.139245 0.064313 -0.241314 -0.075695 -0.058529 -0.140348 -0.039688 -0.079709 -0.189430 0.021248 0.164428 0.066901 -0.202376 -0.067285 0.254878 0.053667 -0.013035
44 -0.049220 -0.096294 0.120711 0.035353 0.171023 0.054641 0.027928 0.153384 -0.134576 0.137773 -0.010683 -0.045066 -0.142351 0.019239 -0.018035 0.060754 0.139833 -0.015407 0.080253 -0.105797 0.023260 -0.053374 0.085841 0.070693 -0.090713 -0.053517 -0.058984 -0.018794 0.022267 -0.080185 -0.070703 0.058651 0.126644 -0.038395 -0.024477 -0.047513 0.096191 0.143649 0.171472 0.042077 -0.005220 0.066171 0.085346 0.010340 -0.185696 0.007880 0.077612 -0.030406 0.003356 0.132649 0.060397 0.023815 -0.006918 0.100685 0.179694 -0.030415 0.029233 -0.028347 -0.082325 -0.049687 -0.037893 0.091746 -0.091891 -0.123801 0.025191 0.111657 -0.103601 -0.118622 0.128583 -0.023349 -0.038936 -0.197957 -0.113286 -0.024559 0.074189 0.155152 0.080306 0.126491 0.096229 -0.044804 -0.061648 0.170002 0.087724 -0.097648 0.095742 0.147310 0.008079 -0.198752 -0.022467 -0.052963 0.167665 0.128701 0.033250 -0.164535 0.062487 0.202339 -0.110717 0.013550 -0.018567 -0.159399 -0.028080 0.048123 -0.024620 0.175217 0.079858 -0.028811 -0.096061 0.024556 0.030144 0.015810 0.091524 0.136870 -0.029522 -0.117714 -0.055724 -0.063086 -0.035134 0.027728 -0.043182 -0.092461 -0.034476 0.079379 0.080877 -0.023530 -0.052415 0.077580 0.072633 -0.080298
43 -0.078596 -0.100928 0.079904 0.105897 0.180441 -0.081506 0.073929 0.172772 -0.057027 0.060274 0.049205 -0.014813 -0.090636 -0.028120 0.094425 0.089812 0.295321 0.033139 0.056489 -0.100244 0.005194 0.071076 0.126785 0.002075 -0.022459 -0.053234 -0.040230 -0.041415 0.035108 -0.064556 -0.036917 -0.008506 -0.078822 -0.162634 -0.042371 0.011926 0.199933 0.224265 0.202178 0.102159 -0.060223 0.020673 0.078632 0.054288 -0.164216 0.108507 0.013286 -0.105636 0.023361 -0.038000 0.104101 0.021784 0.068700 0.110597 0.222520 0.090065 0.036324 -0.015902 0.106442 -0.027040 -0.079697 0.074388 -0.152940 -0.034873 0.109139 0.145955 -0.194233 -0.153106 0.126998 -0.112244 -0.133022 -0.195757 -0.002581 0.006795 0.134356 0.341017 0.192378 0.098921 0.163402 -0.035965 -0.230208 0.103840 0.083721 -0.249933 0.195063 0.350344 -0.059601 -0.251070 -0.069360 -0.103165 0.042132 0.033671 0.099800 -0.132586 0.280765 0.190493 -0.088668 -0.029862 0.083966 -0.110578 0.078283 -0.057445 -0.089567 0.009970 0.022513 -0.094945 -0.131614 0.060717 0.028781 0.029514 -0.011439 0.084811 0.090403 -0.110844 0.035822 -0.061749 -0.034654 -0.108304 -0.087821 -0.073125 -0.079648 0.080366 -0.074855 -0.082845 -0.137732 0.004650 0.102606 -0.081076
45 -0.039491 -0.108606 0.135238 0.031401 0.161171 0.064259 0.063469 0.235805 -0.145454 0.070537 -0.109313 -0.076260 -0.107632 -0.013094 0.053005 0.125591 0.157695 0.042084 0.099629 -0.138820 -0.042515 0.010606 0.069100 0.104050 -0.060432 -0.060689 -0.008068 -0.064422 0.013446 -0.139452 0.001209 0.083090 0.064883 -0.092108 -0.057265 -0.046282 0.139090 0.101625 0.180366 0.075975 -0.032074 -0.027893 0.052679 0.064110 -0.151292 -0.048629 0.009304 -0.122250 0.124305 0.017835 0.036254 -0.028550 0.059852 0.000676 0.167033 0.087933 -0.056792 -0.012524 -0.044346 -0.036791 0.010728 0.111987 -0.190396 -0.089014 0.033189 0.106998 -0.100262 -0.137414 0.200301 -0.089223 -0.013177 -0.268510 -0.113038 -0.069251 0.029333 0.204275 0.188459 0.153484 0.118662 -0.010440 -0.126863 0.258886 0.080332 -0.116795 0.139463 0.325113 0.030353 -0.224557 -0.076830 -0.159965 0.175036 0.143993 0.013383 -0.153390 0.180734 0.243269 -0.090736 -0.033935 0.053191 -0.118416 -0.024472 -0.000811 -0.060561 0.212713 0.127499 -0.052102 -0.178383 0.038018 -0.043851 0.075993 0.047997 0.125420 0.006067 -0.098731 0.098680 -0.079687 0.010480 -0.094680 -0.016474 -0.270759 -0.054542 0.032762 0.097337 -0.102648 -0.013929 0.220270 0.015113 -0.077213
75 0.080757 -0.014544 -0.141890 0.205310 0.233628 -0.086582 0.147294 0.100926 -0.060553 0.108688 0.161295 0.168453 -0.015191 0.052349 -0.048048 0.134527 0.159658 0.014018 0.049627 -0.407252 -0.117412 0.348066 0.144392 -0.302415 0.004919 -0.246830 0.049867 0.065372 0.084836 0.132422 -0.107991 -0.235410 0.096975 -0.279249 0.064678 0.046177 0.274319 0.151031 0.225283 -0.040040 -0.175847 0.095889 -0.115660 0.141966 -0.479326 0.074984 0.156086 -0.107632 0.281219 -0.241260 0.428120 0.066195 0.076343 0.128230 0.473763 0.041357 -0.006370 -0.353354 0.047588 -0.321454 0.026440 -0.028215 -0.047556 -0.115533 0.069320 0.135949 -0.309711 -0.182084 0.156420 -0.146390 -0.458281 -0.142880 -0.175637 0.033600 0.039624 -0.089483 0.306387 0.024899 -0.002049 -0.072557 -0.238935 -0.003677 0.174281 -0.024946 0.341704 0.369078 -0.116430 -0.197646 -0.114697 -0.098543 0.078404 0.076592 -0.079447 0.009759 0.163134 0.124797 -0.176131 0.174156 -0.024598 0.005805 -0.113304 0.057333 -0.079722 0.183306 -0.040795 0.068543 -0.234329 -0.132960 -0.212771 0.085333 0.017700 0.157849 0.299399 -0.489432 0.127920 -0.257660 -0.466892 0.192223 -0.004649 0.051197 -0.091442 0.226037 -0.112356 -0.254919 -0.382718 0.206154 -0.038419 0.090176
74 0.073851 -0.012981 -0.162415 0.205096 0.210405 -0.109564 0.157843 0.111999 -0.075485 0.124006 0.196430 0.180335 -0.012048 0.069183 -0.046004 0.119222 0.177828 0.005910 0.042744 -0.413203 -0.121174 0.346628 0.143584 -0.297901 0.007640 -0.244507 0.059306 0.083350 0.074564 0.118179 -0.111716 -0.224353 0.083986 -0.282176 0.072415 0.051098 0.276226 0.154036 0.249413 -0.064378 -0.186207 0.082801 -0.098705 0.137937 -0.498430 0.094860 0.164649 -0.097321 0.245195 -0.223412 0.449607 0.077728 0.065895 0.124285 0.473122 0.017046 0.000325 -0.354003 0.065898 -0.316827 -0.001016 -0.051860 -0.076622 -0.141453 0.079232 0.153978 -0.300968 -0.208096 0.167898 -0.117324 -0.476596 -0.132894 -0.159605 0.034898 0.029128 -0.072528 0.312981 0.034850 0.001308 -0.067559 -0.269355 -0.014090 0.166235 -0.030175 0.360241 0.360597 -0.124027 -0.212775 -0.102003 -0.107667 0.071648 0.073278 -0.097533 -0.005688 0.167771 0.122919 -0.183672 0.184976 -0.004970 -0.022418 -0.110643 0.061996 -0.085541 0.167985 -0.058208 0.085407 -0.203975 -0.124860 -0.182332 0.085473 0.013090 0.159286 0.303945 -0.478640 0.121885 -0.261745 -0.463354 0.202572 -0.017563 0.102399 -0.111279 0.216122 -0.153473 -0.206025 -0.410970 0.162434 -0.042994 0.074572
73 -0.053202 -0.108259 0.170139 0.071472 0.225526 0.076218 0.025788 0.177831 -0.085759 0.078211 -0.121574 -0.088168 -0.128435 -0.035994 0.034257 0.130233 0.171126 0.016721 0.095238 -0.108060 0.000961 -0.006409 0.102147 0.077312 -0.062027 -0.055183 -0.060255 -0.072759 0.056659 -0.076099 -0.044722 0.033367 0.089561 -0.083165 -0.046239 -0.019459 0.147276 0.128369 0.150480 0.103999 -0.012399 0.047478 0.049486 0.040562 -0.129390 -0.022455 0.022959 -0.092638 0.121231 0.036123 0.017610 -0.010900 0.052226 0.097783 0.195473 0.072198 -0.017931 -0.012753 -0.067901 -0.052204 0.017186 0.140141 -0.085415 -0.043896 0.009006 0.081537 -0.141421 -0.097110 0.118495 -0.122039 -0.008335 -0.262000 -0.135311 -0.026856 0.081161 0.181577 0.130190 0.106001 0.101790 -0.033128 -0.088084 0.221534 0.099536 -0.135325 0.083984 0.298473 0.013956 -0.188801 -0.084957 -0.065155 0.148723 0.131792 0.076422 -0.149042 0.131126 0.239422 -0.116842 -0.050019 0.001230 -0.111010 0.006175 0.004428 -0.022727 0.205617 0.137085 -0.098655 -0.183978 0.031777 -0.049932 0.050278 0.072587 0.139100 0.003205 -0.134872 0.013545 -0.074482 -0.028980 -0.070179 -0.029612 -0.249805 0.004695 0.081275 0.120993 -0.165670 0.010425 0.221558 0.064630 -0.061688
13 -0.059838 -0.129448 0.087337 0.017152 0.162795 0.040515 0.003604 0.169947 -0.210041 0.229147 0.119626 -0.038048 -0.190832 0.087666 -0.062110 -0.017662 0.151017 -0.078309 0.092274 -0.127925 0.065219 -0.157550 0.094632 0.102593 -0.133443 -0.037954 -0.080810 0.042659 -0.027804 -0.130005 -0.123279 0.108137 0.209864 -0.000289 -0.012993 -0.091464 0.090358 0.170709 0.242856 -0.017278 -0.004260 0.118375 0.179103 -0.023543 -0.288274 0.043609 0.125084 0.056867 -0.156652 0.289090 0.087762 0.059787 -0.071309 0.123443 0.201487 -0.159594 0.069000 -0.046801 -0.140174 -0.064536 -0.109123 0.083046 -0.134191 -0.250873 0.037809 0.164819 -0.086510 -0.159822 0.142681 0.081008 -0.060385 -0.155155 -0.092213 -0.018127 0.082307 0.168898 0.028531 0.167433 0.111703 -0.071653 -0.079137 0.141472 0.092389 -0.087128 0.097445 -0.007715 -0.010235 -0.247581 0.074362 -0.037500 0.231271 0.151296 -0.010700 -0.263925 -0.028136 0.205673 -0.122830 0.077728 -0.057595 -0.283289 -0.051881 0.099183 -0.013151 0.185569 0.045953 0.039083 -0.026615 0.062200 0.153581 -0.068419 0.159389 0.172930 -0.086605 -0.115855 -0.187934 -0.053019 -0.042983 0.118317 -0.071131 0.061554 -0.079657 0.088728 0.051606 0.136167 -0.122565 -0.053635 0.102688 -0.121118
34 -0.049577 -0.103823 0.120029 0.072089 0.197238 0.032562 0.034890 0.156774 -0.095849 0.111602 -0.020361 -0.046281 -0.121612 -0.006000 0.013386 0.083452 0.177548 -0.000037 0.081386 -0.114411 0.020885 -0.013455 0.098069 0.037366 -0.071872 -0.056300 -0.054825 -0.031157 0.041077 -0.065887 -0.069244 0.019440 0.081803 -0.082606 -0.032143 -0.028691 0.139157 0.154038 0.173156 0.064051 -0.017555 0.073528 0.068708 0.026832 -0.170570 0.020787 0.050616 -0.051801 0.039079 0.063488 0.065352 0.016373 0.025798 0.119989 0.196896 0.012081 0.016366 -0.034939 -0.042770 -0.059558 -0.024187 0.108347 -0.091965 -0.074201 0.035553 0.099267 -0.138023 -0.107096 0.109173 -0.068456 -0.050547 -0.202653 -0.102644 -0.008783 0.098518 0.174276 0.111783 0.102253 0.106244 -0.048319 -0.100226 0.159189 0.095391 -0.131147 0.105054 0.214482 -0.007280 -0.194579 -0.054202 -0.052024 0.131313 0.109610 0.057697 -0.145739 0.112533 0.196914 -0.112842 -0.003812 -0.009711 -0.131227 0.003230 0.010754 -0.026819 0.150575 0.079774 -0.059399 -0.137545 0.033082 0.006788 0.019351 0.065956 0.124307 0.014077 -0.134899 -0.033062 -0.061576 -0.053070 -0.014405 -0.049057 -0.120493 -0.030976 0.091493 0.065015 -0.084127 -0.060525 0.109843 0.074354 -0.061696
47 0.000745 -0.032712 -0.062998 0.197383 0.259592 -0.061767 0.115868 0.133543 -0.029473 0.111892 0.111859 0.106133 -0.053565 0.019868 0.001245 0.166198 0.238913 0.020456 0.066754 -0.300730 -0.079923 0.263871 0.147743 -0.209643 0.005278 -0.176817 0.030756 0.040486 0.092970 0.064611 -0.098036 -0.162437 0.012420 -0.278737 0.025941 0.051195 0.271385 0.201588 0.224981 0.013005 -0.135755 0.093568 -0.050267 0.116282 -0.382585 0.092361 0.080082 -0.107446 0.230349 -0.200266 0.327468 0.050299 0.081207 0.171850 0.411935 0.065235 0.024463 -0.236748 0.073890 -0.224937 0.013428 0.036359 -0.080898 -0.064805 0.097284 0.117093 -0.289389 -0.176150 0.109585 -0.148836 -0.331384 -0.187075 -0.148360 0.047545 0.096213 0.057710 0.285478 0.014659 0.058327 -0.060531 -0.238393 0.042352 0.153130 -0.119752 0.289815 0.408931 -0.103994 -0.222887 -0.130485 -0.086378 0.077334 0.083408 -0.000580 -0.033937 0.216856 0.164108 -0.177347 0.079257 -0.008697 -0.031303 -0.033429 0.018860 -0.085110 0.125429 -0.010799 -0.005763 -0.218273 -0.064801 -0.139251 0.078338 -0.006153 0.134669 0.261927 -0.391634 0.076647 -0.196016 -0.336960 0.067432 -0.071838 -0.016248 -0.063109 0.227290 -0.088503 -0.243064 -0.292450 0.185153 0.020138 0.038937
40 -0.057209 -0.086972 0.086411 0.105436 0.220655 -0.013647 0.066149 0.184338 -0.081550 0.081247 0.000516 -0.029628 -0.103881 -0.014079 0.052863 0.129869 0.242653 0.018756 0.083452 -0.147984 -0.020343 0.071805 0.119513 0.007643 -0.039307 -0.076297 -0.037181 -0.039968 0.049847 -0.059579 -0.049926 -0.009669 0.020670 -0.158846 -0.029664 -0.004547 0.199220 0.181599 0.199620 0.082104 -0.065456 0.032688 0.047307 0.073458 -0.198446 0.046874 0.028041 -0.108052 0.096924 -0.023974 0.116693 0.014012 0.064858 0.114765 0.259207 0.076663 0.003004 -0.061436 0.015036 -0.076112 -0.028550 0.099437 -0.130257 -0.049698 0.061987 0.132174 -0.189323 -0.144715 0.127340 -0.122156 -0.127059 -0.238054 -0.088978 -0.005647 0.102306 0.226776 0.197411 0.101336 0.125942 -0.036859 -0.195735 0.150571 0.113782 -0.178567 0.174688 0.351928 -0.035720 -0.234227 -0.079340 -0.098894 0.101635 0.089736 0.048992 -0.140909 0.202935 0.215684 -0.116093 -0.018878 0.046393 -0.110360 0.023408 -0.007349 -0.064026 0.126994 0.085766 -0.078859 -0.167486 0.029704 -0.035676 0.045668 0.029920 0.128307 0.081774 -0.174626 0.043216 -0.087322 -0.087741 -0.057698 -0.066302 -0.145454 -0.049116 0.100053 -0.001794 -0.144292 -0.115254 0.135521 0.067019 -0.047242
57 -0.017987 -0.053488 0.063260 0.135833 0.231404 0.035003 0.038134 0.128776 -0.050782 0.073654 -0.050862 -0.019308 -0.090893 -0.001771 0.006430 0.156769 0.165299 0.003359 0.092173 -0.184068 -0.046106 0.101103 0.103043 -0.047862 -0.023206 -0.102860 -0.012658 -0.010662 0.071256 -0.005500 -0.062220 -0.051479 0.078578 -0.151726 -0.000395 0.015054 0.196540 0.109802 0.164398 0.053901 -0.061250 0.071843 -0.010509 0.082290 -0.204743 -0.013174 0.031031 -0.075104 0.182617 -0.074248 0.145022 -0.009443 0.054313 0.130404 0.264768 0.062277 -0.025306 -0.110261 -0.040953 -0.135076 0.032310 0.107069 -0.067187 -0.025110 0.027222 0.070072 -0.171040 -0.100752 0.063047 -0.130486 -0.121059 -0.205229 -0.160252 0.010538 0.059184 0.056654 0.175874 0.034967 0.048997 -0.034690 -0.138521 0.133715 0.112994 -0.092099 0.131274 0.314714 -0.019111 -0.156046 -0.100946 -0.057735 0.124197 0.125450 0.015353 -0.100938 0.106291 0.188200 -0.130032 0.001641 -0.011674 -0.070343 -0.017635 0.019674 -0.026140 0.204382 0.116647 -0.057612 -0.192827 -0.003938 -0.105138 0.042636 0.048035 0.140231 0.110673 -0.260793 0.031209 -0.116784 -0.171454 0.003658 -0.032831 -0.175950 -0.005687 0.141474 0.053248 -0.221413 -0.096875 0.265188 0.022050 -0.001890
31 -0.095846 -0.161625 0.133119 0.026214 0.196536 0.027096 0.013032 0.185228 -0.204485 0.233014 0.103637 -0.061932 -0.212050 0.060655 -0.037324 -0.009679 0.215104 -0.061335 0.096546 -0.096770 0.099204 -0.176647 0.110835 0.135082 -0.151652 -0.010301 -0.100276 0.013071 -0.010242 -0.145240 -0.133128 0.112534 0.177809 -0.009160 -0.038400 -0.096005 0.109329 0.229615 0.269824 0.024520 0.013506 0.122580 0.211689 -0.030978 -0.259869 0.074903 0.109772 0.040484 -0.186622 0.301182 0.060295 0.071778 -0.056220 0.147829 0.204399 -0.141767 0.094974 -0.007328 -0.102610 -0.022071 -0.127057 0.111100 -0.151342 -0.231350 0.053031 0.179686 -0.116950 -0.162333 0.146768 0.069736 -0.028441 -0.192106 -0.076826 -0.012039 0.140036 0.283445 0.035641 0.190827 0.156759 -0.071845 -0.082238 0.168583 0.099101 -0.154083 0.100958 0.035727 -0.003256 -0.284840 0.049801 -0.037772 0.214716 0.131237 0.051366 -0.285774 0.034434 0.235929 -0.120669 0.053803 -0.049498 -0.306470 -0.000965 0.061006 -0.031105 0.153614 0.046048 -0.011861 -0.041538 0.088916 0.190355 -0.064365 0.152204 0.167824 -0.100638 -0.081479 -0.203335 -0.031983 0.004029 0.061700 -0.107111 0.040828 -0.089298 0.084053 0.063478 0.132735 -0.097840 -0.094160 0.141116 -0.154143
68 0.058318 0.000555 -0.078978 0.193299 0.247064 -0.017102 0.110810 0.100221 -0.051087 0.117782 0.079879 0.121671 -0.040091 0.053338 -0.066879 0.186367 0.155231 0.003168 0.076015 -0.348317 -0.126875 0.307819 0.130369 -0.235723 0.010724 -0.228464 0.051524 0.058072 0.103886 0.091983 -0.091229 -0.168786 0.089367 -0.247570 0.069402 0.045463 0.231098 0.150471 0.201766 -0.033608 -0.154541 0.099406 -0.106874 0.129997 -0.388856 0.006642 0.116709 -0.076924 0.291814 -0.209582 0.388548 0.049321 0.044720 0.161942 0.417165 0.027020 -0.000456 -0.309234 0.003687 -0.272262 0.043930 0.016914 -0.049287 -0.060248 0.047511 0.099942 -0.252434 -0.150166 0.088079 -0.126012 -0.353372 -0.165088 -0.229140 0.036363 0.027819 -0.116082 0.265097 -0.011129 -0.017333 -0.046514 -0.194648 0.024631 0.164160 -0.002646 0.279888 0.346193 -0.077599 -0.174686 -0.122916 -0.085791 0.110967 0.118573 -0.080475 -0.000144 0.111836 0.139837 -0.183546 0.102173 -0.036364 -0.006470 -0.105554 0.070093 -0.067425 0.212145 0.027352 0.049114 -0.220507 -0.125010 -0.205681 0.082973 0.031587 0.148481 0.266045 -0.457225 0.089674 -0.229121 -0.401381 0.155277 -0.023633 -0.014082 -0.046824 0.232953 -0.044600 -0.264857 -0.282820 0.273988 -0.026013 0.086737
51 -0.045626 -0.080010 0.079586 0.070433 0.170546 -0.002969 0.050272 0.160629 -0.107999 0.090587 0.008699 -0.025287 -0.105015 0.001999 0.023080 0.083306 0.189636 0.010383 0.068893 -0.123409 -0.006882 0.030715 0.095784 0.030571 -0.050468 -0.065957 -0.038306 -0.032403 0.031251 -0.071789 -0.054078 0.019778 0.042036 -0.103820 -0.023565 -0.019701 0.146140 0.164884 0.178525 0.058488 -0.050438 0.028683 0.066567 0.038990 -0.188246 0.039280 0.054326 -0.075671 0.046321 0.026761 0.093048 0.024797 0.038268 0.088816 0.221220 0.028397 0.010712 -0.044234 -0.008684 -0.062735 -0.038809 0.073403 -0.118355 -0.082153 0.050256 0.121529 -0.147996 -0.133134 0.137043 -0.070365 -0.099861 -0.199922 -0.073625 -0.026684 0.081101 0.200945 0.141179 0.110629 0.110474 -0.030980 -0.144808 0.142293 0.095100 -0.141629 0.146899 0.254194 -0.026028 -0.214838 -0.053185 -0.091285 0.118552 0.093877 0.039852 -0.139250 0.155594 0.193139 -0.108575 0.000330 0.033409 -0.122495 0.005785 0.008946 -0.050618 0.124492 0.063411 -0.050597 -0.119833 0.023914 -0.007714 0.033773 0.047497 0.114143 0.040095 -0.134158 0.014888 -0.077361 -0.053851 -0.026137 -0.049528 -0.089104 -0.055473 0.069741 0.004503 -0.076405 -0.095830 0.077849 0.065812 -0.060389
53 -0.043006 -0.078415 0.045008 0.142538 0.239712 -0.015794 0.062324 0.162508 -0.073149 0.097301 0.026721 -0.004228 -0.098635 0.001496 0.033636 0.138652 0.239112 0.000865 0.094269 -0.203321 -0.032423 0.101064 0.127939 -0.051017 -0.032441 -0.102919 -0.013704 -0.007770 0.057870 -0.028403 -0.070674 -0.047417 0.052263 -0.183386 -0.010112 0.006243 0.230906 0.164174 0.218392 0.057041 -0.086898 0.070628 0.027590 0.090305 -0.257718 0.039433 0.043669 -0.086556 0.121797 -0.054424 0.169864 0.011169 0.059854 0.141193 0.294750 0.051570 0.001435 -0.110687 -0.000788 -0.127020 -0.014392 0.093729 -0.119046 -0.056291 0.066665 0.117686 -0.203562 -0.146020 0.103119 -0.120801 -0.167290 -0.212845 -0.117567 0.017710 0.090558 0.150893 0.207443 0.066473 0.098428 -0.042764 -0.202682 0.125096 0.125789 -0.148497 0.184770 0.348769 -0.041167 -0.220806 -0.076959 -0.083618 0.113729 0.104964 0.016054 -0.133244 0.166266 0.205354 -0.134234 0.018209 0.017453 -0.110079 0.003461 0.009164 -0.051708 0.161026 0.079674 -0.054692 -0.186913 0.013616 -0.056654 0.032863 0.036085 0.142374 0.118409 -0.249422 0.030189 -0.113702 -0.161474 -0.009758 -0.068910 -0.115557 -0.052503 0.137389 -0.012164 -0.163445 -0.157353 0.173333 0.042048 -0.024448
46 -0.036532 -0.104402 0.112102 0.037246 0.174766 0.051913 0.056352 0.181009 -0.142860 0.133315 -0.014252 -0.028734 -0.128903 0.019656 -0.015211 0.078740 0.142294 0.010224 0.090299 -0.143497 0.000716 -0.010717 0.091198 0.052492 -0.087931 -0.078525 -0.037244 -0.018860 0.029192 -0.085514 -0.058354 0.043929 0.114111 -0.067971 -0.033281 -0.042623 0.115403 0.162952 0.189621 0.039229 -0.026917 0.053860 0.068439 0.025348 -0.215260 -0.002854 0.083504 -0.057543 0.040716 0.082055 0.098033 0.028724 0.017172 0.081279 0.212470 -0.014257 0.019287 -0.056527 -0.056848 -0.070758 -0.028074 0.088933 -0.117838 -0.134013 0.035840 0.128903 -0.133400 -0.137340 0.171822 -0.036473 -0.062480 -0.218498 -0.122017 -0.034623 0.077214 0.165290 0.129176 0.132435 0.102488 -0.041100 -0.086230 0.187895 0.101609 -0.099982 0.137549 0.205132 0.001339 -0.225835 -0.045287 -0.087811 0.161248 0.125348 0.024277 -0.151625 0.108157 0.215829 -0.121053 0.019395 -0.002631 -0.144258 -0.035278 0.040960 -0.047114 0.183440 0.062318 -0.020334 -0.130690 0.010435 0.007771 0.038746 0.077533 0.131441 -0.004267 -0.138886 -0.018445 -0.087693 -0.055666 0.022227 -0.038761 -0.110836 -0.054486 0.084447 0.077995 -0.041054 -0.072845 0.097136 0.066902 -0.073150
9 -0.088032 -0.186859 0.302851 0.091736 0.358409 0.101857 0.031054 0.105565 0.055216 0.122071 -0.177432 -0.123764 -0.151662 -0.115513 0.003098 0.133322 0.186552 0.066268 0.097091 -0.010543 0.160037 -0.059409 0.169921 0.012399 -0.154007 -0.001707 -0.138991 -0.081323 0.186736 0.032877 -0.124799 -0.057404 0.080227 -0.055504 -0.101640 -0.005664 0.148933 0.270191 0.143017 0.155897 0.108160 0.236964 0.052406 -0.067045 -0.084851 0.036029 0.035450 -0.036233 0.093959 0.052797 -0.023821 0.047737 0.065490 0.268748 0.175749 0.056009 0.100451 0.014618 0.011882 -0.016287 0.044606 0.232353 0.090707 0.038729 0.009859 0.022246 -0.247664 -0.019155 0.010499 -0.161353 0.091021 -0.268662 -0.188547 0.061035 0.275185 0.288582 0.074002 0.021390 0.148158 -0.102524 0.067860 0.221460 0.141131 -0.198087 -0.004179 0.259011 -0.007742 -0.186809 -0.179671 0.120286 0.049656 0.062490 0.285013 -0.072569 0.168539 0.221374 -0.131217 -0.036745 -0.136999 -0.049271 0.087952 -0.061930 0.003241 0.123335 0.045511 -0.216372 -0.266275 0.038104 0.006916 0.037220 0.066915 0.100105 -0.046712 -0.112472 -0.165765 -0.015111 -0.067257 -0.056344 -0.091275 -0.269649 0.046418 0.178474 0.255522 -0.233079 0.104318 0.127108 0.218127 -0.052113
33 -0.047957 -0.113623 0.112753 0.040757 0.182358 0.046620 0.036030 0.160427 -0.138341 0.154122 0.015944 -0.042273 -0.150383 0.029488 -0.031504 0.048617 0.149011 -0.020214 0.083138 -0.116489 0.037269 -0.063220 0.098583 0.060148 -0.101342 -0.050896 -0.065584 -0.012676 0.026694 -0.082369 -0.087849 0.048475 0.139318 -0.039914 -0.030608 -0.051766 0.102282 0.168236 0.187170 0.031253 -0.004159 0.083176 0.101856 -0.002940 -0.215526 0.023411 0.087418 -0.018673 -0.014685 0.144274 0.076694 0.039600 -0.010921 0.111413 0.199378 -0.048370 0.044111 -0.042668 -0.076135 -0.061470 -0.048678 0.093462 -0.087435 -0.144381 0.027591 0.126148 -0.123355 -0.124048 0.133359 -0.011101 -0.050238 -0.193831 -0.113496 -0.022326 0.090744 0.165549 0.078952 0.130241 0.106950 -0.052082 -0.061252 0.162278 0.097722 -0.102509 0.099399 0.129734 -0.008625 -0.213785 -0.016863 -0.043670 0.164828 0.124502 0.038191 -0.169983 0.063001 0.200854 -0.116001 0.026842 -0.026278 -0.174829 -0.030036 0.050445 -0.018519 0.167484 0.057619 -0.021855 -0.099525 0.023678 0.049140 0.004770 0.102500 0.140036 -0.036064 -0.121391 -0.083048 -0.060436 -0.043739 0.045856 -0.049851 -0.061349 -0.050069 0.088070 0.076751 -0.008768 -0.067164 0.045068 0.086661 -0.083801
48 0.001868 -0.046300 -0.045861 0.171043 0.257908 -0.046681 0.120330 0.158548 -0.080939 0.134669 0.112623 0.100258 -0.074143 0.033128 -0.018796 0.145462 0.230971 0.017336 0.072944 -0.306056 -0.079124 0.230670 0.150864 -0.172892 -0.013457 -0.182390 0.020230 0.038937 0.082564 0.032064 -0.104370 -0.122486 0.045359 -0.251302 0.026059 0.023878 0.252650 0.213396 0.243325 0.002580 -0.134691 0.083061 -0.028598 0.101541 -0.403096 0.078459 0.106461 -0.100581 0.191362 -0.133139 0.326286 0.061308 0.058046 0.161209 0.417589 0.031742 0.031500 -0.228499 0.042653 -0.222132 -0.005932 0.035824 -0.096985 -0.108627 0.094632 0.142219 -0.277450 -0.192666 0.142783 -0.118010 -0.327514 -0.204335 -0.162193 0.026968 0.092145 0.076109 0.269834 0.047926 0.068119 -0.058215 -0.233459 0.068265 0.153397 -0.110870 0.300767 0.373180 -0.091814 -0.255925 -0.105044 -0.108144 0.115120 0.099452 -0.012877 -0.069185 0.192626 0.183020 -0.184128 0.084343 -0.002785 -0.074510 -0.051934 0.045978 -0.080230 0.156356 0.000238 0.012299 -0.204545 -0.060149 -0.115976 0.074486 0.021810 0.152150 0.223708 -0.379043 0.055760 -0.189669 -0.305257 0.086421 -0.064304 -0.009791 -0.077888 0.211527 -0.067404 -0.196687 -0.281585 0.165843 0.025690 0.012264
7 -0.098014 -0.202265 0.343704 0.065036 0.346576 0.119327 0.036505 0.160995 -0.007827 0.128013 -0.209144 -0.145380 -0.182411 -0.113052 0.018860 0.134902 0.197366 0.067026 0.107523 -0.013573 0.140719 -0.086206 0.171057 0.075119 -0.167377 -0.004370 -0.152638 -0.107217 0.167362 -0.023937 -0.109537 -0.007851 0.099301 -0.038690 -0.113069 -0.032972 0.141095 0.274123 0.161339 0.179543 0.098653 0.195263 0.084194 -0.064343 -0.087069 0.015535 0.035674 -0.072577 0.086901 0.089620 -0.056682 0.036675 0.073283 0.240295 0.184298 0.066787 0.079417 0.044088 -0.025513 0.000721 0.026544 0.240957 0.034101 0.011663 0.005257 0.054118 -0.236249 -0.050246 0.079273 -0.164125 0.109753 -0.321742 -0.191552 0.021256 0.252304 0.337121 0.080320 0.088624 0.167552 -0.097493 0.047159 0.283392 0.141609 -0.216477 0.008706 0.289627 0.003928 -0.230107 -0.173378 0.063952 0.102275 0.099218 0.272057 -0.119187 0.186167 0.274390 -0.141469 -0.057449 -0.103222 -0.085558 0.075449 -0.049798 -0.000644 0.170956 0.093286 -0.223542 -0.261359 0.046748 0.012788 0.053042 0.083209 0.125948 -0.082224 -0.086106 -0.131321 -0.025618 -0.009142 -0.091190 -0.078697 -0.319488 0.039007 0.144573 0.271727 -0.212979 0.125513 0.151701 0.212207 -0.080547
14 -0.038515 -0.104088 0.154842 0.054403 0.224137 0.090552 0.029255 0.154586 -0.109229 0.128169 -0.079395 -0.060803 -0.141888 -0.002677 -0.029728 0.099062 0.123127 0.003004 0.100566 -0.120713 0.022884 -0.029382 0.097291 0.051036 -0.092382 -0.069345 -0.064027 -0.036962 0.064520 -0.055369 -0.077812 0.032700 0.140749 -0.049007 -0.033931 -0.040465 0.114375 0.149521 0.159765 0.062581 0.002061 0.087808 0.052679 0.013563 -0.178748 -0.023839 0.075049 -0.048895 0.080183 0.085204 0.057514 0.016663 0.019849 0.126898 0.209033 -0.003385 0.018039 -0.046650 -0.089554 -0.072717 0.004636 0.125720 -0.052160 -0.090060 0.004517 0.088349 -0.142082 -0.102765 0.122018 -0.070561 -0.018421 -0.230856 -0.164168 -0.027568 0.089605 0.130275 0.095910 0.107274 0.085157 -0.050709 -0.033022 0.196627 0.112159 -0.086331 0.078430 0.194144 0.011265 -0.185504 -0.063073 -0.033680 0.162348 0.135961 0.056013 -0.133769 0.070085 0.218984 -0.125073 0.001147 -0.040642 -0.118815 -0.026673 0.045130 -0.012232 0.214697 0.096788 -0.062717 -0.153128 0.007890 -0.026287 0.039485 0.097115 0.147275 -0.018528 -0.151017 -0.043044 -0.079443 -0.058228 0.018265 -0.031078 -0.162971 -0.003624 0.100750 0.137689 -0.112570 -0.013565 0.162037 0.083090 -0.058073
5 -0.084219 -0.167619 0.274042 0.067454 0.298089 0.098828 0.038553 0.153878 -0.023509 0.110379 -0.163526 -0.116247 -0.157495 -0.084961 0.013128 0.121134 0.183213 0.054563 0.096757 -0.037637 0.101313 -0.056637 0.146814 0.061454 -0.136141 -0.018327 -0.115483 -0.085652 0.128299 -0.027772 -0.094949 -0.005295 0.083603 -0.047159 -0.085367 -0.023691 0.133319 0.228083 0.154089 0.143607 0.066849 0.154938 0.066909 -0.040773 -0.096752 0.013918 0.043214 -0.064994 0.084497 0.073646 -0.026221 0.028985 0.063342 0.196978 0.181795 0.060478 0.058510 0.020727 -0.023998 -0.011907 0.022346 0.198242 0.005863 -0.007430 0.016262 0.060127 -0.206141 -0.064847 0.087304 -0.137923 0.060459 -0.280376 -0.162813 0.008447 0.207243 0.281201 0.093540 0.083433 0.148746 -0.081525 0.015368 0.238600 0.127183 -0.182960 0.031004 0.266966 -0.000358 -0.207601 -0.142615 0.031492 0.095438 0.091349 0.215047 -0.111975 0.173244 0.245559 -0.125474 -0.043811 -0.071555 -0.088458 0.053827 -0.038057 -0.014057 0.155349 0.081805 -0.173975 -0.227997 0.037193 0.001534 0.046585 0.070947 0.123932 -0.052901 -0.097898 -0.088566 -0.037938 -0.020204 -0.072364 -0.069609 -0.265104 0.015717 0.126727 0.214553 -0.185185 0.074563 0.135896 0.172201 -0.071810
16 -0.048459 -0.119167 0.156085 0.029652 0.195476 0.090758 0.029593 0.181716 -0.163373 0.151356 -0.047979 -0.068767 -0.164281 0.017449 -0.034668 0.071327 0.129109 -0.013883 0.097584 -0.113573 0.024792 -0.072543 0.089419 0.098402 -0.109341 -0.058561 -0.070878 -0.030725 0.024835 -0.097102 -0.075191 0.076379 0.169407 -0.025864 -0.037566 -0.065186 0.094804 0.153484 0.185822 0.050248 0.001620 0.071706 0.096848 0.006335 -0.198283 -0.018231 0.091619 -0.044928 0.020996 0.158543 0.052514 0.027243 -0.004912 0.097622 0.197518 -0.032483 0.018240 -0.028078 -0.119194 -0.055589 -0.024262 0.114990 -0.092209 -0.146966 0.009403 0.120659 -0.118411 -0.126642 0.159703 -0.028199 -0.019890 -0.241710 -0.142589 -0.043471 0.073499 0.155197 0.080373 0.155273 0.103770 -0.051514 -0.049461 0.218431 0.103686 -0.091257 0.089890 0.156169 0.018619 -0.220593 -0.025126 -0.058932 0.203093 0.155080 0.039605 -0.181696 0.056128 0.239627 -0.130749 0.011542 -0.023262 -0.179540 -0.042102 0.064810 -0.019511 0.226902 0.103755 -0.032396 -0.114720 0.020864 0.018123 0.022916 0.117207 0.157188 -0.053470 -0.119906 -0.063138 -0.071211 -0.024567 0.027096 -0.032654 -0.137162 -0.032644 0.076511 0.126539 -0.035682 -0.023931 0.114848 0.080722 -0.089276
41 -0.057219 -0.111798 0.126850 0.070589 0.215560 0.022934 0.043583 0.142521 -0.081923 0.124325 -0.005093 -0.042482 -0.128173 -0.011789 0.006592 0.078239 0.190262 0.008931 0.078117 -0.102315 0.047963 -0.017415 0.116801 0.024702 -0.085773 -0.047416 -0.066661 -0.029451 0.056671 -0.050466 -0.084579 0.005164 0.072804 -0.077364 -0.042572 -0.021272 0.143941 0.195964 0.182303 0.066440 -0.003770 0.095046 0.074595 0.009558 -0.184114 0.045748 0.057532 -0.041343 0.019320 0.070507 0.077453 0.039386 0.025438 0.141712 0.202530 0.007551 0.046246 -0.039408 -0.012873 -0.055529 -0.031458 0.108772 -0.069424 -0.076933 0.048034 0.107410 -0.165262 -0.113305 0.106458 -0.063146 -0.055680 -0.201537 -0.103345 0.003110 0.133903 0.213907 0.109403 0.097245 0.118801 -0.058822 -0.087750 0.145314 0.104467 -0.150964 0.111356 0.212552 -0.018633 -0.215096 -0.058813 -0.032151 0.109181 0.087645 0.086221 -0.139684 0.132856 0.190652 -0.110658 0.008054 -0.022674 -0.130698 0.019786 0.006539 -0.037609 0.115112 0.047926 -0.069495 -0.137305 0.035724 0.028290 0.016121 0.067368 0.116397 0.012049 -0.127462 -0.062853 -0.057279 -0.060907 -0.009444 -0.064375 -0.094015 -0.034248 0.105168 0.062707 -0.070243 -0.064411 0.055007 0.104280 -0.066428
12 -0.050927 -0.107811 0.120810 0.064066 0.200986 0.033465 0.035057 0.137198 -0.092894 0.128887 -0.008099 -0.042467 -0.127231 0.004785 -0.011575 0.077894 0.162872 0.004842 0.078711 -0.111456 0.033102 -0.025063 0.101434 0.030661 -0.086230 -0.055779 -0.058743 -0.015547 0.050582 -0.048345 -0.076639 0.015378 0.094752 -0.064749 -0.032806 -0.033318 0.125179 0.167413 0.174400 0.050500 -0.003605 0.095450 0.075013 0.005582 -0.182616 0.023552 0.061470 -0.032999 0.027099 0.081647 0.078518 0.032694 0.016518 0.130424 0.193563 -0.008920 0.038008 -0.042893 -0.042855 -0.057466 -0.023286 0.109528 -0.065945 -0.086547 0.035284 0.099910 -0.144501 -0.108870 0.101399 -0.051499 -0.047213 -0.196353 -0.111832 -0.002054 0.107140 0.175308 0.100618 0.095882 0.101609 -0.050919 -0.066217 0.152963 0.095870 -0.121406 0.098887 0.184889 -0.009271 -0.199250 -0.047752 -0.031045 0.125802 0.101039 0.068834 -0.140548 0.097524 0.186089 -0.112232 0.014998 -0.031213 -0.130896 -0.004097 0.021041 -0.029277 0.143587 0.052824 -0.054056 -0.129354 0.020311 0.023568 0.012221 0.073207 0.122521 -0.003399 -0.130846 -0.063220 -0.059610 -0.066748 0.014428 -0.054628 -0.091490 -0.031980 0.101302 0.074890 -0.067612 -0.053057 0.080733 0.090353 -0.063065
15 -0.042791 -0.103554 0.145152 0.034686 0.180108 0.070366 0.042574 0.184251 -0.143973 0.122476 -0.057587 -0.051735 -0.140633 0.002491 -0.008900 0.085485 0.136868 0.009662 0.087221 -0.110012 0.003644 -0.027026 0.088739 0.084976 -0.089774 -0.066600 -0.059388 -0.049613 0.031177 -0.090404 -0.053342 0.058628 0.116492 -0.045575 -0.034226 -0.049282 0.097969 0.150284 0.172567 0.060657 -0.012401 0.040385 0.074918 0.016729 -0.181252 -0.010209 0.076451 -0.072158 0.046586 0.108678 0.052344 0.020255 0.020791 0.079731 0.196685 0.000208 0.008525 -0.025211 -0.078918 -0.052642 -0.021915 0.102819 -0.101522 -0.117155 0.017819 0.122866 -0.121654 -0.125788 0.170766 -0.051113 -0.033645 -0.238070 -0.122422 -0.048609 0.071079 0.176642 0.106319 0.149936 0.107942 -0.035122 -0.070297 0.203902 0.096578 -0.108048 0.113998 0.205960 0.010246 -0.218230 -0.042140 -0.079779 0.173775 0.134601 0.042932 -0.157078 0.098225 0.230584 -0.121639 -0.004269 0.008286 -0.142150 -0.024767 0.038469 -0.028812 0.194007 0.093380 -0.048655 -0.122325 0.009637 -0.006639 0.043057 0.087262 0.144737 -0.029529 -0.111967 -0.015638 -0.077850 -0.015612 -0.001680 -0.029838 -0.142416 -0.032577 0.061271 0.096870 -0.061857 -0.028681 0.122576 0.071479 -0.081814
1 -0.094280 -0.183612 0.292066 0.064543 0.313758 0.096714 0.034930 0.146721 -0.024012 0.129565 -0.154030 -0.126902 -0.168962 -0.083986 0.004684 0.111014 0.197564 0.049069 0.093472 -0.023544 0.135112 -0.084406 0.157752 0.068756 -0.154699 -0.009900 -0.133898 -0.085888 0.138606 -0.022612 -0.111042 -0.006157 0.095300 -0.041831 -0.099197 -0.032654 0.133901 0.258025 0.170193 0.150933 0.083117 0.182995 0.084300 -0.055593 -0.104924 0.029637 0.048490 -0.050207 0.056148 0.097468 -0.027290 0.040759 0.052094 0.220482 0.186012 0.043952 0.078087 0.031528 -0.022047 -0.007970 0.007090 0.210130 0.021764 -0.011625 0.021506 0.064022 -0.214646 -0.060930 0.075397 -0.130269 0.075668 -0.280348 -0.164564 0.024580 0.233634 0.313400 0.073366 0.083930 0.161856 -0.086562 0.028944 0.238310 0.131049 -0.203286 0.026237 0.249272 -0.000687 -0.219714 -0.142080 0.053311 0.098570 0.083258 0.237088 -0.119418 0.164261 0.247674 -0.132160 -0.040468 -0.090396 -0.097429 0.072658 -0.036220 -0.006563 0.139313 0.066539 -0.186205 -0.227050 0.048435 0.032108 0.034666 0.083055 0.118270 -0.069188 -0.082631 -0.131157 -0.021874 -0.019753 -0.061749 -0.082513 -0.246892 0.021965 0.136362 0.221386 -0.163847 0.087282 0.102368 0.198743 -0.078656
8 -0.068238 -0.158210 0.257542 0.054520 0.280546 0.101343 0.036827 0.145546 -0.041125 0.129588 -0.143369 -0.103031 -0.159953 -0.068773 -0.011970 0.111343 0.159949 0.041249 0.097629 -0.045034 0.100129 -0.064067 0.138590 0.056989 -0.135612 -0.027387 -0.109623 -0.070911 0.123677 -0.025494 -0.097479 0.007817 0.108344 -0.034487 -0.079279 -0.035688 0.112862 0.222788 0.154593 0.124527 0.061596 0.153567 0.068820 -0.041734 -0.119390 0.007715 0.058993 -0.054770 0.073642 0.094250 -0.007064 0.034409 0.040530 0.190698 0.184150 0.028232 0.062667 0.007932 -0.041291 -0.022252 0.018476 0.177985 0.012617 -0.037963 0.012797 0.065438 -0.193599 -0.063073 0.096617 -0.106362 0.050602 -0.266439 -0.167934 0.003255 0.187338 0.245912 0.079783 0.092292 0.136952 -0.077939 0.029642 0.233058 0.124524 -0.157794 0.037594 0.224738 0.006599 -0.206418 -0.121394 0.030895 0.113075 0.097158 0.186725 -0.113965 0.138147 0.235352 -0.129427 -0.028790 -0.075349 -0.094665 0.030601 -0.013189 -0.006693 0.161895 0.075405 -0.146415 -0.207780 0.021384 0.006708 0.043201 0.083862 0.122845 -0.060044 -0.098200 -0.101040 -0.040770 -0.033703 -0.033131 -0.059108 -0.230938 0.015628 0.125912 0.206281 -0.151924 0.066574 0.122228 0.158366 -0.070971
10 -0.083265 -0.168375 0.258862 0.066134 0.297291 0.088095 0.039756 0.147652 -0.030480 0.118507 -0.141966 -0.104831 -0.157670 -0.077006 0.008526 0.114038 0.193075 0.049370 0.093523 -0.044014 0.106290 -0.058975 0.144784 0.054184 -0.135627 -0.026070 -0.116945 -0.080630 0.125778 -0.027575 -0.097433 -0.007182 0.083545 -0.053681 -0.091031 -0.029719 0.131269 0.244128 0.162771 0.140451 0.065340 0.154861 0.073536 -0.040546 -0.116813 0.030735 0.047266 -0.058802 0.066086 0.073092 -0.012684 0.036999 0.057805 0.199169 0.186060 0.052440 0.068580 0.019322 -0.012873 -0.018945 0.011901 0.190212 0.001556 -0.020873 0.017832 0.069168 -0.209407 -0.069371 0.086616 -0.130179 0.054581 -0.274296 -0.156505 0.017771 0.211856 0.293979 0.094611 0.083716 0.152565 -0.083818 0.010960 0.230081 0.124739 -0.190872 0.045684 0.261288 -0.005490 -0.214705 -0.136524 0.035557 0.093457 0.083088 0.211701 -0.115909 0.168695 0.236805 -0.122893 -0.034412 -0.073761 -0.092780 0.058815 -0.033967 -0.014475 0.143996 0.072023 -0.164523 -0.219975 0.040020 0.017396 0.045264 0.075087 0.119235 -0.049072 -0.096470 -0.102491 -0.034950 -0.030680 -0.062408 -0.076641 -0.235647 0.012305 0.126226 0.195983 -0.167857 0.059750 0.114949 0.171605 -0.073155
6 -0.100732 -0.188371 0.298983 0.083403 0.334843 0.068635 0.041661 0.132741 0.029798 0.112387 -0.159166 -0.127385 -0.157602 -0.116588 0.028242 0.124998 0.223235 0.062278 0.090573 -0.005235 0.154702 -0.067548 0.172644 0.039412 -0.145000 -0.000461 -0.137721 -0.094535 0.162526 0.002321 -0.111232 -0.040521 0.053530 -0.061070 -0.104009 -0.010982 0.158837 0.280174 0.161548 0.171905 0.092429 0.203728 0.082831 -0.058294 -0.078423 0.057051 0.024097 -0.054199 0.062715 0.054830 -0.036910 0.045014 0.078063 0.246292 0.178373 0.071886 0.092216 0.032988 0.024530 0.001110 0.013824 0.223061 0.040175 0.027112 0.030537 0.047916 -0.244298 -0.049059 0.047544 -0.157485 0.079863 -0.278212 -0.153678 0.050953 0.269192 0.351828 0.091574 0.058308 0.167852 -0.099693 0.023317 0.223066 0.129847 -0.233956 0.021227 0.283957 -0.015688 -0.216103 -0.167392 0.080312 0.046630 0.050261 0.280089 -0.099178 0.206152 0.232432 -0.119930 -0.047998 -0.094014 -0.067779 0.108897 -0.071750 -0.009467 0.100210 0.050926 -0.222026 -0.245486 0.053658 0.035046 0.038067 0.059058 0.101943 -0.048445 -0.078061 -0.133477 -0.014717 -0.029519 -0.093845 -0.098284 -0.259991 0.022381 0.148524 0.219801 -0.202588 0.089985 0.088870 0.218796 -0.070714
54 -0.053044 -0.105995 0.117832 0.071664 0.215424 0.039560 0.025833 0.136503 -0.084069 0.120144 -0.023437 -0.048705 -0.126711 -0.002317 -0.008820 0.084755 0.162536 -0.005236 0.085667 -0.119211 0.031563 -0.023441 0.105981 0.026822 -0.081386 -0.053916 -0.059418 -0.018302 0.059527 -0.047590 -0.080624 0.010030 0.101787 -0.070011 -0.034505 -0.027511 0.138751 0.165630 0.173735 0.056478 -0.007244 0.098625 0.068595 0.011039 -0.184048 0.017792 0.061552 -0.027707 0.039468 0.069685 0.079222 0.021807 0.023550 0.142526 0.203259 -0.003030 0.030898 -0.046666 -0.052417 -0.066962 -0.017688 0.116179 -0.064666 -0.078894 0.031725 0.093384 -0.152019 -0.103762 0.090391 -0.061636 -0.049937 -0.194315 -0.123890 0.007837 0.102512 0.158336 0.098101 0.088963 0.094221 -0.059152 -0.077182 0.151881 0.104324 -0.120465 0.089034 0.190312 -0.018429 -0.192450 -0.049833 -0.020824 0.125734 0.101896 0.064340 -0.144672 0.084772 0.188762 -0.116974 0.012793 -0.035712 -0.127560 -0.003804 0.025388 -0.021052 0.157331 0.069735 -0.061337 -0.136184 0.026049 0.012597 0.010841 0.079297 0.129623 0.002195 -0.149271 -0.069671 -0.061557 -0.076095 0.009671 -0.058504 -0.110241 -0.026580 0.111935 0.078856 -0.089407 -0.054763 0.101046 0.085416 -0.055311
