77 16
11 0.221770 -0.097101 0.597625 0.323559 0.050466 0.360181 0.125637 0.150101 0.374720 0.302079 -0.175843 0.018561 0.221987 -0.380771 0.219853 0.342016
56 0.366857 -0.160320 0.296728 0.286890 -0.195262 0.427212 -0.177971 0.029762 0.456210 0.352498 -0.531100 -0.093596 0.001532 -0.262798 0.349148 0.294577
59 0.073054 0.020526 0.465871 0.395899 0.054301 0.165361 0.331339 0.016810 -0.003187 0.400400 -0.454357 -0.364533 0.321565 -0.428569 0.684108 0.252408
63 0.034464 -0.332677 0.442509 0.381802 -0.282321 0.529905 0.033946 0.021491 0.134713 0.405393 -0.548053 -0.146288 0.213405 -0.674814 1.016818 0.247666
27 0.377753 -0.111133 0.442258 0.284290 0.293753 0.206342 -0.059716 -0.019187 0.333020 0.419044 -0.502699 -0.078822 0.195326 -0.222732 0.086440 0.395462
65 0.152042 -0.194972 0.284344 0.330405 -0.335357 0.318328 0.153293 -0.060605 0.171210 0.226921 -0.645357 -0.337742 0.195709 -0.542359 1.054309 0.104547
60 -0.019015 -0.071598 0.415529 0.379058 -0.330495 0.311438 0.211012 0.026230 0.120641 0.224871 -0.497930 -0.214321 0.351327 -0.510072 0.926217 0.195491
26 0.521920 -0.379286 0.193734 0.392113 0.023389 0.515992 -0.143508 0.127525 0.517927 0.448473 -0.358822 -0.022193 0.026499 -0.355947 -0.035527 0.260064
49 0.197411 -0.425203 0.389641 0.294692 -0.087400 0.420753 0.130897 -0.061859 0.170081 0.269585 -0.363651 -0.238472 0.290006 -0.665470 0.796892 0.209833
24 1.055380 0.058122 0.084487 0.216614 0.072010 0.114275 0.180338 0.054126 0.832402 0.232305 -0.736446 -0.589684 0.205948 0.136270 -0.082982 0.275008
28 0.561063 -0.010391 0.259582 0.351065 -0.029658 0.225382 0.231730 0.135200 0.576642 0.264548 -0.474817 -0.301766 0.230960 -0.155645 0.151399 0.233479
66 0.140629 -0.176722 0.346579 0.318111 -0.111821 0.348029 0.018326 -0.073587 0.020828 0.380845 -0.612444 -0.324729 0.080895 -0.525072 0.864164 0.147708
64 -0.032446 -0.212814 0.492720 0.471812 -0.244744 0.435208 0.253302 0.056549 0.091914 0.378087 -0.533808 -0.264555 0.284183 -0.704809 1.072876 0.193459
62 0.087953 -0.181281 0.350529 0.384113 -0.236865 0.336457 0.142750 -0.037708 0.072973 0.315993 -0.577176 -0.336297 0.248538 -0.621453 1.013945 0.180880
2 0.144625 0.380854 0.679925 0.412662 0.710787 -0.130957 0.592627 -0.004389 -0.125894 0.561265 -0.499956 -0.500905 0.453452 -0.207987 0.241119 0.450082
25 0.446955 -0.438575 0.276230 0.370451 0.007996 0.563625 -0.131022 0.180825 0.515159 0.448446 -0.281181 0.020077 0.026105 -0.443808 -0.003842 0.300159
50 0.181470 -0.182625 0.580342 0.243597 -0.095475 0.290752 -0.139527 0.085968 0.465440 0.355744 -0.391962 0.207391 0.145295 -0.251059 0.452895 0.482827
70 0.383486 -0.562230 0.363694 0.434554 0.183318 0.717174 -0.199827 0.249803 0.514886 0.606479 -0.146892 0.189941 -0.000924 -0.585549 -0.149890 0.341425
18 1.400529 0.006635 -0.166105 0.211294 0.118736 0.209949 -0.016522 -0.026709 0.989615 0.347025 -1.032325 -0.803695 0.064801 0.114019 -0.282735 0.167405
52 0.232201 -0.082832 0.506602 0.217356 -0.077447 0.194745 -0.137506 0.063098 0.505618 0.363967 -0.535797 0.125792 0.177656 -0.153353 0.360434 0.452566
21 1.263035 0.107661 0.045095 0.265941 0.114385 0.115884 0.143391 0.024646 0.947525 0.263987 -0.876336 -0.654786 0.170888 0.161273 -0.255986 0.181169
69 0.310469 -0.484403 0.408184 0.473649 0.032152 0.643084 -0.032729 0.291517 0.492377 0.459043 -0.057635 0.165141 0.110394 -0.591450 0.011557 0.341707
22 1.311132 -0.004810 0.060855 0.256407 0.126054 0.176365 0.131415 0.067239 0.990870 0.334757 -0.860195 -0.661638 0.184694 0.104510 -0.309439 0.245339
17 1.286101 -0.045871 -0.122266 0.233639 0.118693 0.176629 0.033895 -0.047861 0.866826 0.273902 -0.952383 -0.726995 0.076086 0.020960 -0.234036 0.112699
23 1.260182 0.018816 -0.174829 0.175349 0.122166 0.131159 0.009153 -0.025485 0.833114 0.295854 -0.986265 -0.735967 0.011296 0.131399 -0.195389 0.121495
19 1.413647 -0.170613 -0.200037 0.184900 0.034662 0.273062 -0.098079 -0.023548 0.963269 0.288641 -1.022524 -0.711988 0.010639 0.077792 -0.198717 0.151022
20 1.236740 0.033479 -0.008874 0.239942 0.036143 0.169413 0.031479 -0.032428 0.922353 0.307489 -0.948187 -0.679779 0.132321 0.114943 -0.167459 0.225741
4 0.224022 0.439416 0.792728 0.354616 0.851424 -0.220598 0.672850 0.083781 0.026464 0.554293 -0.408734 -0.427708 0.484402 -0.118530 -0.016237 0.564752
42 0.334596 -0.478380 0.402598 0.375575 -0.074024 0.673632 -0.166416 0.142459 0.439610 0.447450 -0.247521 0.066179 0.036001 -0.605142 0.267811 0.314348
71 0.090221 -0.511332 0.496700 0.466376 0.145757 0.640442 0.026521 0.215128 0.284089 0.532706 -0.107635 0.137023 0.181128 -0.748565 0.244525 0.341716
61 0.074466 -0.113263 0.470205 0.354238 -0.272714 0.284082 0.254793 0.014244 0.221810 0.265791 -0.412894 -0.210297 0.315645 -0.481133 0.859094 0.243432
3 0.356352 0.342723 0.650504 0.343665 0.810255 -0.138710 0.481441 0.010378 -0.015796 0.567564 -0.500005 -0.448300 0.323694 -0.140569 -0.010155 0.460840
36 0.369620 0.024173 0.384711 0.516368 -0.452031 0.224964 0.629928 0.357773 0.914247 0.147698 -0.028047 -0.185203 0.662155 -0.080922 0.051691 0.236819
58 0.112188 -0.207943 0.177061 0.359389 -0.500956 0.351839 0.063581 -0.030852 0.115565 0.260836 -0.653998 -0.437584 0.224699 -0.515696 1.059021 0.133225
29 0.496262 0.000246 0.630789 0.403010 0.161090 0.287536 0.135028 0.141610 0.484717 0.372404 -0.161546 -0.105450 0.261951 -0.238870 -0.085542 0.393397
35 0.411835 0.053077 0.594119 0.580130 -0.427496 0.235417 0.638774 0.482608 1.067147 0.208866 0.062051 -0.094032 0.687431 -0.021795 -0.130428 0.355561
67 0.069753 -0.186284 0.480178 0.340533 -0.378815 0.308634 0.198849 -0.026302 0.136788 0.279498 -0.608681 -0.307189 0.362251 -0.612636 1.183340 0.194923
76 0.449921 -0.495341 0.300038 0.398321 0.080259 0.607599 -0.056683 0.148463 0.426184 0.450259 -0.237144 -0.033157 0.072690 -0.538373 0.047506 0.233929
37 0.259276 0.056488 0.675615 0.658103 -0.447168 0.249693 0.703613 0.512043 0.989815 0.220834 0.205845 0.052348 0.791934 -0.066460 -0.088654 0.452524
39 0.232863 0.035885 0.785183 0.617360 -0.173895 0.218241 0.734308 0.459872 0.860495 0.299136 0.226584 0.035303 0.774834 -0.194121 -0.042747 0.452757
38 0.344858 0.049083 0.643447 0.620883 -0.354224 0.272019 0.689915 0.472700 0.998558 0.224006 0.128886 -0.028178 0.722731 -0.099234 -0.080498 0.363071
72 0.225636 -0.564621 0.452598 0.418220 0.116497 0.629775 -0.095683 0.152455 0.284236 0.559223 -0.301749 0.037600 0.027287 -0.726486 0.350213 0.324591
30 0.393258 0.012309 0.543588 0.528312 -0.142606 0.232420 0.499029 0.362048 0.807279 0.282200 0.006051 -0.063372 0.552495 -0.130849 -0.118136 0.333932
32 0.704844 -0.094174 0.226370 0.352060 0.013744 0.336773 0.060281 0.039032 0.730927 0.217505 -0.375311 -0.266314 0.185042 -0.070204 -0.088336 0.288559
77 0.140393 -0.243570 0.254303 0.334822 -0.301833 0.348802 0.142214 -0.028519 0.102630 0.297292 -0.638755 -0.418425 0.194267 -0.569145 1.018324 0.130776
45 0.268463 -0.001132 0.774267 0.377721 0.197260 0.291034 0.154759 0.186706 0.375750 0.336886 -0.120247 -0.031525 0.264455 -0.301937 -0.060077 0.457417
55 0.247913 -0.165252 0.545020 0.263834 -0.080988 0.282561 -0.117336 0.015290 0.505574 0.361074 -0.466572 0.121177 0.202612 -0.236519 0.411378 0.480584
74 0.116815 -0.857151 0.642621 0.256728 -0.133772 0.585588 0.057648 0.028905 0.135136 0.307987 -0.254254 -0.188634 0.379009 -1.040018 1.256595 0.280595
43 0.271564 -0.303399 0.402987 0.354099 0.056551 0.463216 -0.064013 0.077152 0.333465 0.426183 -0.262094 0.002149 0.071094 -0.451344 0.170149 0.322830
75 0.100178 -0.764104 0.648223 0.231691 -0.163796 0.424004 0.056010 -0.073690 0.040197 0.347594 -0.324390 -0.243116 0.370371 -0.932419 1.334799 0.160994
44 0.519094 0.148339 0.364228 0.299408 0.096240 0.079745 0.402408 0.139347 0.486695 0.279891 -0.396796 -0.331806 0.353987 -0.056030 -0.012488 0.302406
73 0.368092 -0.215850 0.425913 0.293254 0.055440 0.408275 -0.088061 0.103988 0.471800 0.342661 -0.354100 0.003112 0.088597 -0.306416 0.176752 0.383926
31 0.790948 0.021649 0.235088 0.305255 0.135443 0.242290 0.077247 0.044636 0.724636 0.236503 -0.481812 -0.312212 0.242688 -0.047280 -0.244346 0.269925
68 0.033343 -0.179703 0.404594 0.330243 -0.275273 0.358094 0.057366 -0.046541 0.089109 0.289677 -0.582871 -0.248476 0.202937 -0.574974 1.011076 0.230997
40 0.316087 -0.282631 0.356342 0.310431 -0.052090 0.363340 -0.103705 0.064355 0.340909 0.330404 -0.476756 -0.081772 0.133585 -0.397975 0.419436 0.307574
47 0.165194 -0.412630 0.419504 0.263196 -0.257490 0.329307 0.388993 -0.100736 0.252177 0.185410 -0.294003 -0.254015 0.463543 -0.621822 0.867058 0.283826
13 0.902843 0.021250 0.124676 0.247613 0.057366 0.143185 0.089588 0.083782 0.780356 0.265298 -0.572537 -0.413780 0.146857 0.051164 -0.194800 0.222641
34 0.340814 -0.017159 0.362681 0.330144 0.010966 0.157754 0.254253 0.055295 0.350837 0.277312 -0.325824 -0.220996 0.236716 -0.209725 0.184699 0.250835
9 0.307529 0.494241 0.833644 0.390010 0.670519 -0.250629 0.736724 0.100711 0.185274 0.500786 -0.400905 -0.426705 0.567780 -0.010305 -0.013379 0.527082
51 0.304828 -0.274470 0.439931 0.309711 -0.024563 0.364579 0.007517 0.079392 0.415174 0.357015 -0.306760 -0.026078 0.137295 -0.399671 0.276539 0.323707
53 0.217758 -0.198595 0.516452 0.323725 0.049058 0.256647 0.033558 0.007248 0.225297 0.372663 -0.419149 -0.032161 0.207994 -0.364211 0.465508 0.416941
46 0.401787 0.032392 0.602404 0.322934 0.206578 0.206508 0.227558 0.153547 0.439743 0.341032 -0.199655 -0.138405 0.302359 -0.187894 -0.134163 0.385928
57 0.326372 -0.089567 0.419269 0.256683 -0.093724 0.234024 0.039526 0.035998 0.476258 0.304111 -0.461871 -0.119890 0.251020 -0.237371 0.332287 0.372999
16 0.496356 -0.043077 0.321717 0.294920 0.092638 0.227654 0.187576 0.103424 0.511657 0.299430 -0.356160 -0.231906 0.252901 -0.188278 -0.008692 0.312494
8 0.222218 0.414200 0.885093 0.466825 0.813134 -0.183617 0.743163 0.101614 0.114882 0.557068 -0.348796 -0.381098 0.576533 -0.142673 0.025714 0.611877
48 0.193892 -0.305685 0.495346 0.311345 -0.176959 0.315248 0.339760 -0.043510 0.292179 0.232418 -0.288267 -0.191595 0.432096 -0.552231 0.698957 0.277269
5 0.461463 0.390341 0.643389 0.363957 0.723769 -0.193583 0.594402 0.070912 0.233695 0.530233 -0.455644 -0.445806 0.499674 -0.056292 -0.061468 0.514611
12 0.434183 0.055850 0.474590 0.367156 0.155930 0.159615 0.317109 0.175383 0.551158 0.332230 -0.276539 -0.173695 0.377579 -0.147569 -0.087680 0.370958
1 0.145164 0.330195 0.791380 0.372223 0.530861 -0.090396 0.585336 0.103349 0.051573 0.490923 -0.352804 -0.313418 0.459887 -0.187382 0.171664 0.475068
7 0.269544 0.445250 0.864293 0.423134 0.855722 -0.210429 0.732037 0.076015 0.089847 0.596200 -0.399567 -0.402332 0.532045 -0.099123 -0.092237 0.562818
10 0.179354 0.345435 0.747753 0.365021 0.632377 -0.088292 0.599524 0.079637 0.069156 0.498264 -0.381653 -0.383014 0.454233 -0.166359 0.132611 0.502883
54 0.283993 -0.051167 0.494153 0.239334 0.061900 0.181568 0.106167 0.017276 0.315897 0.313977 -0.463321 -0.098922 0.230366 -0.262777 0.358113 0.364446
6 0.321646 0.270619 0.670913 0.390415 0.602259 -0.070566 0.556930 0.092848 0.219349 0.514760 -0.391371 -0.313881 0.475843 -0.137496 -0.029666 0.471117
41 0.278910 -0.252017 0.499769 0.348190 0.141014 0.396051 0.049228 0.106866 0.314844 0.437606 -0.310812 -0.081771 0.170363 -0.446617 0.226986 0.372887
33 0.415373 -0.066681 0.400353 0.357224 0.091024 0.226149 0.168553 0.117493 0.487348 0.336622 -0.291874 -0.157903 0.269069 -0.182320 0.060822 0.320478
14 0.252991 -0.041086 0.539312 0.323336 0.175409 0.235048 0.245710 0.133476 0.317718 0.384540 -0.276357 -0.116226 0.292981 -0.266475 0.133270 0.397682
15 0.434276 -0.083004 0.344027 0.277162 0.097935 0.234057 0.135128 0.058986 0.351807 0.317887 -0.337942 -0.225923 0.220371 -0.199331 0.137383 0.266736
